{"learner":{"attributes":{"scikit_learn":"{\"_estimator_type\": \"classifier\"}"},"feature_names":["var","skew","peak_count","peak_width","entropy","mean_height","peak_heights","relative_height"],"feature_types":["float","float","float","float","float","float","float","float"],"gradient_booster":{"model":{"cats":{"enc":[],"feature_segments":[],"sorted_idx":[]},"gbtree_model_param":{"num_parallel_tree":"1","num_trees":"417"},"iteration_indptr":[0,1,2,3,4,5,6,7,8,9,10,11,12,13,14,15,16,17,18,19,20,21,22,23,24,25,26,27,28,29,30,31,32,33,34,35,36,37,38,39,40,41,42,43,44,45,46,47,48,49,50,51,52,53,54,55,56,57,58,59,60,61,62,63,64,65,66,67,68,69,70,71,72,73,74,75,76,77,78,79,80,81,82,83,84,85,86,87,88,89,90,91,92,93,94,95,96,97,98,99,100,101,102,103,104,105,106,107,108,109,110,111,112,113,114,115,116,117,118,119,120,121,122,123,124,125,126,127,128,129,130,131,132,133,134,135,136,137,138,139,140,141,142,143,144,145,146,147,148,149,150,151,152,153,154,155,156,157,158,159,160,161,162,163,164,165,166,167,168,169,170,171,172,173,174,175,176,177,178,179,180,181,182,183,184,185,186,187,188,189,190,191,192,193,194,195,196,197,198,199,200,201,202,203,204,205,206,207,208,209,210,211,212,213,214,215,216,217,218,219,220,221,222,223,224,225,226,227,228,229,230,231,232,233,234,235,236,237,238,239,240,241,242,243,244,245,246,247,248,249,250,251,252,253,254,255,256,257,258,259,260,261,262,263,264,265,266,267,268,269,270,271,272,273,274,275,276,277,278,279,280,281,282,283,284,285,286,287,288,289,290,291,292,293,294,295,296,297,298,299,300,301,302,303,304,305,306,307,308,309,310,311,312,313,314,315,316,317,318,319,320,321,322,323,324,325,326,327,328,329,330,331,332,333,334,335,336,337,338,339,340,341,342,343,344,345,346,347,348,349,350,351,352,353,354,355,356,357,358,359,360,361,362,363,364,365,366,367,368,369,370,371,372,373,374,375,376,377,378,379,380,381,382,383,384,385,386,387,388,389,390,391,392,393,394,395,396,397,398,399,400,401,402,403,404,405,406,407,408,409,410,411,412,413,414,415,416,417],"tree_info":[0,0,0,0,0,0,0,0,0,0,0,0,0,0,0,0,0,0,0,0,0,0,0,0,0,0,0,0,0,0,0,0,0,0,0,0,0,0,0,0,0,0,0,0,0,0,0,0,0,0,0,0,0,0,0,0,0,0,0,0,0,0,0,0,0,0,0,0,0,0,0,0,0,0,0,0,0,0,0,0,0,0,0,0,0,0,0,0,0,0,0,0,0,0,0,0,0,0,0,0,0,0,0,0,0,0,0,0,0,0,0,0,0,0,0,0,0,0,0,0,0,0,0,0,0,0,0,0,0,0,0,0,0,0,0,0,0,0,0,0,0,0,0,0,0,0,0,0,0,0,0,0,0,0,0,0,0,0,0,0,0,0,0,0,0,0,0,0,0,0,0,0,0,0,0,0,0,0,0,0,0,0,0,0,0,0,0,0,0,0,0,0,0,0,0,0,0,0,0,0,0,0,0,0,0,0,0,0,0,0,0,0,0,0,0,0,0,0,0,0,0,0,0,0,0,0,0,0,0,0,0,0,0,0,0,0,0,0,0,0,0,0,0,0,0,0,0,0,0,0,0,0,0,0,0,0,0,0,0,0,0,0,0,0,0,0,0,0,0,0,0,0,0,0,0,0,0,0,0,0,0,0,0,0,0,0,0,0,0,0,0,0,0,0,0,0,0,0,0,0,0,0,0,0,0,0,0,0,0,0,0,0,0,0,0,0,0,0,0,0,0,0,0,0,0,0,0,0,0,0,0,0,0,0,0,0,0,0,0,0,0,0,0,0,0,0,0,0,0,0,0,0,0,0,0,0,0,0,0,0,0,0,0,0,0,0,0,0,0,0,0,0,0,0,0,0,0,0,0,0,0,0,0,0,0,0,0,0,0,0,0,0,0,0,0,0,0,0,0,0,0,0,0,0,0,0,0,0,0,0,0,0,0,0,0,0,0],"trees":[{"base_weights":[-1.7861426E-2,-1.3239789E0,2.590352E0,-1.4241855E0,-3.1534952E-1,1.1847298E0,2.6986647E0,-1.4638678E0,-1.1121126E0,-1.0948927E0,6.2702274E-1,2.7685627E-1,4.4971162E-1,2.7453988E0,-2.2843087E-2,-2.5850838E-1,-1.393116E0,-1.3937813E0,-3.2769638E-1,-2.5769192E-1,-6.085794E-1,1.8371572E0,-7.062866E-1,-1.5352061E-2,1.8519404E0,2.7546299E0,3.594301E-2,2.959804E-1,-5.397505E-1,-1.1310914E0,-2.5192338E-1,-2.584546E-1,-1.2244138E0,3.1735304E-1,-1.0415522E0,2.0431863E-1,-2.1341014E-1,2.0895407E0,-7.4889165E-1,-9.68805E-2,-2.5234273E-1,4.0328342E-1,1.4946117E-1,1.8898666E0,2.7678719E0,4.1871756E-1,-2.0242578E-1,-2.1718235E-1,-1.1442671E-1,-1.3283375E-1,-2.4056847E-1,-2.5514442E-1,2.7565375E-1,-1.349777E-1,-2.5645584E-1,-8.178337E-2,1.9616762E-1,-1.4207534E-1,3.909074E-1,4.009761E-2,-2.589721E-1,-8.8801265E-2,2.3069274E-1,4.0251225E-1,5.599727E-2,4.324503E-1,4.746408E-1,2.6230568E-1,-2.0233768E-1],"categories":[],"categories_nodes":[],"categories_segments":[],"categories_sizes":[],"default_left":[0,0,0,0,0,0,0,0,0,0,0,0,0,0,0,0,0,0,0,0,0,0,0,0,0,0,0,0,0,0,0,0,0,0,0,0,0,0,0,0,0,0,0,0,0,0,0,0,0,0,0,0,0,0,0,0,0,0,0,0,0,0,0,0,0,0,0,0,0],"id":0,"left_children":[1,3,5,7,9,11,13,15,17,19,21,-1,23,25,27,-1,29,31,33,-1,35,37,39,-1,41,43,-1,-1,45,47,-1,-1,49,51,53,55,-1,57,59,61,-1,-1,-1,63,65,67,-1,-1,-1,-1,-1,-1,-1,-1,-1,-1,-1,-1,-1,-1,-1,-1,-1,-1,-1,-1,-1,-1,-1],"loss_changes":[4.0817703E4,8.0693164E2,6.086875E2,8.993555E1,5.3003033E2,9.218143E1,4.7211914E2,2.3586914E1,1.8101508E2,7.987079E1,5.270247E2,0E0,8.088331E1,8.538867E1,5.695188E1,0E0,5.9824707E1,1.2406494E1,9.967351E1,0E0,9.50914E1,1.1175647E2,7.322574E1,0E0,1.4851669E1,4.1634766E1,0E0,0E0,3.0034561E1,4.3204224E1,0E0,0E0,2.0874695E1,2.677871E2,1.1877251E1,5.1977676E1,0E0,9.2240234E1,1.1527064E1,5.3379086E1,0E0,0E0,0E0,4.0250763E1,1.2412109E1,3.5058674E1,0E0,0E0,0E0,0E0,0E0,0E0,0E0,0E0,0E0,0E0,0E0,0E0,0E0,0E0,0E0,0E0,0E0,0E0,0E0,0E0,0E0,0E0,0E0],"parents":[2147483647,0,0,1,1,2,2,3,3,4,4,5,5,6,6,7,7,8,8,9,9,10,10,12,12,13,13,14,14,16,16,17,17,18,18,20,20,21,21,22,22,24,24,25,25,28,28,29,29,32,32,33,33,34,34,35,35,37,37,38,38,39,39,43,43,44,44,45,45],"right_children":[2,4,6,8,10,12,14,16,18,20,22,-1,24,26,28,-1,30,32,34,-1,36,38,40,-1,42,44,-1,-1,46,48,-1,-1,50,52,54,56,-1,58,60,62,-1,-1,-1,64,66,68,-1,-1,-1,-1,-1,-1,-1,-1,-1,-1,-1,-1,-1,-1,-1,-1,-1,-1,-1,-1,-1,-1,-1],"split_conditions":[5.8441556E-1,9.375E-2,2E0,3.2608695E-2,6E0,4.110715E0,2.9E0,3.5086735E1,1.6666666E1,3.0409E2,1.7428701E4,2.7685627E-1,1.5E0,2.2427645E9,5.329079E0,-2.5850838E-1,1.7803053E3,1.02395256E2,6.71351E3,-2.5769192E-1,2.1205598E4,2.34E0,2.192405E0,-1.5352061E-2,3.4402438E4,8.333333E-1,3.594301E-2,2.959804E-1,4.44E0,1.4492754E-2,-2.5192338E-1,-2.584546E-1,5.2065103E3,5E1,2.7166667E0,2.6666668E-1,-2.1341014E-1,3.0409E2,3.2933333E0,3.5666668E1,-2.5234273E-1,4.0328342E-1,1.4946117E-1,4.8582062E4,3E0,2.5071328E4,-2.0242578E-1,-2.1718235E-1,-1.1442671E-1,-1.3283375E-1,-2.4056847E-1,-2.5514442E-1,2.7565375E-1,-1.349777E-1,-2.5645584E-1,-8.178337E-2,1.9616762E-1,-1.4207534E-1,3.909074E-1,4.009761E-2,-2.589721E-1,-8.8801265E-2,2.3069274E-1,4.0251225E-1,5.599727E-2,4.324503E-1,4.746408E-1,2.6230568E-1,-2.0233768E-1],"split_indices":[7,7,5,7,5,0,3,0,5,0,0,0,5,0,0,0,0,0,0,0,0,3,3,0,0,7,0,0,3,7,0,0,0,0,3,7,0,0,3,5,0,0,0,0,5,0,0,0,0,0,0,0,0,0,0,0,0,0,0,0,0,0,0,0,0,0,0,0,0],"split_type":[0,0,0,0,0,0,0,0,0,0,0,0,0,0,0,0,0,0,0,0,0,0,0,0,0,0,0,0,0,0,0,0,0,0,0,0,0,0,0,0,0,0,0,0,0,0,0,0,0,0,0,0,0,0,0,0,0,0,0,0,0,0,0,0,0,0,0,0,0],"sum_hessian":[1.1981832E4,7.9837847E3,3.998047E3,7.2622817E3,7.2150275E2,2.860357E2,3.7120115E3,6.443007E3,8.1927466E2,3.9486502E2,3.2663776E2,1.7916171E2,1.06873985E2,3.6493445E3,6.2667034E1,3.7213604E3,2.7216467E3,6.0281537E2,2.1645927E2,2.1283339E2,1.8203163E2,1.7122815E2,1.554096E2,7.717084E1,2.9703144E1,3.636102E3,1.3242419E1,1.4238339E1,4.8428696E1,6.600402E2,2.0616064E3,3.509905E2,2.5182483E2,1.137097E2,1.0274957E2,8.0368484E1,1.0166315E2,1.5600314E2,1.5225008E1,8.690917E1,6.8500435E1,1.9474157E1,1.0228987E1,5.4839287E1,3.5812627E3,1.9517637E1,2.8911057E1,5.04213E2,1.5582721E2,7.4162766E1,1.7766206E2,4.745594E1,6.625376E1,6.665538E1,3.6094193E1,4.664458E1,3.3723907E1,1.0100358E1,1.4590279E2,6.6810718E0,8.543937E0,6.72483E1,1.9660875E1,4.2151665E1,1.2687623E1,2.1581918E2,3.3654436E3,1.1499279E1,8.018358E0],"tree_param":{"num_deleted":"0","num_feature":"8","num_nodes":"69","size_leaf_vector":"1"}},{"base_weights":[-3.0303396E-2,-1.2080114E0,1.9416131E0,-1.3280603E0,-4.6242446E-1,9.148065E-1,2.0174003E0,-1.3550339E0,-1.1454118E0,-9.7331244E-1,4.0697783E-1,2.1962866E-1,1.5812325E-1,2.0577888E0,1.1072918E0,-1.2701873E0,-1.3677659E0,-1.2416584E0,-1.2381148E-1,-1.2231512E0,-5.745768E-1,5.685922E-1,-2.711208E-1,2.167267E-2,1.689623E-1,2.0916848E0,1.8562413E0,1.4423282E0,5.51465E-1,-2.231114E-1,-8.409087E-1,-2.3595817E-1,-1.2777183E0,-2.2624129E-1,-8.92286E-1,-2.0566593E-1,1.12139665E-1,-2.208537E-1,-1.0503794E0,-1.7349084E-1,4.8333362E-1,2.3150615E-1,1.2050765E0,-7.120232E-2,1.9596602E-1,1.0367086E-1,-3.951497E-2,3.457915E-1,3.6200017E-1,1.2150252E0,1.8977692E0,1.576741E0,5.938701E-1,1.6281528E-2,7.9771405E-1,-1.7326863E-1,1.0427171E-1,-2.2741692E-1,-1.8421927E-1,-1.7224337E-1,-9.592091E-3,1.3240078E-1,-2.6099412E-2,-2.1685648E-1,2.1652399E-2,2.8698124E-2,1.6005689E-1,-6.7472115E-2,6.985792E-2,1.6890231E-1,3.1996614E-1,1.0334186E-1,2.6111984E-1,3.4293097E-1,3.041877E-1,1.653522E-1,2.9236665E-1,-5.7569675E-2,2.860578E-1,2.668603E-2,1.6454172E-1],"categories":[],"categories_nodes":[],"categories_segments":[],"categories_sizes":[],"default_left":[0,0,0,0,0,0,0,0,0,0,0,0,0,0,0,0,0,0,0,0,0,0,0,0,0,0,0,0,0,0,0,0,0,0,0,0,0,0,0,0,0,0,0,0,0,0,0,0,0,0,0,0,0,0,0,0,0,0,0,0,0,0,0,0,0,0,0,0,0,0,0,0,0,0,0,0,0,0,0,0,0],"id":1,"left_children":[1,3,5,7,9,11,13,15,17,19,21,-1,23,25,27,29,31,33,35,37,39,41,43,45,-1,47,49,51,53,-1,55,-1,57,-1,59,-1,61,-1,63,-1,65,67,69,-1,-1,-1,-1,-1,-1,71,73,75,77,-1,79,-1,-1,-1,-1,-1,-1,-1,-1,-1,-1,-1,-1,-1,-1,-1,-1,-1,-1,-1,-1,-1,-1,-1,-1,-1,-1],"loss_changes":[2.7171377E4,6.556504E2,3.4044727E2,3.1083984E1,4.5121637E2,8.484024E1,1.4975781E2,5.939453E0,7.9826294E1,6.3743225E1,4.120657E1,0E0,1.1275591E1,2.665039E1,3.2238663E1,1.1668945E1,6.7304688E0,2.1975342E1,1.7845463E1,4.8728027E0,1.1540763E2,6.514545E1,1.5037918E1,1.2664347E1,0E0,6.5966797E0,1.4955078E1,1.23181305E1,7.3109417E0,0E0,1.4783276E1,0E0,7.7735596E0,0E0,1.4239922E1,0E0,1.0105503E1,0E0,3.0021645E1,0E0,1.0424255E1,2.2165817E1,1.5150513E1,0E0,0E0,0E0,0E0,0E0,0E0,6.573387E0,6.803467E0,7.779129E0,1.4903441E1,0E0,4.5268803E0,0E0,0E0,0E0,0E0,0E0,0E0,0E0,0E0,0E0,0E0,0E0,0E0,0E0,0E0,0E0,0E0,0E0,0E0,0E0,0E0,0E0,0E0,0E0,0E0,0E0,0E0],"parents":[2147483647,0,0,1,1,2,2,3,3,4,4,5,5,6,6,7,7,8,8,9,9,10,10,12,12,13,13,14,14,15,15,16,16,17,17,18,18,19,19,20,20,21,21,22,22,23,23,25,25,26,26,27,27,28,28,30,30,32,32,34,34,36,36,38,38,40,40,41,41,42,42,49,49,50,50,51,51,52,52,54,54],"right_children":[2,4,6,8,10,12,14,16,18,20,22,-1,24,26,28,30,32,34,36,38,40,42,44,46,-1,48,50,52,54,-1,56,-1,58,-1,60,-1,62,-1,64,-1,66,68,70,-1,-1,-1,-1,-1,-1,72,74,76,78,-1,80,-1,-1,-1,-1,-1,-1,-1,-1,-1,-1,-1,-1,-1,-1,-1,-1,-1,-1,-1,-1,-1,-1,-1,-1,-1,-1],"split_conditions":[5.8441556E-1,5.357143E-2,2E0,2.4096385E-2,1E1,6.390319E-1,1.0986123E0,-6.9652367E0,4.2666668E1,1.8181819E-1,1.1120276E0,2.1962866E-1,1.5E0,6.704685E-1,1.2662121E0,1.438849E-2,7.340044E0,2.1333334E1,3E0,1.1764706E-1,3.5E0,1.8181819E-1,5E-1,2E0,1.689623E-1,1.15E1,3E0,2.2331538E0,9E0,-2.231114E-1,6.5333336E1,-2.3595817E-1,9.036144E-3,-2.2624129E-1,4.996011E0,-2.0566593E-1,-4.4354267E0,-2.208537E-1,5E0,-1.7349084E-1,3.4862384E-1,3E0,5E0,-7.120232E-2,1.9596602E-1,1.0367086E-1,-3.951497E-2,3.457915E-1,3.6200017E-1,7.0015323E-1,8.259567E-1,-1.649914E0,5E0,1.6281528E-2,-2.0412414E0,-1.7326863E-1,1.0427171E-1,-2.2741692E-1,-1.8421927E-1,-1.7224337E-1,-9.592091E-3,1.3240078E-1,-2.6099412E-2,-2.1685648E-1,2.1652399E-2,2.8698124E-2,1.6005689E-1,-6.7472115E-2,6.985792E-2,1.6890231E-1,3.1996614E-1,1.0334186E-1,2.6111984E-1,3.4293097E-1,3.041877E-1,1.653522E-1,2.9236665E-1,-5.7569675E-2,2.860578E-1,2.668603E-2,1.6454172E-1],"split_indices":[7,7,5,7,5,4,4,1,5,7,4,0,5,4,4,7,1,5,2,7,5,7,7,2,0,5,5,1,5,0,5,0,7,0,1,0,1,0,5,0,7,2,2,0,0,0,0,0,0,4,4,1,2,0,1,0,0,0,0,0,0,0,0,0,0,0,0,0,0,0,0,0,0,0,0,0,0,0,0,0,0],"split_type":[0,0,0,0,0,0,0,0,0,0,0,0,0,0,0,0,0,0,0,0,0,0,0,0,0,0,0,0,0,0,0,0,0,0,0,0,0,0,0,0,0,0,0,0,0,0,0,0,0,0,0,0,0,0,0,0,0,0,0,0,0,0,0,0,0,0,0,0,0,0,0,0,0,0,0,0,0,0,0,0,0],"sum_hessian":[1.1699991E4,7.325129E3,4.3748623E3,6.3092583E3,1.01587067E3,3.007078E2,4.0741543E3,5.497402E3,8.118562E2,6.398656E2,3.7600507E2,2.0144516E2,9.926263E1,3.901035E3,1.7311934E2,7.1730273E2,4.780099E3,7.419554E2,6.9900826E1,3.9338156E2,2.4648404E2,3.036377E2,7.2367355E1,8.528399E1,1.3978635E1,3.3394153E3,5.616198E2,1.0801253E2,6.510682E1,6.591171E2,5.8185608E1,4.0728484E3,7.0725073E2,5.9707544E2,1.4487994E2,1.2514348E1,5.7386475E1,2.78014E2,1.1536755E2,1.7378127E2,7.270277E1,1.9850711E2,1.051306E2,6.5606766E1,6.7605896E0,2.5737553E1,5.954644E1,1.0785103E3,2.2609048E3,3.416051E1,5.274593E2,9.324124E1,1.4771289E1,2.282996E1,4.227686E1,5.192969E1,6.255917E0,5.519638E2,1.552869E2,1.2701897E2,1.7860971E1,1.6374626E1,4.101185E1,9.713196E1,1.8235594E1,4.295888E1,2.9743883E1,4.3901077E1,1.5460603E2,7.963162E1,2.5498978E1,1.1665719E1,2.2494791E1,2.6551398E2,2.619453E2,1.7201416E1,7.6039825E1,7.942379E0,6.82891E0,8.734321E0,3.3542538E1],"tree_param":{"num_deleted":"0","num_feature":"8","num_nodes":"81","size_leaf_vector":"1"}},{"base_weights":[-3.405613E-2,-9.705607E-1,1.3161345E0,1.3480654E0,-1.1841674E0,1.4463787E0,1.2864335E-1,9.448151E-1,2.7316466E-1,-2.2461787E-1,-1.2409298E0,1.6166363E0,9.587709E-1,-1.1355187E0,1.5395932E0,1.7218299E-1,8.281972E-2,-7.920468E-1,1.1487234E0,-1.2642106E0,-9.538173E-1,9.330345E-1,1.7100359E0,6.286802E-1,1.262675E0,-2.0880418E-1,-5.3820574E-1,1.6242945E0,-4.4663984E-2,-2.1297619E-1,-1.780101E-1,1.3122654E0,6.9600744E-3,-1.061627E0,-1.2761953E0,3.101915E-1,-1.191443E0,1.6293191E0,-9.3842715E-1,1.4956645E0,2.9745287E-1,1.1723962E0,-2.1392286E-1,1.3987648E0,4.289091E-1,1.2830051E-2,-1.615545E-1,2.9872882E-1,9.592407E-1,7.4726273E-3,-1.08019106E-1,2.752249E-1,1.8719257E-1,-2.0122169E-1,-1.54660195E-2,-2.2045147E-1,-2.073932E-1,1.9317809E-1,1.8375806E-3,-1.4094095E-1,-2.1024396E-1,2.931063E-1,8.3107255E-2,-6.830012E-2,-1.9611295E-1,2.8472385E-1,1.2559073E-2,2.2020435E-1,2.6136389E-2,1.0004304E-2,-9.577268E-2,2.9051507E-1,2.1865751E-1,1.0933747E-1,-3.9845114E-3,1.3862255E-3,2.4510467E-1],"categories":[],"categories_nodes":[],"categories_segments":[],"categories_sizes":[],"default_left":[0,0,0,0,0,0,0,0,0,0,0,0,0,0,0,0,0,0,0,0,0,0,0,0,0,0,0,0,0,0,0,1,0,0,0,0,0,0,0,0,0,0,0,0,0,0,0,0,0,0,0,0,0,0,0,0,0,0,0,0,0,0,0,0,0,0,0,0,0,0,0,0,0,0,0,0,0],"id":2,"left_children":[1,3,5,7,9,11,13,15,-1,17,19,21,23,25,27,-1,-1,29,31,33,35,37,39,41,43,-1,45,47,-1,49,-1,51,-1,53,55,57,59,61,63,65,-1,67,69,71,73,-1,-1,-1,75,-1,-1,-1,-1,-1,-1,-1,-1,-1,-1,-1,-1,-1,-1,-1,-1,-1,-1,-1,-1,-1,-1,-1,-1,-1,-1,-1,-1],"loss_changes":[1.39795E4,3.2330981E3,7.0028955E2,5.628546E1,3.255586E2,3.387412E2,7.982391E2,6.313217E0,0E0,2.6015057E2,3.772168E1,1.9309619E2,1.0593268E2,1.2503357E1,3.2269592E1,0E0,0E0,3.441919E1,1.768515E1,1.2673828E1,1.27135925E2,4.7371262E2,1.9338379E1,2.3190263E2,6.23844E1,0E0,7.655327E0,1.707727E1,0E0,7.723241E0,0E0,5.504669E0,0E0,3.34393E1,4.8393555E0,1.6493486E1,5.3596497E0,2.6973206E1,1.1209633E1,8.972455E1,0E0,3.720111E1,1.880915E1,1.680951E1,7.401498E0,0E0,0E0,0E0,1.4730097E1,0E0,0E0,0E0,0E0,0E0,0E0,0E0,0E0,0E0,0E0,0E0,0E0,0E0,0E0,0E0,0E0,0E0,0E0,0E0,0E0,0E0,0E0,0E0,0E0,0E0,0E0,0E0,0E0],"parents":[2147483647,0,0,1,1,2,2,3,3,4,4,5,5,6,6,7,7,9,9,10,10,11,11,12,12,13,13,14,14,17,17,18,18,19,19,20,20,21,21,22,22,23,23,24,24,26,26,27,27,29,29,31,31,33,33,34,34,35,35,36,36,37,37,38,38,39,39,41,41,42,42,43,43,44,44,48,48],"right_children":[2,4,6,8,10,12,14,16,-1,18,20,22,24,26,28,-1,-1,30,32,34,36,38,40,42,44,-1,46,48,-1,50,-1,52,-1,54,56,58,60,62,64,66,-1,68,70,72,74,-1,-1,-1,76,-1,-1,-1,-1,-1,-1,-1,-1,-1,-1,-1,-1,-1,-1,-1,-1,-1,-1,-1,-1,-1,-1,-1,-1,-1,-1,-1,-1],"split_conditions":[4E0,2E0,1.4555556E2,1.5E0,3.5E0,6.6599387E-1,1.42E2,1.14665285E-1,2.7316466E-1,2E0,3E0,6E0,2.4E1,3.1E1,4.539E3,1.7218299E-1,8.281972E-2,1.5E0,1.2662121E0,7.5E0,3E1,3.5666668E1,1.1E1,1.725E1,1.2008756E0,-2.0880418E-1,5.374E2,7.1334976E-1,-4.4663984E-2,7.0015323E-1,-1.780101E-1,-7.933077E-1,6.9600744E-3,2E0,2E0,6.3333335E0,4.6E1,1.6333334E1,7.0666664E1,2.1333334E1,2.9745287E-1,1.2662121E0,3.9E1,7.6630753E-1,1.3949151E0,1.2830051E-2,-1.615545E-1,2.9872882E-1,4.76E2,7.4726273E-3,-1.08019106E-1,2.752249E-1,1.8719257E-1,-2.0122169E-1,-1.54660195E-2,-2.2045147E-1,-2.073932E-1,1.9317809E-1,1.8375806E-3,-1.4094095E-1,-2.1024396E-1,2.931063E-1,8.3107255E-2,-6.830012E-2,-1.9611295E-1,2.8472385E-1,1.2559073E-2,2.2020435E-1,2.6136389E-2,1.0004304E-2,-9.577268E-2,2.9051507E-1,2.1865751E-1,1.0933747E-1,-3.9845114E-3,1.3862255E-3,2.4510467E-1],"split_indices":[6,2,5,5,5,4,6,4,0,6,6,6,6,6,5,0,0,5,4,5,5,5,6,5,4,0,5,4,0,4,0,1,0,6,6,5,5,5,5,5,0,4,5,4,4,0,0,0,6,0,0,0,0,0,0,0,0,0,0,0,0,0,0,0,0,0,0,0,0,0,0,0,0,0,0,0,0],"split_type":[0,0,0,0,0,0,0,0,0,0,0,0,0,0,0,0,0,0,0,0,0,0,0,0,0,0,0,0,0,0,0,0,0,0,0,0,0,0,0,0,0,0,0,0,0,0,0,0,0,0,0,0,0,0,0,0,0,0,0,0,0,0,0,0,0,0,0,0,0,0,0,0,0,0,0,0,0],"sum_hessian":[1.1055711E4,6.5278994E3,4.527811E3,5.506614E2,5.9772383E3,4.0802844E3,4.475264E2,2.1253816E2,3.381232E2,3.3383728E2,5.643401E3,3.0242947E3,1.0559897E3,2.3604146E2,2.1148494E2,1.8630032E2,2.6237837E1,2.3623225E2,9.7605034E1,5.2201235E3,4.2327747E2,3.6353586E2,2.6607588E3,5.061866E2,5.4980316E2,2.055271E2,3.0514366E1,2.0198782E2,9.497124E0,7.1554115E1,1.6467813E2,8.5050545E1,1.2554495E1,2.9156918E2,4.928554E3,6.69814E1,3.5629608E2,2.6495743E2,9.857844E1,3.633575E2,2.2974014E3,3.0765964E2,1.9852698E2,4.7265503E2,7.714816E1,1.220616E1,1.8308207E1,1.6957336E2,3.241446E1,4.441822E1,2.7135893E1,3.5391373E1,4.965917E1,2.5994608E2,3.1623102E1,3.879686E3,1.0488683E3,1.7877693E1,4.9103703E1,3.6127407E1,3.2016867E2,2.4577475E2,1.9182657E1,2.7805437E1,7.0773E1,3.238157E2,3.9541805E1,2.755788E2,3.2080845E1,1.11269165E2,8.725782E1,1.3103293E2,3.416221E2,5.251648E1,2.4631685E1,1.0838551E1,2.1575907E1],"tree_param":{"num_deleted":"0","num_feature":"8","num_nodes":"77","size_leaf_vector":"1"}},{"base_weights":[-3.345272E-2,-9.0917116E-1,1.1505916E0,1.1024662E0,-1.1095012E0,1.3641049E0,-8.898935E-1,1.11901276E-1,2.4057706E-1,-3.7854338E-1,-1.1782937E0,-2.1619357E-1,1.4029025E0,2.890284E-1,-1.1567771E0,-8.434757E-1,8.1299406E-1,-1.1989236E0,-9.2932826E-1,1.1344798E0,1.4972992E0,-6.314168E-1,7.555907E-1,-6.0468566E-1,-2.1258588E-1,-2.1115805E-1,-1.7204852E-1,5.087239E-1,1.2359728E0,-2.0819384E-1,-1.1193596E0,-9.569421E-2,-1.103576E0,1.4098295E0,1.7475043E-1,2.5813118E-1,8.708394E-1,7.524009E-2,-1.9175927E-1,9.582916E-1,-1.006267E-1,-9.977294E-1,7.961037E-2,-1.0789057E-2,-1.3660827E-1,4.294542E-2,1.8611415E-1,1.78981E-1,2.988758E-1,-1.1197995E-1,-2.010285E-1,4.3609746E-2,-2.2952574E-1,-1.5433969E-1,-2.136051E-1,2.4941951E-1,1.6408831E-1,7.2638355E-2,-1.33609E-1,1.7778942E-1,-1.6577087E-1,3.4421362E-2,1.9124825E-1,-6.8942785E-2,-2.083805E-1],"categories":[],"categories_nodes":[],"categories_segments":[],"categories_sizes":[],"default_left":[0,0,0,0,0,0,0,0,0,0,0,0,0,0,0,0,0,0,0,0,0,0,0,0,0,0,0,0,0,0,0,0,0,0,0,0,0,0,0,0,0,0,0,0,0,0,0,0,0,0,0,0,0,0,0,0,0,0,0,0,0,0,0,0,0],"id":3,"left_children":[1,3,5,7,9,11,13,-1,-1,15,17,-1,19,21,23,25,27,29,31,33,35,37,39,41,-1,43,-1,45,47,-1,49,51,53,55,57,-1,59,-1,-1,61,-1,63,-1,-1,-1,-1,-1,-1,-1,-1,-1,-1,-1,-1,-1,-1,-1,-1,-1,-1,-1,-1,-1,-1,-1],"loss_changes":[1.0600554E4,2.3683335E3,1.8936572E3,7.318323E1,2.6875146E2,4.0174658E2,1.2954526E2,0E0,0E0,2.5468396E2,2.5089355E1,0E0,9.825293E1,3.2638805E1,1.6606903E1,3.4550385E1,1.6606888E1,7.788574E0,5.429767E1,2.6660437E2,2.8937988E1,1.3514139E1,1.3756357E1,1.9740595E1,0E0,5.9760704E0,0E0,1.1231348E1,5.201889E0,0E0,2.651001E1,2.8384083E1,9.139374E0,1.8428467E1,5.4114567E1,0E0,2.2722023E1,0E0,0E0,5.4043007E0,0E0,4.559311E0,0E0,0E0,0E0,0E0,0E0,0E0,0E0,0E0,0E0,0E0,0E0,0E0,0E0,0E0,0E0,0E0,0E0,0E0,0E0,0E0,0E0,0E0,0E0],"parents":[2147483647,0,0,1,1,2,2,3,3,4,4,5,5,6,6,9,9,10,10,12,12,13,13,14,14,15,15,16,16,17,17,18,18,19,19,20,20,21,21,22,22,23,23,25,25,27,27,28,28,30,30,31,31,32,32,33,33,34,34,36,36,39,39,41,41],"right_children":[2,4,6,8,10,12,14,-1,-1,16,18,-1,20,22,24,26,28,30,32,34,36,38,40,42,-1,44,-1,46,48,-1,50,52,54,56,58,-1,60,-1,-1,62,-1,64,-1,-1,-1,-1,-1,-1,-1,-1,-1,-1,-1,-1,-1,-1,-1,-1,-1,-1,-1,-1,-1,-1,-1],"split_conditions":[4E0,2E0,2.38E0,1.5E0,5.5E0,1.96E0,3E0,1.11901276E-1,2.4057706E-1,2E0,3E0,-2.1619357E-1,1.3E1,9E0,2.76E0,1.5E0,3E0,2E0,3.45E1,1.2333333E1,1.9758065E0,2.8937814E0,4.84E0,3.3E1,-2.1258588E-1,3E0,-1.7204852E-1,1.9787502E0,8.0522114E-1,-2.0819384E-1,2.325E1,1.960194E0,1.960194E0,3E0,1.015E2,2.5813118E-1,2.42E2,7.524009E-2,-1.9175927E-1,1.4E1,-1.006267E-1,4.8666668E1,7.961037E-2,-1.0789057E-2,-1.3660827E-1,4.294542E-2,1.8611415E-1,1.78981E-1,2.988758E-1,-1.1197995E-1,-2.010285E-1,4.3609746E-2,-2.2952574E-1,-1.5433969E-1,-2.136051E-1,2.4941951E-1,1.6408831E-1,7.2638355E-2,-1.33609E-1,1.7778942E-1,-1.6577087E-1,3.4421362E-2,1.9124825E-1,-6.8942785E-2,-2.083805E-1],"split_indices":[6,2,3,5,5,3,2,0,0,6,6,0,6,6,3,5,6,6,5,5,3,3,3,6,0,2,0,1,1,0,5,3,3,2,5,0,5,0,0,6,0,5,0,0,0,0,0,0,0,0,0,0,0,0,0,0,0,0,0,0,0,0,0,0,0],"split_type":[0,0,0,0,0,0,0,0,0,0,0,0,0,0,0,0,0,0,0,0,0,0,0,0,0,0,0,0,0,0,0,0,0,0,0,0,0,0,0,0,0,0,0,0,0,0,0,0,0,0,0,0,0,0,0,0,0,0,0,0,0,0,0,0,0],"sum_hessian":[1.0223417E4,5.8768804E3,4.3465366E3,5.322484E2,5.344632E3,3.934805E3,4.1173193E2,2.1730919E2,3.1493924E2,4.597314E2,4.8849004E3,5.716724E1,3.8776377E3,7.60023E1,3.3572964E2,3.3069556E2,1.2903586E2,4.511101E3,3.737994E2,1.0088669E3,2.8687708E3,2.5565691E1,5.0436607E1,4.6876343E1,2.888533E2,6.851107E1,2.6218448E2,7.504917E1,5.398669E1,3.5444368E3,9.666642E2,6.462435E1,3.0917508E2,7.8394916E2,2.2491771E2,2.7968828E3,7.188791E1,8.049147E0,1.7516544E1,4.3833347E1,6.603259E0,3.4295444E1,1.2580899E1,5.4774563E1,1.3736508E1,5.2076397E1,2.2972776E1,3.9653713E1,1.4332979E1,1.0971031E2,8.5695386E2,5.0444405E1,1.4179948E1,1.3237694E2,1.7679813E2,7.016886E2,8.2260574E1,1.7820807E2,4.6709644E1,6.576629E1,6.1216183E0,7.769741E0,3.6063606E1,9.396512E0,2.489893E1],"tree_param":{"num_deleted":"0","num_feature":"8","num_nodes":"65","size_leaf_vector":"1"}},{"base_weights":[-3.9899934E-2,-1.0159402E0,1.2055287E0,-1.0981107E0,-2.6959434E-1,3.3644214E-1,1.2766213E0,-2.0541196E-1,-9.581048E-1,2.1941242E-1,-8.7354386E-1,1.268987E-1,-3.6123326E-1,1.2997799E0,-4.498856E-1,-1.0802374E0,-5.7089365E-1,-9.9893427E-1,1.044605E0,-9.214571E-1,-3.7102005E-3,-8.0646163E-1,-2.3802912E-2,7.23607E-1,1.3246541E0,5.882021E-2,-1.5114386E-1,-6.7853737E-1,-1.9649354E-1,-8.2668334E-2,-1.0520238E0,-2.0343316E-1,-7.731779E-1,-2.010261E-1,1.135192E0,-1.0194886E0,-5.554534E-1,-2.0868592E-1,-2.4999422E-1,1.2561287E0,-5.205975E-1,2.3145784E-1,1.2417976E0,-8.640781E-2,1.2552248E-1,-1.5403162E-1,-3.6488477E-2,-1.24920025E-1,1.9148177E-1,-1.8841657E-1,-1.12918906E-1,-5.2667715E-2,-1.9535132E-1,2.5679222E-1,1.5742065E-1,-8.245218E-2,-1.9385406E-1,-1.7962307E-1,9.8464586E-2,8.280317E-2,-1.2885241E-1,-2.5755245E-2,2.2839294E-1,-1.5715195E-1,2.1973895E-1,1.5128453E-1,2.1619341E-1],"categories":[],"categories_nodes":[],"categories_segments":[],"categories_sizes":[],"default_left":[0,0,0,0,0,0,0,0,0,0,0,0,0,0,0,0,0,0,0,0,0,0,0,0,0,1,0,0,0,0,0,0,0,0,0,0,0,0,0,0,0,0,0,0,0,0,0,0,0,0,0,0,0,0,0,0,0,0,0,0,0,0,0,0,0,0,0],"id":4,"left_children":[1,3,5,7,9,11,13,-1,15,17,19,-1,21,23,25,27,29,31,33,35,-1,37,-1,39,41,43,-1,45,-1,47,49,-1,51,-1,53,55,57,-1,59,61,63,-1,65,-1,-1,-1,-1,-1,-1,-1,-1,-1,-1,-1,-1,-1,-1,-1,-1,-1,-1,-1,-1,-1,-1,-1,-1],"loss_changes":[1.1320485E4,3.2019385E2,2.5280908E2,6.993164E1,1.52928E2,8.797486E1,1.5122998E2,0E0,9.594153E1,2.8767062E2,9.455231E0,0E0,1.12605505E1,5.3490234E1,1.1110274E1,4.4475098E1,1.1426961E2,5.0545807E0,3.4355972E1,7.869873E0,0E0,8.801067E0,0E0,1.0233879E2,9.593262E0,8.84857E0,0E0,2.439376E1,0E0,1.8908496E2,5.030426E0,0E0,9.223162E0,0E0,1.2884842E1,1.0856598E1,2.6121418E1,0E0,6.0394526E0,1.2620453E1,3.3561455E1,0E0,9.173462E0,0E0,0E0,0E0,0E0,0E0,0E0,0E0,0E0,0E0,0E0,0E0,0E0,0E0,0E0,0E0,0E0,0E0,0E0,0E0,0E0,0E0,0E0,0E0,0E0],"parents":[2147483647,0,0,1,1,2,2,3,3,4,4,5,5,6,6,8,8,9,9,10,10,12,12,13,13,14,14,15,15,16,16,17,17,18,18,19,19,21,21,23,23,24,24,25,25,27,27,29,29,30,30,32,32,34,34,35,35,36,36,38,38,39,39,40,40,42,42],"right_children":[2,4,6,8,10,12,14,-1,16,18,20,-1,22,24,26,28,30,32,34,36,-1,38,-1,40,42,44,-1,46,-1,48,50,-1,52,-1,54,56,58,-1,60,62,64,-1,66,-1,-1,-1,-1,-1,-1,-1,-1,-1,-1,-1,-1,-1,-1,-1,-1,-1,-1,-1,-1,-1,-1,-1,-1],"split_conditions":[3.4862384E-1,5E0,2E0,4.5E1,1.5123659E4,4.110715E0,3.008365E8,-2.0541196E-1,2.739726E-2,1.7094018E-2,6.6700326E8,1.268987E-1,5.8441556E-1,8.333333E-1,2.2427645E9,8.103557E2,1.1623542E4,8.022222E1,5.751195E1,5.076369E0,-3.7102005E-3,2.0966067E3,-2.3802912E-2,2.8970867E4,2.3728395E1,0E0,-1.5114386E-1,2E0,-1.9649354E-1,2E0,2.5E-1,-2.0343316E-1,1.2395441E3,-2.010261E-1,2.0966067E3,-5.8054304E0,2.8571429E-2,-2.0868592E-1,8.331251E4,7.094367E2,1.1547005E0,2.3145784E-1,4E0,-8.640781E-2,1.2552248E-1,-1.5403162E-1,-3.6488477E-2,-1.24920025E-1,1.9148177E-1,-1.8841657E-1,-1.12918906E-1,-5.2667715E-2,-1.9535132E-1,2.5679222E-1,1.5742065E-1,-8.245218E-2,-1.9385406E-1,-1.7962307E-1,9.8464586E-2,8.280317E-2,-1.2885241E-1,-2.5755245E-2,2.2839294E-1,-1.5715195E-1,2.1973895E-1,1.5128453E-1,2.1619341E-1],"split_indices":[7,6,6,0,0,0,0,0,7,7,0,0,7,7,0,0,0,0,0,1,0,0,0,0,0,1,0,6,0,6,7,0,0,0,0,1,7,0,0,0,1,0,6,0,0,0,0,0,0,0,0,0,0,0,0,0,0,0,0,0,0,0,0,0,0,0,0],"split_type":[0,0,0,0,0,0,0,0,0,0,0,0,0,0,0,0,0,0,0,0,0,0,0,0,0,0,0,0,0,0,0,0,0,0,0,0,0,0,0,0,0,0,0,0,0,0,0,0,0,0,0,0,0,0,0,0,0,0,0,0,0,0,0,0,0,0,0],"sum_hessian":[9.31276E3,5.22104E3,4.09172E3,4.703229E3,5.178112E2,3.0939966E2,3.7823203E3,2.674485E3,2.0287439E3,2.8613388E2,2.3167732E2,1.9530832E2,1.1409133E2,3.7322576E3,5.0062763E1,1.5422831E3,4.8646082E2,1.1554247E2,1.7059143E2,2.1933948E2,1.2337845E1,3.7923763E1,7.6167564E1,1.5445828E2,3.5777993E3,2.3112291E1,2.6950472E1,2.3383206E2,1.3084509E3,2.4145007E2,2.4501074E2,6.2174915E1,5.3367554E1,6.6788044E0,1.6391261E2,1.730021E2,4.633737E1,2.16775E1,1.6246264E1,1.0816393E2,4.6294346E1,2.57285E3,1.00494934E3,1.2594877E1,1.0517414E1,1.5764508E2,7.618699E1,1.5688213E2,8.456795E1,2.158695E2,2.914124E1,2.374149E1,2.9626064E1,5.9714596E1,1.0419802E2,3.1006912E1,1.419952E2,3.2193443E1,1.4143928E1,6.6175003E0,9.628763E0,6.019208E0,1.0214472E2,3.789791E1,8.396436E0,6.79357E1,9.370137E2],"tree_param":{"num_deleted":"0","num_feature":"8","num_nodes":"67","size_leaf_vector":"1"}},{"base_weights":[-4.358322E-2,-9.597366E-1,1.0828736E0,-1.0629413E0,-3.1718817E-1,1.1176143E0,-6.6164637E-1,-1.102773E0,-7.875363E-1,2.706527E-1,-2.0366244E-1,2.8700593E-1,1.1925879E0,1.2488304E-1,-1.7683947E-1,-1.9035906E-1,-9.359117E-1,-1.6875328E-1,-1.3574822E-1,-7.7264756E-1,5.72238E-1,1.02171265E-1,-1.9476679E-1,1.2381381E0,8.8273644E-1,-6.681163E-1,-1.9965449E-1,-1.8620027E-2,-2.0362853E-1,-2.0168649E-1,-3.7992823E-1,3.7784985E-1,1.1040237E0,-1.1994657E-1,5.137552E-3,9.975781E-1,1.2530648E0,9.6863014E-1,-5.0045246E-1,-2.724583E-2,-1.571633E-1,3.169354E-2,-5.7099774E-2,-1.1147553E-1,1.8599164E-1,2.5733182E-2,9.075683E-2,2.067096E-1,-2.4491651E-2,2.3880744E-2,-7.1400166E-2,1.7754397E-1,1.5548877E-2,2.1615544E-1,1.9218962E-1,1.2524694E-1,1.815513E-1,-2.8874638E-2,-2.6568964E-1],"categories":[],"categories_nodes":[],"categories_segments":[],"categories_sizes":[],"default_left":[0,0,0,0,0,0,0,0,0,0,0,0,0,0,0,0,0,0,0,0,0,0,0,0,0,0,0,0,0,0,0,0,0,0,0,0,0,0,0,0,0,0,0,0,0,0,0,0,0,0,0,0,0,0,0,0,0,0,0],"id":5,"left_children":[1,3,5,7,9,11,13,15,17,19,-1,21,23,-1,-1,-1,25,-1,27,29,31,-1,33,35,37,39,-1,41,-1,-1,43,45,47,-1,49,51,53,55,57,-1,-1,-1,-1,-1,-1,-1,-1,-1,-1,-1,-1,-1,-1,-1,-1,-1,-1,-1,-1],"loss_changes":[8.710859E3,3.086831E2,2.2944385E2,4.3996582E1,3.320515E2,2.3115381E2,3.8651867E1,7.7680664E0,6.667212E1,1.2134284E2,0E0,4.6195183E1,4.8052246E1,0E0,0E0,0E0,1.623825E1,0E0,1.4851007E1,1.3918686E1,3.0926086E1,0E0,1.2278269E1,1.0658691E1,5.1841705E1,1.554187E1,0E0,6.973044E0,0E0,0E0,1.7768986E1,7.670496E0,1.078051E1,0E0,4.9555097E0,6.81369E0,5.0234375E0,9.2213745E0,8.932575E0,0E0,0E0,0E0,0E0,0E0,0E0,0E0,0E0,0E0,0E0,0E0,0E0,0E0,0E0,0E0,0E0,0E0,0E0,0E0,0E0],"parents":[2147483647,0,0,1,1,2,2,3,3,4,4,5,5,6,6,7,7,8,8,9,9,11,11,12,12,16,16,18,18,19,19,20,20,22,22,23,23,24,24,25,25,27,27,30,30,31,31,32,32,34,34,35,35,36,36,37,37,38,38],"right_children":[2,4,6,8,10,12,14,16,18,20,-1,22,24,-1,-1,-1,26,-1,28,30,32,-1,34,36,38,40,-1,42,-1,-1,44,46,48,-1,50,52,54,56,58,-1,-1,-1,-1,-1,-1,-1,-1,-1,-1,-1,-1,-1,-1,-1,-1,-1,-1,-1,-1],"split_conditions":[3.4862384E-1,4E0,2.92E0,4.5454547E-2,2.06E0,2E0,7.540899E-1,3E0,2E0,1.4492754E-2,-2.0366244E-1,1.14665285E-1,8.369882E-1,1.2488304E-1,-1.7683947E-1,-1.9035906E-1,1.960194E0,-1.6875328E-1,1.960194E0,1.96E0,1.7E1,1.02171265E-1,5.8441556E-1,3E0,1.9750769E0,5.5666668E1,-1.9965449E-1,1.15E1,-2.0362853E-1,-2.0168649E-1,1E1,6E0,1.237569E0,-1.1994657E-1,7.0015323E-1,6.390319E-1,6.498727E-1,1.1E1,1.16E2,-2.724583E-2,-1.571633E-1,3.169354E-2,-5.7099774E-2,-1.1147553E-1,1.8599164E-1,2.5733182E-2,9.075683E-2,2.067096E-1,-2.4491651E-2,2.3880744E-2,-7.1400166E-2,1.7754397E-1,1.5548877E-2,2.1615544E-1,1.9218962E-1,1.2524694E-1,1.815513E-1,-2.8874638E-2,-2.6568964E-1],"split_indices":[7,6,3,7,3,6,4,6,6,7,0,4,4,0,0,0,3,0,3,3,6,0,7,6,3,5,0,5,0,0,6,6,4,0,4,4,4,6,6,0,0,0,0,0,0,0,0,0,0,0,0,0,0,0,0,0,0,0,0],"split_type":[0,0,0,0,0,0,0,0,0,0,0,0,0,0,0,0,0,0,0,0,0,0,0,0,0,0,0,0,0,0,0,0,0,0,0,0,0,0,0,0,0,0,0,0,0,0,0,0,0,0,0,0,0,0,0,0,0,0,0],"sum_hessian":[8.440697E3,4.654868E3,3.785829E3,4.0106814E3,6.441867E2,3.7119094E3,7.3919525E1,3.5039128E3,5.0676865E2,3.856511E2,2.5853564E2,3.073111E2,3.4045984E3,1.5676207E1,5.8243317E1,3.2454944E3,2.5841837E2,3.8693903E2,1.1982965E2,8.648075E1,2.9917035E2,1.8651588E2,1.2079523E2,2.9682468E3,4.3635162E2,1.20684235E2,1.3773412E2,1.0788701E2,1.194264E1,4.2318836E1,4.416191E1,2.1908595E2,8.008439E1,3.408861E1,8.670661E1,1.7341835E2,2.7948284E3,4.108392E2,2.551243E1,4.0136257E1,8.054798E1,6.551941E1,4.23676E1,3.723276E1,6.929151E0,8.864495E1,1.30441E2,7.370977E1,6.3746142E0,6.5772316E1,2.09343E1,1.6550357E2,7.9147844E0,2.5116619E3,2.8316666E2,1.19216095E2,2.916231E2,1.9427288E1,6.085142E0],"tree_param":{"num_deleted":"0","num_feature":"8","num_nodes":"59","size_leaf_vector":"1"}},{"base_weights":[-4.2588003E-2,-9.0441793E-1,1.0016097E0,-1.0162113E0,-3.3178097E-1,2.5626522E-1,1.0824898E0,-1.936197E-1,-8.717868E-1,-1.9629236E-1,-2.79836E-2,-6.875171E-1,3.5755315E-1,1.1398594E0,5.3177047E-1,-4.758816E-1,-1.0485574E0,7.062363E-1,-7.649291E-1,-2.0009975E-1,-2.3118062E-1,8.881942E-2,3.125212E-2,1.1434131E0,-5.5647876E-2,6.5749425E-1,-1.3207465E-1,-7.8696096E-1,9.545776E-2,-1.825723E-1,-7.488011E-1,1.0399066E0,-3.4391217E-2,-9.334994E-1,-3.286228E-2,9.765971E-2,-1.5572454E-1,1.74112E-2,-1.0352452E-1,1.1757485E0,1.0185624E0,-6.854946E-1,8.204465E-1,-9.754001E-2,-1.7744811E-1,-9.430382E-2,1.758705E-1,8.933541E-2,-1.5288568E-1,2.4879393E-1,1.4881821E-1,-1.0731686E-1,9.394666E-2,-1.7264068E-1,8.885558E-2,1.856278E-1,2.0632643E-1,-3.6621816E-3,1.7621545E-1,-5.0298784E-2,-2.8165838E-1,1.7577623E-1,8.640652E-2],"categories":[],"categories_nodes":[],"categories_segments":[],"categories_sizes":[],"default_left":[0,0,0,0,0,0,0,0,0,0,0,0,0,0,0,0,0,0,0,0,0,0,0,0,0,0,0,0,0,0,0,0,0,0,0,0,0,0,0,0,0,0,0,0,0,0,0,0,0,0,0,0,0,0,0,0,0,0,0,0,0,0,0],"id":6,"left_children":[1,3,5,7,9,11,13,-1,15,-1,17,19,21,23,25,27,29,31,33,-1,35,-1,37,39,-1,41,-1,43,45,-1,47,49,51,53,-1,-1,-1,-1,-1,55,57,59,61,-1,-1,-1,-1,-1,-1,-1,-1,-1,-1,-1,-1,-1,-1,-1,-1,-1,-1,-1,-1],"loss_changes":[6.842396E3,2.6665674E2,2.0725049E2,5.987793E1,1.6929578E2,3.217141E1,9.798633E1,0E0,1.10161255E2,0E0,2.685328E2,7.2287283E0,1.618349E1,1.4634033E1,4.8047157E1,8.635635E1,7.126831E0,6.1436584E1,2.3893234E1,0E0,9.215576E0,0E0,4.580154E0,1.1311768E1,0E0,5.8410294E1,0E0,1.714679E1,1.0390899E2,0E0,1.3881733E1,1.2014099E1,2.68764E1,2.1894226E1,0E0,0E0,0E0,0E0,0E0,6.6013184E0,8.736755E0,1.0895452E1,1.5696518E1,0E0,0E0,0E0,0E0,0E0,0E0,0E0,0E0,0E0,0E0,0E0,0E0,0E0,0E0,0E0,0E0,0E0,0E0,0E0,0E0],"parents":[2147483647,0,0,1,1,2,2,3,3,4,4,5,5,6,6,8,8,10,10,11,11,12,12,13,13,14,14,15,15,16,16,17,17,18,18,20,20,22,22,23,23,25,25,27,27,28,28,30,30,31,31,32,32,33,33,39,39,40,40,41,41,42,42],"right_children":[2,4,6,8,10,12,14,-1,16,-1,18,20,22,24,26,28,30,32,34,-1,36,-1,38,40,-1,42,-1,44,46,-1,48,50,52,54,-1,-1,-1,-1,-1,56,58,60,62,-1,-1,-1,-1,-1,-1,-1,-1,-1,-1,-1,-1,-1,-1,-1,-1,-1,-1,-1,-1],"split_conditions":[3.9473686E-1,5.357143E-2,2E0,3.5086735E1,1.606408E2,5.8441556E-1,9.713611E-1,-1.936197E-1,2.6682222E3,-1.9629236E-1,1.6241886E4,7.094367E2,6.390319E-1,2.2427645E9,3.008365E8,1.4492754E-2,3.846154E-2,9.2027205E-1,5E0,-2.0009975E-1,2.1205598E4,8.881942E-2,1.3357967E0,5.9386367E-1,-5.5647876E-2,4.8787778E2,-1.3207465E-1,6.3984753E2,2.4666666E1,-1.825723E-1,3.8913286E3,5.9386367E-1,2E-1,2.2427645E9,-3.286228E-2,9.765971E-2,-1.5572454E-1,1.74112E-2,-1.0352452E-1,8.333333E0,1.7887517E0,2.95E1,2.5071328E4,-9.754001E-2,-1.7744811E-1,-9.430382E-2,1.758705E-1,8.933541E-2,-1.5288568E-1,2.4879393E-1,1.4881821E-1,-1.0731686E-1,9.394666E-2,-1.7264068E-1,8.885558E-2,1.856278E-1,2.0632643E-1,-3.6621816E-3,1.7621545E-1,-5.0298784E-2,-2.8165838E-1,1.7577623E-1,8.640652E-2],"split_indices":[7,7,5,0,0,7,4,0,0,0,0,0,4,0,0,7,7,4,2,0,0,0,4,4,0,0,0,0,5,0,0,4,7,0,0,0,0,0,0,5,0,5,0,0,0,0,0,0,0,0,0,0,0,0,0,0,0,0,0,0,0,0,0],"split_type":[0,0,0,0,0,0,0,0,0,0,0,0,0,0,0,0,0,0,0,0,0,0,0,0,0,0,0,0,0,0,0,0,0,0,0,0,0,0,0,0,0,0,0,0,0,0,0,0,0,0,0,0,0,0,0,0,0,0,0,0,0,0,0],"sum_hessian":[7.6033315E3,4.165407E3,3.4379243E3,3.485039E3,6.803683E2,3.3654306E2,3.1013813E3,1.9109554E3,1.5740835E3,1.8407796E2,4.9629034E2,3.2617653E1,3.0392538E2,2.8087847E3,2.9259674E2,4.8587988E2,1.0882036E3,2.486049E2,2.4768542E2,1.5801305E1,1.6816349E1,2.0260161E2,1.0132379E2,2.8019932E3,6.7914796E0,2.66905E2,2.5691738E1,3.145925E2,1.7128738E2,1.01427545E3,7.3928185E1,1.7138976E2,7.721516E1,1.9132654E2,5.6358894E1,7.7180514E0,9.098298E0,9.120218E1,1.0121615E1,2.2255823E3,5.7641077E2,2.8880789E1,2.380242E2,1.701588E2,1.444337E2,1.0117749E2,7.0109886E1,7.681346E0,6.624683E1,4.8947144E1,1.2244261E2,3.8293285E1,3.8921867E1,1.815079E2,9.818627E0,6.221824E2,1.6034E3,7.965485E0,5.6844525E2,2.0564358E1,8.316431E0,1.4257474E2,9.544946E1],"tree_param":{"num_deleted":"0","num_feature":"8","num_nodes":"63","size_leaf_vector":"1"}},{"base_weights":[-4.0896438E-2,-8.618833E-1,9.173329E-1,-9.8042816E-1,-2.2288357E-1,2.0367642E-1,9.990019E-1,-1.0383569E0,-7.1231997E-1,2.6352337E-1,-1.868093E-1,-1.08853795E-1,2.831534E-1,1.0370066E0,-2.978242E-1,-1.8239239E-1,-9.5757556E-1,-9.102867E-1,-1.7942455E-1,-1.9217569E-1,4.012911E-1,6.879741E-2,8.069364E-3,1.1057172E0,7.803365E-1,6.5258217E-1,-1.2746653E-1,-8.167344E-1,-1.906925E-1,-1.6689532E-1,-1.138969E-1,-3.629951E-2,-2.0075132E-1,2.2355248E-1,1.6278023E-1,1.4797191E-1,1.9110791E-1,8.283351E-1,6.1302762E-2,2.7102577E-2,2.2141492E-1,-1.0760838E-1,-1.634018E-1,-3.62686E-2,4.3303963E-2,-1.0683917E-1,5.3595882E-2,-1.4655709E-2,1.4784206E-1,1.6269691E-1,-3.6986843E-2],"categories":[],"categories_nodes":[],"categories_segments":[],"categories_sizes":[],"default_left":[0,0,0,0,0,0,0,0,0,0,0,0,0,0,0,0,0,0,0,0,0,0,0,0,0,0,0,0,0,0,0,0,0,0,0,0,0,0,0,0,0,0,0,0,0,0,0,0,0,0,0],"id":7,"left_children":[1,3,5,7,9,11,13,15,17,19,-1,-1,21,23,25,-1,27,29,31,-1,33,-1,-1,35,37,39,-1,41,-1,-1,-1,43,-1,45,-1,-1,-1,47,49,-1,-1,-1,-1,-1,-1,-1,-1,-1,-1,-1,-1],"loss_changes":[5.3818823E3,2.790957E2,1.8398486E2,4.8268555E1,2.446477E2,2.1688953E1,1.3960449E2,6.3986816E0,5.8253693E1,7.089741E1,0E0,0E0,8.396505E0,4.853296E1,3.445336E1,0E0,1.6013184E1,6.659851E0,2.1355108E1,0E0,3.3107433E1,0E0,0E0,7.6169434E0,2.005603E1,8.252837E0,0E0,9.907761E0,0E0,0E0,0E0,6.6934237E0,0E0,1.9643383E1,0E0,0E0,0E0,1.9150146E1,9.02842E0,0E0,0E0,0E0,0E0,0E0,0E0,0E0,0E0,0E0,0E0,0E0,0E0],"parents":[2147483647,0,0,1,1,2,2,3,3,4,4,5,5,6,6,7,7,8,8,9,9,12,12,13,13,14,14,16,16,17,17,18,18,20,20,23,23,24,24,25,25,27,27,31,31,33,33,37,37,38,38],"right_children":[2,4,6,8,10,12,14,16,18,20,-1,-1,22,24,26,-1,28,30,32,-1,34,-1,-1,36,38,40,-1,42,-1,-1,-1,44,-1,46,-1,-1,-1,48,50,-1,-1,-1,-1,-1,-1,-1,-1,-1,-1,-1,-1],"split_conditions":[3.9473686E-1,4E0,2E0,3.2608695E-2,1.9763334E0,5.8441556E-1,2.696E0,2E0,2E0,1.96E0,-1.868093E-1,-1.08853795E-1,6.390319E-1,6.6599387E-1,8.169828E-1,-1.8239239E-1,1.960194E0,1.4521453E-1,1.960194E0,-1.9217569E-1,1.8E1,6.879741E-2,8.069364E-3,3E0,1.9679033E0,3.6E1,-1.2746653E-1,6.1E1,-1.906925E-1,-1.6689532E-1,-1.138969E-1,3E0,-2.0075132E-1,1.1173184E-2,1.6278023E-1,1.4797191E-1,1.9110791E-1,3E0,7.595474E-1,2.7102577E-2,2.2141492E-1,-1.0760838E-1,-1.634018E-1,-3.62686E-2,4.3303963E-2,-1.0683917E-1,5.3595882E-2,-1.4655709E-2,1.4784206E-1,1.6269691E-1,-3.6986843E-2],"split_indices":[7,6,5,7,3,7,3,6,6,3,0,0,4,4,4,0,3,7,3,0,6,0,0,6,3,6,0,5,0,0,0,6,0,7,0,0,0,6,4,0,0,0,0,0,0,0,0,0,0,0,0],"split_type":[0,0,0,0,0,0,0,0,0,0,0,0,0,0,0,0,0,0,0,0,0,0,0,0,0,0,0,0,0,0,0,0,0,0,0,0,0,0,0,0,0,0,0,0,0,0,0,0,0,0,0],"sum_hessian":[6.841141E3,3.6844214E3,3.1567197E3,3.107862E3,5.765592E2,3.2415186E2,2.8325679E3,2.5556716E3,5.5219037E2,3.7016495E2,2.0639426E2,2.7961689E1,2.9619016E2,2.7519202E3,8.064759E1,1.8470094E3,7.0866235E2,4.0261996E2,1.495704E2,3.3374844E1,3.3679013E2,1.961966E2,9.999355E1,2.170798E3,5.81122E2,2.5895416E1,5.475218E1,3.7737903E2,3.3128333E2,3.1424213E2,8.837783E1,1.3080344E2,1.8766973E1,2.5488063E2,8.1909485E1,1.2645526E2,2.0443429E3,5.4475714E2,3.63649E1,1.4673778E1,1.1221639E1,1.6298625E2,2.1439279E2,8.136172E1,4.9441715E1,2.457053E1,2.303101E2,2.1985775E1,5.2277136E2,8.639936E0,2.7724962E1],"tree_param":{"num_deleted":"0","num_feature":"8","num_nodes":"51","size_leaf_vector":"1"}},{"base_weights":[-3.9819542E-2,-8.4812546E-1,8.2001555E-1,-9.506165E-1,-2.710074E-1,1.0875941E-1,9.027568E-1,-1.8567711E-1,-7.776978E-1,1.5999797E-1,-1.8413839E-1,6.50978E-2,-2.7506152E-1,9.489288E-1,-5.4173934E-1,-4.7177738E-1,-9.620788E-1,5.3446424E-1,-4.3155703E-1,-5.0249046E-1,-5.2106082E-3,9.998704E-1,5.8939755E-1,2.7282804E-1,-9.202943E-1,-7.365971E-1,8.403844E-2,-1.7212762E-1,-3.2628933E-1,-9.076184E-1,8.2243013E-1,-6.3789946E-1,4.0169996E-1,-1.9303136E-1,-2.395955E-2,8.283493E-1,-9.215948E-2,1.0084921E0,-5.1311545E-2,-3.766168E-1,8.464606E-1,-7.32025E-2,1.1300065E-1,-9.156787E-2,-1.9720736E-1,6.1511386E-2,-1.3706648E-1,9.523333E-2,-1.8563232E-1,1.508607E-1,-1.2233091E-1,-1.8812618E-1,-1.9194426E-2,-1.2657541E-1,1.6414475E-1,-1.2798348E-1,5.1933747E-2,1.3585225E-1,-2.6711682E-2,2.4614456E-1,5.4157387E-2,1.3774864E-1,1.7450629E-1,-1.8399777E-1,1.8495923E-2,1.5234654E-1,-6.4588785E-2],"categories":[],"categories_nodes":[],"categories_segments":[],"categories_sizes":[],"default_left":[0,0,0,0,0,0,0,0,0,0,0,0,0,0,0,0,0,0,0,0,0,0,0,0,0,0,0,0,0,0,0,0,0,0,0,0,0,0,0,0,0,0,0,0,0,0,0,0,0,0,0,0,0,0,0,0,0,0,0,0,0,0,0,0,0,0,0],"id":8,"left_children":[1,3,5,7,9,11,13,-1,15,17,-1,-1,19,21,23,25,27,29,31,33,35,37,39,41,43,45,47,-1,49,51,53,55,57,-1,-1,59,-1,61,-1,63,65,-1,-1,-1,-1,-1,-1,-1,-1,-1,-1,-1,-1,-1,-1,-1,-1,-1,-1,-1,-1,-1,-1,-1,-1,-1,-1],"loss_changes":[4.262639E3,1.8699072E2,1.7489563E2,6.405786E1,1.661508E2,3.243931E1,1.7755493E2,0E0,6.7207825E1,6.888918E1,0E0,0E0,7.898224E0,4.7247803E1,2.5426748E1,6.5952194E1,2.2258118E1,7.9082954E1,2.0727009E1,1.5908384E1,2.6253466E1,2.53396E1,7.950317E1,7.1570616E0,5.092495E0,2.2314133E1,8.0403915E1,0E0,2.4265446E1,4.9233303E0,3.4753532E1,1.0239883E1,5.273904E0,0E0,0E0,7.2267427E0,0E0,6.59375E0,0E0,2.29175E1,1.4478073E1,0E0,0E0,0E0,0E0,0E0,0E0,0E0,0E0,0E0,0E0,0E0,0E0,0E0,0E0,0E0,0E0,0E0,0E0,0E0,0E0,0E0,0E0,0E0,0E0,0E0,0E0],"parents":[2147483647,0,0,1,1,2,2,3,3,4,4,5,5,6,6,8,8,9,9,12,12,13,13,14,14,15,15,16,16,17,17,18,18,19,19,20,20,21,21,22,22,23,23,24,24,25,25,26,26,28,28,29,29,30,30,31,31,32,32,35,35,37,37,39,39,40,40],"right_children":[2,4,6,8,10,12,14,-1,16,18,-1,-1,20,22,24,26,28,30,32,34,36,38,40,42,44,46,48,-1,50,52,54,56,58,-1,-1,60,-1,62,-1,64,66,-1,-1,-1,-1,-1,-1,-1,-1,-1,-1,-1,-1,-1,-1,-1,-1,-1,-1,-1,-1,-1,-1,-1,-1,-1,-1],"split_conditions":[2.6666668E-1,4E0,2E0,4.5E1,2.2225E0,4.110715E0,2.78E0,-1.8567711E-1,5.2065103E3,1.4174404E4,-1.8413839E-1,6.50978E-2,4.8787778E2,2.5071328E4,9.2027205E-1,2E0,1.1764706E-1,1.02395256E2,1.8E1,5.8441556E-1,2.8970867E4,1.3357967E0,9E0,9E0,1.8950207E4,3.6004645E-1,1.960194E0,-1.7212762E-1,1.2378647E4,4.0629784E1,7.0921984E-3,3.008365E8,9.721249E5,-1.9303136E-1,-2.395955E-2,7.0015323E-1,-9.215948E-2,3E0,-5.1311545E-2,8.333333E-1,1.4680591E0,-7.32025E-2,1.1300065E-1,-9.156787E-2,-1.9720736E-1,6.1511386E-2,-1.3706648E-1,9.523333E-2,-1.8563232E-1,1.508607E-1,-1.2233091E-1,-1.8812618E-1,-1.9194426E-2,-1.2657541E-1,1.6414475E-1,-1.2798348E-1,5.1933747E-2,1.3585225E-1,-2.6711682E-2,2.4614456E-1,5.4157387E-2,1.3774864E-1,1.7450629E-1,-1.8399777E-1,1.8495923E-2,1.5234654E-1,-6.4588785E-2],"split_indices":[7,6,6,0,3,0,3,0,0,0,0,0,0,0,4,6,7,0,6,7,0,4,6,6,0,4,3,0,0,0,7,0,0,0,0,4,0,6,0,7,4,0,0,0,0,0,0,0,0,0,0,0,0,0,0,0,0,0,0,0,0,0,0,0,0,0,0],"split_type":[0,0,0,0,0,0,0,0,0,0,0,0,0,0,0,0,0,0,0,0,0,0,0,0,0,0,0,0,0,0,0,0,0,0,0,0,0,0,0,0,0,0,0,0,0,0,0,0,0,0,0,0,0,0,0,0,0,0,0,0,0,0,0,0,0,0,0],"sum_hessian":[6.133207E3,3.1613313E3,2.9718757E3,2.684575E3,4.7675644E2,3.0969482E2,2.662181E3,1.4930728E3,1.1915022E3,3.1098767E2,1.6576875E2,1.8100037E2,1.2869444E2,2.5797224E3,8.24584E1,4.480722E2,7.4343005E2,1.9043713E2,1.2055055E2,6.9836555E1,5.8857883E1,2.259567E3,3.2015564E2,2.6162477E1,5.629592E1,3.0347894E2,1.4459325E2,6.921639E2,5.126614E1,3.1698189E1,1.5873894E2,9.662336E1,2.3927193E1,2.5505146E1,4.4331413E1,2.3011784E1,3.58461E1,2.244688E3,1.4878898E1,6.728944E1,2.5286621E2,9.338822E0,1.6823656E1,2.144341E1,3.4852512E1,1.7467745E1,2.860112E2,1.02945175E2,4.1648064E1,1.2512516E1,3.8753624E1,2.544615E1,6.252038E0,1.3032452E1,1.457065E2,8.632231E1,1.0301047E1,1.4016127E1,9.911066E0,1.04433565E1,1.2568428E1,1.5231525E2,2.0923726E3,2.7492514E1,3.9796925E1,2.435748E2,9.291409E0],"tree_param":{"num_deleted":"0","num_feature":"8","num_nodes":"67","size_leaf_vector":"1"}},{"base_weights":[-3.542069E-2,-7.9917216E-1,7.515414E-1,-9.417261E-1,-3.3321825E-1,7.288631E-2,8.383097E-1,-9.78404E-1,-5.370654E-1,5.552418E-2,-1.7941384E-1,1.4722489E-1,-9.081374E-2,8.8085747E-1,-5.20386E-1,-1.7184658E-1,-8.760355E-1,-1.19445406E-1,7.3681936E-2,-6.718198E-1,2.2611433E-1,3.8517594E-2,-7.329075E-2,9.6432203E-1,6.2086797E-1,2.738507E-1,-1.3171598E-1,-5.214578E-1,-1.6514644E-1,1.3574511E-1,-2.5324019E-2,-1.8714274E-1,-4.3301263E-1,1.085542E-1,5.1510835E-1,1.4229727E-1,1.736848E-1,6.8314356E-1,-1.2387589E-1,-3.3082724E-2,1.7747647E-1,-6.48107E-2,-1.835269E-1,-1.0616274E-1,1.5586469E-1,5.5797543E-2,-1.3548654E-2,9.993709E-2,-3.453418E-2,7.542675E-2,1.4070982E-1,1.3154384E-1,-4.802622E-2],"categories":[],"categories_nodes":[],"categories_segments":[],"categories_sizes":[],"default_left":[0,0,0,0,0,0,0,0,0,0,0,0,0,0,0,0,0,0,0,0,0,0,0,0,0,0,0,0,0,0,0,0,0,0,0,0,0,0,0,0,0,0,0,0,0,0,0,0,0,0,0,0,0],"id":9,"left_children":[1,3,5,7,9,11,13,15,17,19,-1,21,-1,23,25,-1,27,-1,29,31,33,-1,-1,35,37,39,-1,41,-1,-1,-1,-1,43,45,47,-1,-1,49,51,-1,-1,-1,-1,-1,-1,-1,-1,-1,-1,-1,-1,-1,-1],"loss_changes":[3.2966848E3,1.8489111E2,1.5907507E2,3.1634766E1,1.8217894E2,1.3780035E1,1.3846423E2,5.8251953E0,1.7659245E1,5.2507423E1,0E0,1.2367678E1,0E0,5.039734E1,1.4547897E1,0E0,1.4149139E1,0E0,5.9935102E0,8.167007E0,1.1645851E1,0E0,0E0,1.2340576E1,2.6176193E1,6.2800875E0,0E0,7.007267E0,0E0,0E0,0E0,0E0,1.3135355E1,1.0012424E1,5.0368023E0,0E0,0E0,1.7796692E1,6.1477404E0,0E0,0E0,0E0,0E0,0E0,0E0,0E0,0E0,0E0,0E0,0E0,0E0,0E0,0E0],"parents":[2147483647,0,0,1,1,2,2,3,3,4,4,5,5,6,6,7,7,8,8,9,9,11,11,13,13,14,14,16,16,18,18,19,19,20,20,23,23,24,24,25,25,27,27,32,32,33,33,34,34,37,37,38,38],"right_children":[2,4,6,8,10,12,14,16,18,20,-1,22,-1,24,26,-1,28,-1,30,32,34,-1,-1,36,38,40,-1,42,-1,-1,-1,-1,44,46,48,-1,-1,50,52,-1,-1,-1,-1,-1,-1,-1,-1,-1,-1,-1,-1,-1,-1],"split_conditions":[2.6666668E-1,3E0,2E0,6.896552E-2,2.14E0,9.582603E-1,2.86E0,2E0,2E0,1.0869565E-2,-1.7941384E-1,1.5E0,-9.081374E-2,6.704685E-1,7.595474E-1,-1.7184658E-1,3.5E1,-1.19445406E-1,5.6666665E0,1.96E0,1.1E1,3.8517594E-2,-7.329075E-2,8.6E0,1.9681667E0,3.9E1,-1.3171598E-1,1.960194E0,-1.6514644E-1,1.3574511E-1,-2.5324019E-2,-1.8714274E-1,1.4E1,6.390319E-1,1.237569E0,1.4229727E-1,1.736848E-1,1.4E1,7.4603266E-1,-3.3082724E-2,1.7747647E-1,-6.48107E-2,-1.835269E-1,-1.0616274E-1,1.5586469E-1,5.5797543E-2,-1.3548654E-2,9.993709E-2,-3.453418E-2,7.542675E-2,1.4070982E-1,1.3154384E-1,-4.802622E-2],"split_indices":[7,6,6,7,3,4,3,6,6,7,0,5,0,4,4,0,5,0,5,3,6,0,0,5,3,6,0,3,0,0,0,0,6,4,4,0,0,6,4,0,0,0,0,0,0,0,0,0,0,0,0,0,0],"split_type":[0,0,0,0,0,0,0,0,0,0,0,0,0,0,0,0,0,0,0,0,0,0,0,0,0,0,0,0,0,0,0,0,0,0,0,0,0,0,0,0,0,0,0,0,0,0,0,0,0,0,0,0,0],"sum_hessian":[5.4849355E3,2.783516E3,2.7014194E3,2.1314272E3,6.520889E2,3.0623257E2,2.3951868E3,1.954293E3,1.7713435E2,4.2318173E2,2.2890718E2,2.7273795E2,3.349463E1,2.3224587E3,7.272808E1,1.5215117E3,4.3278122E2,1.3977661E2,3.735774E1,8.0396355E1,3.4278537E2,2.400353E2,3.2702656E1,1.7580658E3,5.643929E2,1.7509796E1,5.521829E1,8.931464E1,3.4346658E2,8.7884E0,2.856934E1,2.8906256E1,5.14901E1,2.4366476E2,9.912061E1,5.15673E2,1.2423928E3,5.2084015E2,4.355274E1,1.0874435E1,6.635362E0,7.1159966E1,1.815467E1,4.5141655E1,6.348446E0,1.1266485E2,1.3099991E2,9.02175E1,8.903113E0,1.9299525E2,3.278449E2,6.523692E0,3.702905E1],"tree_param":{"num_deleted":"0","num_feature":"8","num_nodes":"53","size_leaf_vector":"1"}},{"base_weights":[-4.02655E-2,-6.2257856E-1,6.215763E-1,2.0492394E-1,-8.7373465E-1,7.4845934E-1,-6.084428E-1,4.4135472E-1,-1.646711E-1,-1.8048142E-1,-6.5793794E-1,8.480483E-1,2.50877E-1,1.161199E-1,-7.3097634E-1,3.9466463E-2,1.1563431E-1,-3.65503E-1,2.1996462E-1,-8.6489296E-1,-2.6645747E-1,-1.850544E-1,8.666833E-1,-2.802403E-1,6.971261E-1,-4.0209544E-1,-1.7074624E-1,-7.356827E-1,-1.6765203E-2,5.3872824E-1,-7.02746E-2,-5.766114E-1,-9.670977E-1,2.3116657E-1,-7.1882844E-1,8.9611894E-1,5.273187E-1,1.7843704E-1,-4.7044623E-1,1.2943743E-1,-7.631172E-2,-8.056458E-1,5.2938186E-2,-5.007497E-2,-1.807161E-1,1.0897439E-1,-9.459017E-2,5.0139353E-2,1.5428686E-1,-4.4832863E-2,-1.3242646E-1,-1.16098195E-1,-1.7354809E-1,1.0490154E-1,-1.742042E-1,-3.589835E-2,-1.4173354E-1,1.3185765E-1,1.6109423E-1,-1.3292484E-1,1.1331499E-1,7.413854E-2,-1.0737772E-1,-1.3183746E-1,-4.5739077E-2,2.6864242E-3,-1.5978323E-1,8.3265215E-2,-1.3335188E-1],"categories":[],"categories_nodes":[],"categories_segments":[],"categories_sizes":[],"default_left":[0,0,0,0,0,0,0,0,0,0,0,0,0,0,0,0,0,0,0,0,0,0,0,0,0,0,0,0,0,0,0,0,0,0,0,0,0,0,0,0,0,0,0,0,0,0,0,0,0,0,0,0,0,0,0,0,0,0,0,0,0,0,0,0,0,0,0,0,0],"id":10,"left_children":[1,3,5,7,9,11,13,15,17,-1,19,21,23,-1,25,-1,-1,27,29,31,33,-1,35,37,39,41,-1,43,45,47,-1,49,51,53,55,57,59,61,63,-1,-1,65,67,-1,-1,-1,-1,-1,-1,-1,-1,-1,-1,-1,-1,-1,-1,-1,-1,-1,-1,-1,-1,-1,-1,-1,-1,-1,-1],"loss_changes":[1.900591E3,5.452185E2,3.602265E2,5.3376175E1,8.0089966E1,1.0368103E2,3.4096138E1,1.8506119E1,1.840825E1,0E0,7.513321E1,6.279895E1,8.269961E1,0E0,1.7508049E1,0E0,0E0,2.0211042E1,1.6467632E1,1.7874237E1,7.2193985E1,0E0,1.7248901E1,1.3899114E1,1.34019165E1,1.6320436E1,0E0,1.087291E1,2.842665E1,4.8656874E0,0E0,9.953682E0,6.4653015E0,7.342352E1,9.576996E0,9.455566E0,2.4677517E1,9.668233E0,6.891073E0,0E0,0E0,5.0742455E0,1.5177465E1,0E0,0E0,0E0,0E0,0E0,0E0,0E0,0E0,0E0,0E0,0E0,0E0,0E0,0E0,0E0,0E0,0E0,0E0,0E0,0E0,0E0,0E0,0E0,0E0,0E0,0E0],"parents":[2147483647,0,0,1,1,2,2,3,3,4,4,5,5,6,6,7,7,8,8,10,10,11,11,12,12,14,14,17,17,18,18,19,19,20,20,22,22,23,23,24,24,25,25,27,27,28,28,29,29,31,31,32,32,33,33,34,34,35,35,36,36,37,37,38,38,41,41,42,42],"right_children":[2,4,6,8,10,12,14,16,18,-1,20,22,24,-1,26,-1,-1,28,30,32,34,-1,36,38,40,42,-1,44,46,48,-1,50,52,54,56,58,60,62,64,-1,-1,66,68,-1,-1,-1,-1,-1,-1,-1,-1,-1,-1,-1,-1,-1,-1,-1,-1,-1,-1,-1,-1,-1,-1,-1,-1,-1,-1],"split_conditions":[4E0,4E0,2.34E0,2E0,4.5E1,2.5071328E4,4.6875E0,1.5E0,2E0,-1.8048142E-1,2E0,1.96E0,2.2E1,1.161199E-1,3.47E0,3.9466463E-2,1.1563431E-1,4.8787778E2,2.5071328E4,1.9367965E3,7.6313843E3,-1.850544E-1,5E0,7.5E0,1.9758065E0,1.7E1,-1.7074624E-1,1.5E0,2.1205598E4,2.6682222E3,-7.02746E-2,4E0,1.0666667E1,1.960194E0,8.6E0,1.2E1,1.725E1,1.1098314E8,4E0,1.2943743E-1,-7.631172E-2,9.333333E0,2.1205598E4,-5.007497E-2,-1.807161E-1,1.0897439E-1,-9.459017E-2,5.0139353E-2,1.5428686E-1,-4.4832863E-2,-1.3242646E-1,-1.16098195E-1,-1.7354809E-1,1.0490154E-1,-1.742042E-1,-3.589835E-2,-1.4173354E-1,1.3185765E-1,1.6109423E-1,-1.3292484E-1,1.1331499E-1,7.413854E-2,-1.0737772E-1,-1.3183746E-1,-4.5739077E-2,2.6864242E-3,-1.5978323E-1,8.3265215E-2,-1.3335188E-1],"split_indices":[6,5,3,2,0,0,0,5,6,0,6,3,6,0,3,0,0,0,0,0,0,0,2,5,3,6,0,5,0,0,0,2,5,3,5,6,5,0,2,0,0,5,0,0,0,0,0,0,0,0,0,0,0,0,0,0,0,0,0,0,0,0,0,0,0,0,0,0,0],"split_type":[0,0,0,0,0,0,0,0,0,0,0,0,0,0,0,0,0,0,0,0,0,0,0,0,0,0,0,0,0,0,0,0,0,0,0,0,0,0,0,0,0,0,0,0,0,0,0,0,0,0,0,0,0,0,0,0,0,0,0,0,0,0,0,0,0,0,0,0,0],"sum_hessian":[4.9314873E3,2.6233586E3,2.308129E3,6.1082574E2,2.012533E3,2.092297E3,2.1583163E2,3.7252234E2,2.3830339E2,1.0851772E3,9.273557E2,1.7433693E3,3.4892792E2,1.8732847E1,1.9709879E2,1.9736977E2,1.7515257E2,1.5655861E2,8.174479E1,6.066513E2,3.2070444E2,1.6646343E1,1.7267229E3,1.5931464E2,1.8961328E2,8.887724E1,1.0822155E2,7.5944595E1,8.0614006E1,5.43375E1,2.7407288E1,1.5878314E2,4.4786816E2,1.5271382E2,1.679906E2,1.5889054E3,1.3781752E2,4.66996E1,1.12615036E2,1.7990627E2,9.707025E0,4.7103294E1,4.177395E1,3.210956E1,4.383504E1,3.632643E1,4.4287575E1,3.255602E1,2.1781479E1,6.177319E1,9.700995E1,6.701591E1,3.8085226E2,1.1689005E2,3.5823776E1,3.0360888E1,1.3762971E2,4.4830072E2,1.1406046E3,1.3081926E1,1.24735596E2,3.5455738E1,1.1243861E1,4.5127876E1,6.748716E1,6.4853387E0,4.0617954E1,2.7457783E1,1.4316166E1],"tree_param":{"num_deleted":"0","num_feature":"8","num_nodes":"69","size_leaf_vector":"1"}},{"base_weights":[-2.6393287E-2,-6.691528E-1,6.9521457E-1,-1.0407971E0,-3.9706787E-1,2.3873009E-1,7.994129E-1,-2.7708597E-2,-1.784159E-1,-6.8153575E-2,-7.625526E-1,2.9603148E-1,-6.08753E-2,9.090753E-1,4.689879E-1,-6.3873875E-1,3.462471E-1,-1.5957087E-1,-5.936309E-1,1.6254666E-1,9.7840875E-2,1.4160773E-1,1.6258852E-1,5.2777284E-1,-1.2929636E-1,-1.7316113E-1,-1.6332252E-1,-3.1491002E-1,6.4473987E-1,1.6624969E-1,-6.528883E-1,1.34837E-1,1.4847425E-1,1.6366151E-1,6.86454E-1,-9.812679E-2,4.611492E-2,-1.7101695E-1,-7.17011E-3,1.3935204E-1,-5.2276435E-3,-1.22641E-1,1.24114245E-1,3.4341056E-2,-4.1510265E-2,7.438218E-2,-6.757791E-2,1.4764866E-1,7.1845286E-2],"categories":[],"categories_nodes":[],"categories_segments":[],"categories_sizes":[],"default_left":[0,0,0,0,0,0,0,0,0,0,0,0,0,0,0,0,0,0,0,0,0,0,0,0,0,0,0,0,0,0,1,0,0,0,0,0,0,0,0,0,0,0,0,0,0,0,0,0,0],"id":11,"left_children":[1,3,5,7,9,11,13,-1,-1,15,17,19,-1,21,23,25,27,-1,29,31,-1,-1,-1,33,-1,35,-1,37,39,-1,41,43,-1,45,47,-1,-1,-1,-1,-1,-1,-1,-1,-1,-1,-1,-1,-1,-1],"loss_changes":[2.0745842E3,2.3921228E2,1.0022711E2,4.602173E0,1.6418274E2,1.3365608E1,6.216382E1,0E0,0E0,1.699717E2,1.8904907E1,1.3237463E1,0E0,4.4852295E0,3.0835548E1,4.488967E1,8.21797E1,0E0,3.0419228E1,4.732288E0,0E0,0E0,0E0,2.3570122E1,0E0,2.192466E1,0E0,2.4307245E1,3.3379494E1,0E0,2.8801437E1,5.8388753E0,0E0,1.8886213E1,1.3504074E1,0E0,0E0,0E0,0E0,0E0,0E0,0E0,0E0,0E0,0E0,0E0,0E0,0E0,0E0],"parents":[2147483647,0,0,1,1,2,2,3,3,4,4,5,5,6,6,9,9,10,10,11,11,13,13,14,14,15,15,16,16,18,18,19,19,23,23,25,25,27,27,28,28,30,30,31,31,33,33,34,34],"right_children":[2,4,6,8,10,12,14,-1,-1,16,18,20,-1,22,24,26,28,-1,30,32,-1,-1,-1,34,-1,36,-1,38,40,-1,42,44,-1,46,48,-1,-1,-1,-1,-1,-1,-1,-1,-1,-1,-1,-1,-1,-1],"split_conditions":[5.8441556E-1,4.5E1,3E0,-9.41803E0,1.3224535E4,3.4402438E4,6.615632E-1,-2.7708597E-2,-1.784159E-1,1.6666668E-2,2.0408163E-2,2E0,-6.08753E-2,4.110715E0,6.6700326E8,9.110944E2,2E0,-1.5957087E-1,-6.9652367E0,4.2675314E2,9.7840875E-2,1.4160773E-1,1.6258852E-1,9.110944E2,-1.2929636E-1,6.7114094E-3,-1.6332252E-1,2.5400433E2,9.582603E-1,1.6624969E-1,7.0517144E0,1.3192069E1,1.4847425E-1,8.7977237E-1,2.5071328E4,-9.812679E-2,4.611492E-2,-1.7101695E-1,-7.17011E-3,1.3935204E-1,-5.2276435E-3,-1.22641E-1,1.24114245E-1,3.4341056E-2,-4.1510265E-2,7.438218E-2,-6.757791E-2,1.4764866E-1,7.1845286E-2],"split_indices":[7,0,6,1,0,0,4,0,0,7,7,6,0,0,0,0,6,0,1,0,0,0,0,0,0,7,0,0,4,0,1,0,0,4,0,0,0,0,0,0,0,0,0,0,0,0,0,0,0],"split_type":[0,0,0,0,0,0,0,0,0,0,0,0,0,0,0,0,0,0,0,0,0,0,0,0,0,0,0,0,0,0,0,0,0,0,0,0,0,0,0,0,0,0,0,0,0,0,0,0,0],"sum_hessian":[4.472819E3,2.365654E3,2.1071648E3,9.9989056E2,1.3657635E3,3.915994E2,1.7155653E3,5.9298677E0,9.939607E2,7.1884564E2,6.469179E2,3.572329E2,3.4366486E1,1.2880753E3,4.2749008E2,3.0243085E2,4.1641476E2,3.1960284E2,3.2731506E2,2.412349E2,1.1599802E2,4.6249475E2,8.2558057E2,4.0794623E2,1.9543844E1,1.22920715E2,1.7951013E2,1.2952306E2,2.8689172E2,1.191686E1,3.1539822E2,2.3214838E2,9.086516E0,1.2382229E2,2.8412396E2,6.446777E1,5.845295E1,3.679212E1,9.2730934E1,2.2858682E2,5.830489E1,3.0097775E2,1.4420456E1,1.9743301E2,3.4715355E1,8.329181E1,4.053047E1,1.6956268E2,1.1456127E2],"tree_param":{"num_deleted":"0","num_feature":"8","num_nodes":"49","size_leaf_vector":"1"}},{"base_weights":[-4.0868912E-2,-7.008046E-1,5.628752E-1,-1.75848E-1,-4.40636E-1,7.2252476E-1,2.6414317E-1,-3.8445067E-2,-7.331644E-1,8.817317E-2,8.4028924E-1,3.637065E-1,-3.7129515E-1,-5.3641796E-1,3.420975E-1,-8.5770625E-1,-3.5731816E-1,-1.5546641E-1,1.4900434E-1,4.1944927E-1,-1.4986669E-1,-1.641843E-2,-8.136368E-1,-1.22991495E-1,-1.5356535E-1,7.099984E-1,-1.1683218E-1,-1.6639401E-1,-7.38606E-1,3.3213592E-1,-5.674965E-1,-1.8636914E-1,4.5493206E-1,5.361521E-1,1.3902695E-1,-1.2263704E-1,4.375224E-2,-3.3046493E-1,6.245932E-1,-1.9667336E-1,-8.528886E-2,2.491057E-2,-1.7082842E-1,-1.2558669E-1,1.5789029E-1,-9.306486E-2,4.2687103E-2,-1.3384756E-1,-1.8382727E-3,2.77002E-1,1.3430497E-2,-1.1774029E-1,1.606014E-1,2.1505742E-1,-1.7212032E-1,3.9634943E-2,1.3328847E-1,-3.219762E-2,1.217246E-1,-1.9905101E-1,-2.8707089E-2,2.0555075E-1,-9.007462E-2],"categories":[],"categories_nodes":[],"categories_segments":[],"categories_sizes":[],"default_left":[0,0,0,0,0,0,0,0,0,0,0,0,0,0,0,0,0,0,0,0,0,0,0,0,0,0,0,0,0,0,0,0,0,0,0,0,0,0,0,0,0,0,0,0,0,0,0,0,0,0,0,0,0,0,0,0,0,0,0,0,0,0,0],"id":12,"left_children":[1,3,5,-1,7,9,11,13,15,-1,17,19,21,23,25,27,29,31,-1,33,35,37,39,41,-1,43,45,-1,47,49,51,-1,53,55,57,-1,-1,59,61,-1,-1,-1,-1,-1,-1,-1,-1,-1,-1,-1,-1,-1,-1,-1,-1,-1,-1,-1,-1,-1,-1,-1,-1],"loss_changes":[1.6099542E3,1.6583527E2,1.00640564E2,0E0,1.2703279E2,3.3293396E1,4.6498287E1,8.615552E1,2.9259277E1,0E0,2.9001648E1,1.81903E1,1.5628254E1,2.9630241E1,4.351185E1,6.5898743E0,2.2544466E1,1.6190964E1,0E0,1.875824E1,1.4389347E1,1.11202755E1,4.717493E0,2.1792635E1,0E0,4.462387E1,1.8050398E1,0E0,7.8402634E0,1.18986025E1,2.2096172E1,0E0,2.0223555E1,3.0161041E1,3.1728601E1,0E0,0E0,5.029484E0,1.2155158E1,0E0,0E0,0E0,0E0,0E0,0E0,0E0,0E0,0E0,0E0,0E0,0E0,0E0,0E0,0E0,0E0,0E0,0E0,0E0,0E0,0E0,0E0,0E0,0E0],"parents":[2147483647,0,0,1,1,2,2,4,4,5,5,6,6,7,7,8,8,10,10,11,11,12,12,13,13,14,14,15,15,16,16,17,17,19,19,20,20,21,21,22,22,23,23,25,25,26,26,28,28,29,29,30,30,32,32,33,33,34,34,37,37,38,38],"right_children":[2,4,6,-1,8,10,12,14,16,-1,18,20,22,24,26,28,30,32,-1,34,36,38,40,42,-1,44,46,-1,48,50,52,-1,54,56,58,-1,-1,60,62,-1,-1,-1,-1,-1,-1,-1,-1,-1,-1,-1,-1,-1,-1,-1,-1,-1,-1,-1,-1,-1,-1,-1,-1],"split_conditions":[2.2222222E-1,4.5E1,6.3589793E-1,-1.75848E-1,5.2065103E3,1.1020408E0,1.9750769E0,1.4492754E-2,6.0606062E-2,8.817317E-2,3.4862384E-1,1.2662121E0,1.8950207E4,6.3984753E2,6.87092E-1,9.615385E-3,1.0783685E4,3.5943594E2,1.4900434E-1,2.1205598E4,1.6241886E4,8.103557E2,1E0,1.960194E0,-1.5356535E-1,1.02395256E2,5.263158E-2,-1.6639401E-1,6.6700326E8,6.390319E-1,2.2427645E9,-1.8636914E-1,1.6241886E4,6.3984753E2,4E0,-1.2263704E-1,4.375224E-2,2.47E0,3.43E0,-1.9667336E-1,-8.528886E-2,2.491057E-2,-1.7082842E-1,-1.2558669E-1,1.5789029E-1,-9.306486E-2,4.2687103E-2,-1.3384756E-1,-1.8382727E-3,2.77002E-1,1.3430497E-2,-1.1774029E-1,1.606014E-1,2.1505742E-1,-1.7212032E-1,3.9634943E-2,1.3328847E-1,-3.219762E-2,1.217246E-1,-1.9905101E-1,-2.8707089E-2,2.0555075E-1,-9.007462E-2],"split_indices":[7,0,4,0,0,0,3,7,7,0,7,4,0,0,4,7,0,0,0,0,0,0,7,3,0,0,7,0,0,4,0,0,0,0,2,0,0,3,3,0,0,0,0,0,0,0,0,0,0,0,0,0,0,0,0,0,0,0,0,0,0,0,0],"split_type":[0,0,0,0,0,0,0,0,0,0,0,0,0,0,0,0,0,0,0,0,0,0,0,0,0,0,0,0,0,0,0,0,0,0,0,0,0,0,0,0,0,0,0,0,0,0,0,0,0,0,0,0,0,0,0,0,0,0,0,0,0,0,0],"sum_hessian":[4.0407222E3,1.9305226E3,2.1101997E3,8.507916E2,1.079731E3,1.3752391E3,7.349606E2,4.5464685E2,6.250841E2,5.0088324E2,8.7435596E2,6.354028E2,9.955777E1,1.969373E2,2.5770953E2,4.6950662E2,1.5557747E2,2.830264E1,8.460533E2,5.7318933E2,6.2213444E1,5.5240253E1,4.4317516E1,9.2197876E1,1.0473943E2,1.4304085E2,1.14668686E2,2.3599437E2,2.3351224E2,3.634708E1,1.19230385E2,1.1163031E1,1.713961E1,4.0474664E2,1.6844269E2,2.5916725E1,3.629672E1,3.7075905E1,1.8164349E1,2.1281725E1,2.303579E1,7.058329E1,2.1614586E1,1.8564219E1,1.2447662E2,5.288994E1,6.1778744E1,2.1959402E2,1.3918221E1,5.960105E0,3.0386976E1,1.1025795E2,8.972437E0,1.1054408E1,6.0852017E0,1.8082364E2,2.23923E2,1.0725773E2,6.1184967E1,6.0198984E0,3.1056007E1,1.2080314E1,6.0840344E0],"tree_param":{"num_deleted":"0","num_feature":"8","num_nodes":"63","size_leaf_vector":"1"}},{"base_weights":[-3.172503E-2,-5.876964E-1,4.3785614E-1,1.12781614E-1,-8.0697125E-1,5.617499E-1,-4.2911876E-2,-1.30555155E-2,7.273249E-2,-1.73749E-1,-6.00483E-1,1.5420747E-1,6.891781E-1,-3.033869E-1,4.1255277E-1,1.2303468E-1,-2.2226362E-1,-2.1185061E-1,-7.4818987E-1,5.087062E-1,-6.090301E-1,7.7487403E-1,4.2401025E-1,-9.361185E-2,-5.670507E-1,1.3633594E-1,8.3547264E-2,1.5091414E-2,1.4683557E-1,-4.5641392E-1,7.868895E-3,2.1241595E-1,-5.77369E-1,-2.8597972E-1,-1.5489097E-1,1.2578452E-1,3.1463993E-1,-1.7653976E-1,-3.940158E-2,8.087692E-1,-1.793989E-2,2.4988927E-2,5.615612E-1,-2.2390625E-1,1.5370607E-1,-6.3773495E-1,8.0573454E-2,2.2790466E-1,-9.982571E-2,-4.758833E-2,-1.6891274E-1,6.8414636E-2,-1.253038E-1,-1.1548421E-1,7.865167E-3,4.1285217E-2,-1.0697306E-1,8.2289405E-2,-9.503686E-3,9.850047E-2,-1.464834E-1,1.0848812E-1,1.4461036E-1,-1.3625114E-1,1.21574305E-1,9.264868E-2,-7.5348146E-2,1.04703754E-1,-1.5126406E-1,9.5105305E-2,-7.302015E-2,-1.2901478E-1,-3.9412335E-2,1.4590827E-1,1.132898E-2],"categories":[],"categories_nodes":[],"categories_segments":[],"categories_sizes":[],"default_left":[0,0,0,0,0,0,0,0,0,0,0,0,0,0,0,0,0,0,0,1,0,0,0,0,0,0,0,0,0,0,0,0,0,0,0,0,0,0,0,0,0,0,0,0,0,0,0,0,0,0,0,0,0,0,0,0,0,0,0,0,0,0,0,0,0,0,0,0,0,0,0,0,0,0,0],"id":13,"left_children":[1,3,5,7,9,11,13,15,-1,-1,17,19,21,23,25,27,29,31,33,35,37,39,41,43,45,-1,47,-1,-1,49,-1,51,53,55,-1,-1,57,-1,59,61,63,65,67,69,-1,71,-1,73,-1,-1,-1,-1,-1,-1,-1,-1,-1,-1,-1,-1,-1,-1,-1,-1,-1,-1,-1,-1,-1,-1,-1,-1,-1,-1,-1],"loss_changes":[9.6756036E2,2.6064612E2,1.1967258E2,1.5967233E1,5.6495728E1,8.296036E1,4.8839054E1,8.22029E0,0E0,0E0,3.7556427E1,1.0295386E2,2.7653992E1,1.4485353E1,1.9058805E1,4.460101E0,7.1513605E0,2.7941753E1,3.504239E1,1.1534912E1,2.9285488E1,2.4715332E1,1.6313866E1,1.8904408E1,8.525883E0,0E0,7.8137603E0,0E0,0E0,5.7564383E0,0E0,1.4901863E1,6.0169487E0,2.1954947E1,0E0,0E0,8.736972E0,0E0,2.6102459E1,5.951599E0,2.1517076E1,1.8429571E1,1.6746521E1,2.058032E1,0E0,5.243374E0,0E0,6.745434E0,0E0,0E0,0E0,0E0,0E0,0E0,0E0,0E0,0E0,0E0,0E0,0E0,0E0,0E0,0E0,0E0,0E0,0E0,0E0,0E0,0E0,0E0,0E0,0E0,0E0,0E0,0E0],"parents":[2147483647,0,0,1,1,2,2,3,3,4,4,5,5,6,6,7,7,10,10,11,11,12,12,13,13,14,14,15,15,16,16,17,17,18,18,19,19,20,20,21,21,22,22,23,23,24,24,26,26,29,29,31,31,32,32,33,33,36,36,38,38,39,39,40,40,41,41,42,42,43,43,45,45,47,47],"right_children":[2,4,6,8,10,12,14,16,-1,-1,18,20,22,24,26,28,30,32,34,36,38,40,42,44,46,-1,48,-1,-1,50,-1,52,54,56,-1,-1,58,-1,60,62,64,66,68,70,-1,72,-1,74,-1,-1,-1,-1,-1,-1,-1,-1,-1,-1,-1,-1,-1,-1,-1,-1,-1,-1,-1,-1,-1,-1,-1,-1,-1,-1,-1],"split_conditions":[3E0,2.5E0,2.1205598E4,2E0,4.5E1,6E0,3.9E1,4.110715E0,7.273249E-2,-1.73749E-1,1.5097756E3,4.75E1,7.0710945E-1,2.5E1,7.839644E-1,1.1020408E0,1.3604507E3,5.5915004E-1,1.15E1,-3.6807444E0,3.025E1,2.69E2,5.6408826E2,3.3167403E0,6.6700326E8,1.3633594E-1,1.7733883E8,1.5091414E-2,1.4683557E-1,1.5E0,7.868895E-3,8.5333336E1,5.6148334E0,1.0231451E4,-1.5489097E-1,1.2578452E-1,1.15E1,-1.7653976E-1,1.2395441E3,1.2E1,4.7E1,8.259567E-1,1.3949151E0,-2.3878062E0,1.5370607E-1,6.047337E0,8.0573454E-2,-3.0200706E0,-9.982571E-2,-4.758833E-2,-1.6891274E-1,6.8414636E-2,-1.253038E-1,-1.1548421E-1,7.865167E-3,4.1285217E-2,-1.0697306E-1,8.2289405E-2,-9.503686E-3,9.850047E-2,-1.464834E-1,1.0848812E-1,1.4461036E-1,-1.3625114E-1,1.21574305E-1,9.264868E-2,-7.5348146E-2,1.04703754E-1,-1.5126406E-1,9.5105305E-2,-7.302015E-2,-1.2901478E-1,-3.9412335E-2,1.4590827E-1,1.132898E-2],"split_indices":[6,5,0,6,0,6,6,0,0,0,0,5,4,5,4,0,0,4,5,1,0,5,0,1,0,0,0,0,0,5,0,5,1,0,0,0,5,0,0,6,6,4,4,1,0,1,0,1,0,0,0,0,0,0,0,0,0,0,0,0,0,0,0,0,0,0,0,0,0,0,0,0,0,0,0],"split_type":[0,0,0,0,0,0,0,0,0,0,0,0,0,0,0,0,0,0,0,0,0,0,0,0,0,0,0,0,0,0,0,0,0,0,0,0,0,0,0,0,0,0,0,0,0,0,0,0,0,0,0,0,0,0,0,0,0,0,0,0,0,0,0,0,0,0,0,0,0,0,0,0,0,0,0],"sum_hessian":[3.706082E3,1.6969452E3,2.009137E3,4.045624E2,1.2923827E3,1.5974695E3,4.1166742E2,2.8872327E2,1.1583913E2,6.3813153E2,6.542512E2,3.8051184E2,1.2169576E3,2.6189352E2,1.497739E2,1.7493063E2,1.1379265E2,1.8017961E2,4.740716E2,2.5982956E2,1.20682274E2,9.197245E2,2.972332E2,1.4585165E2,1.16041855E2,6.884312E1,8.0930786E1,1.6710478E2,7.825856E0,6.0773727E1,5.301892E1,8.338847E1,9.679114E1,1.2186273E2,3.5220886E2,1.1925565E2,1.4057391E2,6.904538E1,5.163689E1,8.820157E2,3.7708843E1,7.619609E1,2.2103711E2,1.289606E2,1.6891056E1,1.0865324E2,7.388624E0,6.656368E1,1.4367102E1,4.561627E1,1.5157456E1,6.9534386E1,1.3854084E1,8.344664E1,1.3344499E1,4.783437E1,7.4028366E1,9.67396E1,4.3834305E1,2.9458769E1,2.2178122E1,1.6271227E2,7.193034E2,1.8228657E1,1.9480185E1,3.610781E1,4.008828E1,2.133328E2,7.7043176E0,2.6716265E1,1.0224434E2,8.410944E1,2.4543793E1,1.3623055E1,5.2940628E1],"tree_param":{"num_deleted":"0","num_feature":"8","num_nodes":"75","size_leaf_vector":"1"}},{"base_weights":[-4.0486403E-2,-5.5222476E-1,3.86106E-1,-1.0101502E-2,-8.025298E-1,5.1997554E-1,-6.711968E-1,-1.2366888E-1,2.8917536E-1,-8.6912113E-1,-6.087811E-1,-1.831471E-1,5.39985E-1,-9.326692E-1,-3.9772907E-1,-4.1316066E-2,-1.1184856E-1,7.921957E-2,-2.077715E-2,-8.988729E-1,-1.016152E-1,-4.11157E-1,-1.7585358E-1,3.6180574E-1,6.992642E-1,-5.993015E-2,-1.7526609E-1,-6.632897E-2,-7.1665865E-1,5.297249E-3,-5.1234536E-2,-1.1062928E-1,-9.340777E-1,-2.0168543E-1,-8.0351025E-1,1.1770076E-1,1.9536515E-1,7.377703E-1,1.9198039E-1,-1.1969436E-1,1.4180394E-2,-5.3945E-3,-1.5381312E-1,-1.2816463E-1,-1.7210694E-1,-5.0740886E-2,1.0750692E-1,-1.2617311E-2,-1.6035537E-1,4.0561568E-2,-1.5945034E-1,1.4376803E-1,1.1577742E-1,1.9719666E-3,1.2617004E-1],"categories":[],"categories_nodes":[],"categories_segments":[],"categories_sizes":[],"default_left":[0,0,0,0,0,0,0,0,1,0,0,0,0,0,0,0,0,0,0,0,0,0,0,0,0,0,0,0,0,0,0,0,0,0,0,0,0,0,0,0,0,0,0,0,0,0,0,0,0,0,0,0,0,0,0],"id":14,"left_children":[1,3,5,7,9,11,13,15,17,19,21,-1,23,25,27,29,-1,-1,-1,31,-1,33,-1,35,37,-1,-1,39,41,-1,-1,-1,43,45,47,-1,49,51,53,-1,-1,-1,-1,-1,-1,-1,-1,-1,-1,-1,-1,-1,-1,-1,-1],"loss_changes":[7.399558E2,2.0910751E2,2.616482E2,1.6543913E1,1.3601746E1,5.232599E1,1.485511E1,1.5461859E1,9.646018E0,6.3809814E0,2.2501373E1,0E0,4.5989594E1,5.858925E0,1.0732771E1,5.7292013E0,0E0,0E0,0E0,6.2339478E0,0E0,1.5096613E1,0E0,4.1789192E1,1.6713196E1,0E0,0E0,4.72976E0,6.562683E0,0E0,0E0,0E0,8.494629E0,9.545224E0,6.3731766E0,0E0,2.434628E1,4.9306946E0,5.9654408E0,0E0,0E0,0E0,0E0,0E0,0E0,0E0,0E0,0E0,0E0,0E0,0E0,0E0,0E0,0E0,0E0],"parents":[2147483647,0,0,1,1,2,2,3,3,4,4,5,5,6,6,7,7,8,8,9,9,10,10,12,12,13,13,14,14,15,15,19,19,21,21,23,23,24,24,27,27,28,28,32,32,33,33,34,34,36,36,37,37,38,38],"right_children":[2,4,6,8,10,12,14,16,18,20,22,-1,24,26,28,30,-1,-1,-1,32,-1,34,-1,36,38,-1,-1,40,42,-1,-1,-1,44,46,48,-1,50,52,54,-1,-1,-1,-1,-1,-1,-1,-1,-1,-1,-1,-1,-1,-1,-1,-1],"split_conditions":[3E0,5.5E0,2.34E0,2E0,2E0,1.96E0,1.1E1,3E0,-7.933077E-1,7.705701E0,1.960194E0,-1.831471E-1,2E1,1.0333333E1,3.58E0,1.5E0,-1.1184856E-1,7.921957E-2,-2.077715E-2,-6.9652367E0,-1.016152E-1,6.05E1,-1.7585358E-1,2E0,1.9671533E0,-5.993015E-2,-1.7526609E-1,1.7E1,3E0,5.297249E-3,-5.1234536E-2,-1.1062928E-1,1.88E1,6.9406343E0,-7.357955E0,1.1770076E-1,7E0,-3.0995827E0,4.5921454E0,-1.1969436E-1,1.4180394E-2,-5.3945E-3,-1.5381312E-1,-1.2816463E-1,-1.7210694E-1,-5.0740886E-2,1.0750692E-1,-1.2617311E-2,-1.6035537E-1,4.0561568E-2,-1.5945034E-1,1.4376803E-1,1.1577742E-1,1.9719666E-3,1.2617004E-1],"split_indices":[6,5,3,6,6,3,6,2,1,1,3,0,6,5,3,5,0,0,0,1,0,5,0,2,3,0,0,6,2,0,0,0,5,1,1,0,2,1,1,0,0,0,0,0,0,0,0,0,0,0,0,0,0,0,0],"split_type":[0,0,0,0,0,0,0,0,0,0,0,0,0,0,0,0,0,0,0,0,0,0,0,0,0,0,0,0,0,0,0,0,0,0,0,0,0,0,0,0,0,0,0,0,0,0,0,0,0,0,0,0,0,0,0],"sum_hessian":[3.3895706E3,1.5409972E3,1.8485732E3,4.867562E2,1.054241E3,1.640822E3,2.0775128E2,3.5285672E2,1.3389946E2,7.8458105E2,2.6965997E2,2.0345013E1,1.620477E3,1.0620491E2,1.01546364E2,3.0556387E2,4.7292854E1,9.386653E1,4.0032932E1,7.0757074E2,7.701029E1,1.8368651E2,8.5973465E1,7.6485956E2,8.5561743E2,1.4905165E1,9.129975E1,4.9799572E1,5.174679E1,2.38841E2,6.672286E1,8.725985E1,6.203109E2,1.1975245E2,6.393406E1,2.573328E2,5.0752673E2,7.9525275E2,6.03647E1,9.483309E0,4.0316265E1,1.1009537E1,4.0737255E1,1.8051112E2,4.3979974E2,1.07386795E2,1.2365655E1,1.0085633E1,5.3848427E1,4.8915692E2,1.8369802E1,2.8580054E2,5.0945224E2,4.540797E1,1.4956731E1],"tree_param":{"num_deleted":"0","num_feature":"8","num_nodes":"55","size_leaf_vector":"1"}},{"base_weights":[-2.2285854E-2,-5.232145E-1,5.046651E-1,-9.862183E-1,-2.7137694E-1,1.3424219E-1,6.1635166E-1,-1.6987847E-1,-1.5976956E-2,-1.002392E-2,-5.9257907E-1,-5.1904943E-2,1.7679857E-1,6.6839945E-1,1.444649E-1,-5.3417766E-1,2.4595073E-1,-1.534977E-1,-4.7649136E-1,1.5252234E-2,7.340434E-2,6.839635E-1,-8.018729E-2,3.6333118E-2,-1.6428822E-1,-4.707829E-2,-1.4880942E-1,3.3798173E-1,-1.7329691E-1,-3.7531245E-1,-1.6714008E-1,1.3781942E-1,6.44309E-1,-8.735045E-2,7.147097E-2,2.91585E-2,-1.6199726E-1,-1.6072985E-2,8.833982E-2,-8.3000146E-2,3.7336223E-2,8.362946E-2,1.2706226E-1],"categories":[],"categories_nodes":[],"categories_segments":[],"categories_sizes":[],"default_left":[0,0,0,1,0,0,0,0,0,0,0,0,0,0,0,0,0,0,0,0,0,0,0,0,0,0,0,0,0,0,0,0,0,0,0,0,0,0,0,0,0,0,0],"id":15,"left_children":[1,3,5,7,9,11,13,-1,-1,15,17,-1,19,21,23,25,27,-1,29,-1,-1,31,33,-1,-1,35,-1,37,-1,39,-1,-1,41,-1,-1,-1,-1,-1,-1,-1,-1,-1,-1],"loss_changes":[8.242272E2,1.8665256E2,6.2955475E1,4.915039E0,8.7038155E1,6.5793056E0,2.8716187E1,0E0,0E0,7.670095E1,1.6597183E1,0E0,7.119506E0,1.22690735E1,8.819631E0,3.0907848E1,4.4609043E1,0E0,1.7198029E1,0E0,0E0,5.075012E0,4.6249056E0,0E0,0E0,1.5130767E1,0E0,2.7842861E1,0E0,1.8594555E1,0E0,0E0,1.2116119E1,0E0,0E0,0E0,0E0,0E0,0E0,0E0,0E0,0E0,0E0],"parents":[2147483647,0,0,1,1,2,2,3,3,4,4,5,5,6,6,9,9,10,10,12,12,13,13,14,14,15,15,16,16,18,18,21,21,22,22,25,25,27,27,29,29,32,32],"right_children":[2,4,6,8,10,12,14,-1,-1,16,18,-1,20,22,24,26,28,-1,30,-1,-1,32,34,-1,-1,36,-1,38,-1,40,-1,-1,42,-1,-1,-1,-1,-1,-1,-1,-1,-1,-1],"split_conditions":[6.666667E-1,5.751195E1,3E0,9.040607E0,1.3224535E4,1.1534219E0,1.9669257E0,-1.6987847E-1,-1.5976956E-2,1.3888889E-2,9.615385E-3,-5.1904943E-2,2E0,1.7733883E8,6.6700326E8,6.3984753E2,2.8225E0,-1.534977E-1,1.9781481E0,1.5252234E-2,7.340434E-2,-3.2440414E0,2.5E1,3.6333118E-2,-1.6428822E-1,1.960194E0,-1.4880942E-1,2E0,-1.7329691E-1,1.5E1,-1.6714008E-1,1.3781942E-1,2.7758E0,-8.735045E-2,7.147097E-2,2.91585E-2,-1.6199726E-1,-1.6072985E-2,8.833982E-2,-8.3000146E-2,3.7336223E-2,8.362946E-2,1.2706226E-1],"split_indices":[7,0,6,1,0,1,3,0,0,7,7,0,6,0,0,0,3,0,3,0,0,1,6,0,0,3,0,6,0,6,0,0,1,0,0,0,0,0,0,0,0,0,0],"split_type":[0,0,0,0,0,0,0,0,0,0,0,0,0,0,0,0,0,0,0,0,0,0,0,0,0,0,0,0,0,0,0,0,0,0,0,0,0,0,0,0,0,0,0],"sum_hessian":[3.122489E3,1.6007698E3,1.5217194E3,5.639488E2,1.0368209E3,3.5252502E2,1.1691943E3,5.578458E2,6.103007E0,5.716696E2,4.651513E2,3.1182264E1,3.2134277E2,1.0530463E3,1.1614804E2,1.8757544E2,3.8409418E2,1.2751922E2,3.3763208E2,2.3898933E2,8.235343E1,1.031598E3,2.1448181E1,1.0937867E2,6.769369E0,7.6877304E1,1.1069814E2,3.5798755E2,2.6106642E1,2.8113132E2,5.650078E1,2.4987079E2,7.817273E2,1.1498888E1,9.949292E0,6.192123E1,1.4956072E1,1.0523143E2,2.5275612E2,2.3677718E2,4.4354145E1,3.0897342E2,4.7275385E2],"tree_param":{"num_deleted":"0","num_feature":"8","num_nodes":"43","size_leaf_vector":"1"}},{"base_weights":[-2.0012323E-2,-4.6974322E-1,3.4857273E-1,8.662262E-3,-7.4108285E-1,4.5372725E-1,-6.0423934E-1,2.0621169E-1,-1.8472248E-1,-1.7044267E-1,-5.2367234E-1,5.4288554E-1,1.0485852E-1,6.592651E-2,-7.023343E-1,1.882213E-2,8.040319E-2,-4.1583556E-1,-2.1118829E-2,-1.4617854E-1,-7.49574E-1,-1.8378586E-1,5.592266E-1,-1.6682975E-1,4.4879293E-1,-2.6924893E-2,-8.181663E-1,-1.8879203E-1,-1.7134707E-1,3.610531E-1,-4.400863E-1,2.6272109E-2,-6.304931E-1,-3.866489E-1,-1.4674437E-1,4.4809783E-1,6.7489624E-1,5.921148E-2,-2.3481673E-1,5.164803E-1,-4.499353E-2,-1.555244E-1,-3.595894E-2,-6.0083356E-2,5.4033965E-2,4.3507464E-2,2.6194978E-1,-2.1963108E-2,-1.3022056E-1,1.649178E-1,-1.3306945E-2,-4.2587325E-2,-1.6452032E-1,5.6016717E-2,-1.0030864E-1,8.1687585E-2,-5.4118793E-2,1.2042358E-1,6.399621E-2,-6.2410004E-2,1.1999778E-2,6.304817E-2,1.430681E-1],"categories":[],"categories_nodes":[],"categories_segments":[],"categories_sizes":[],"default_left":[0,0,0,0,0,0,0,0,0,0,0,0,0,0,0,0,0,0,0,0,0,0,0,0,0,0,0,0,0,1,0,0,0,0,0,0,0,0,0,0,0,0,0,0,0,0,0,0,0,0,0,0,0,0,0,0,0,0,0,0,0,0,0],"id":16,"left_children":[1,3,5,7,9,11,13,15,17,-1,19,21,23,-1,25,-1,-1,27,29,31,33,-1,35,37,39,-1,41,43,-1,45,47,49,51,53,-1,55,57,-1,59,61,-1,-1,-1,-1,-1,-1,-1,-1,-1,-1,-1,-1,-1,-1,-1,-1,-1,-1,-1,-1,-1,-1,-1],"loss_changes":[4.7544757E2,1.6770203E2,1.5793527E2,1.7861853E1,4.627661E1,4.415735E1,1.52270355E1,5.87936E0,8.933428E0,0E0,3.8163803E1,2.9939514E1,2.7001415E1,0E0,8.990959E0,0E0,0E0,1.30904255E1,2.2150253E1,1.3993685E1,1.1256195E1,0E0,1.43888855E1,5.6412377E0,6.150938E0,0E0,6.686798E0,5.8411684E0,0E0,9.00628E0,6.643791E0,1.2120355E1,5.596857E0,9.431727E0,0E0,1.3471397E1,5.118225E0,0E0,5.703664E0,5.511833E0,0E0,0E0,0E0,0E0,0E0,0E0,0E0,0E0,0E0,0E0,0E0,0E0,0E0,0E0,0E0,0E0,0E0,0E0,0E0,0E0,0E0,0E0,0E0],"parents":[2147483647,0,0,1,1,2,2,3,3,4,4,5,5,6,6,7,7,8,8,10,10,11,11,12,12,14,14,17,17,18,18,19,19,20,20,22,22,23,23,24,24,26,26,27,27,29,29,30,30,31,31,32,32,33,33,35,35,36,36,38,38,39,39],"right_children":[2,4,6,8,10,12,14,16,18,-1,20,22,24,-1,26,-1,-1,28,30,32,34,-1,36,38,40,-1,42,44,-1,46,48,50,52,54,-1,56,58,-1,60,62,-1,-1,-1,-1,-1,-1,-1,-1,-1,-1,-1,-1,-1,-1,-1,-1,-1,-1,-1,-1,-1,-1,-1],"split_conditions":[3E0,5.5E0,2.58E0,6.2176E0,3.5086735E1,2.1205598E4,4.2225637E0,1.5E0,4.2675314E2,-1.7044267E-1,1.9367965E3,1.96E0,2.1E1,6.592651E-2,1.95E1,1.882213E-2,8.040319E-2,2.5E0,2.1205598E4,5.875E1,1.45E1,-1.8378586E-1,2.5E1,4E0,1.9750769E0,-2.6924893E-2,1.09E2,2E0,-1.7134707E-1,1.6296551E0,2E0,-7.968554E0,3.0409E2,4.8419434E3,-1.4674437E-1,1.23E2,1.9671533E0,5.921148E-2,2.5472486E0,1.66E2,-4.499353E-2,-1.555244E-1,-3.595894E-2,-6.0083356E-2,5.4033965E-2,4.3507464E-2,2.6194978E-1,-2.1963108E-2,-1.3022056E-1,1.649178E-1,-1.3306945E-2,-4.2587325E-2,-1.6452032E-1,5.6016717E-2,-1.0030864E-1,8.1687585E-2,-5.4118793E-2,1.2042358E-1,6.399621E-2,-6.2410004E-2,1.1999778E-2,6.304817E-2,1.430681E-1],"split_indices":[6,5,3,0,0,0,0,5,0,0,0,3,6,0,5,0,0,5,0,5,5,0,6,5,3,0,6,6,0,1,5,1,0,0,0,5,3,0,1,6,0,0,0,0,0,0,0,0,0,0,0,0,0,0,0,0,0,0,0,0,0,0,0],"split_type":[0,0,0,0,0,0,0,0,0,0,0,0,0,0,0,0,0,0,0,0,0,0,0,0,0,0,0,0,0,0,0,0,0,0,0,0,0,0,0,0,0,0,0,0,0,0,0,0,0,0,0,0,0,0,0,0,0,0,0,0,0,0,0],"sum_hessian":[2.8682183E3,1.2919E3,1.5763182E3,4.6755045E2,8.2434955E2,1.4196432E3,1.5667508E2,2.3128479E2,2.3626566E2,3.7681937E2,4.4753018E2,1.1306816E3,2.8896152E2,1.411485E1,1.4256023E2,1.698775E2,6.1407276E1,9.792827E1,1.3833739E2,1.6754817E2,2.79982E2,1.1288575E1,1.1193931E3,1.6143625E2,1.27525276E2,2.5008087E1,1.1755214E2,7.06741E1,2.7254164E1,7.234554E1,6.5991844E1,1.2355407E2,4.399409E1,6.547427E1,2.1450774E2,5.709026E2,5.4849054E2,1.8859373E1,1.4257687E2,1.1646268E2,1.1062598E1,1.0184614E2,1.5706001E1,5.340629E1,1.7267815E1,6.63593E1,5.98625E0,3.3623257E1,3.2368587E1,1.2331516E1,1.1122256E2,2.0559105E1,2.3434986E1,1.4391284E1,5.1082993E1,5.4879736E2,2.2105234E1,4.968677E2,5.1622856E1,9.973506E1,4.284181E1,8.001226E1,3.6450417E1],"tree_param":{"num_deleted":"0","num_feature":"8","num_nodes":"63","size_leaf_vector":"1"}},{"base_weights":[-3.011019E-2,-4.439962E-1,2.9880747E-1,-6.216273E-1,3.718175E-2,3.797279E-1,-7.133131E-1,-1.23129554E-1,-3.6785522E-1,-5.639133E-3,4.6320166E-2,5.579625E-1,1.4957903E-1,2.8981157E-2,-1.330732E-1,-1.7488685E-1,-1.699677E-1,-1.7933217E-1,5.7849497E-1,5.3746766E-1,8.4448606E-2,-1.8216573E-1,-2.4530664E-2,3.7884885E-1,1.13941126E-1,1.2559086E-1,-5.233386E-1,1.1503475E-1,-6.435524E-1,3.2814544E-2,1.0029291E-1,7.274562E-2,-2.2525744E-1,1.1138356E-2,9.263238E-2,-1.7328478E-1,4.7259554E-2],"categories":[],"categories_nodes":[],"categories_segments":[],"categories_sizes":[],"default_left":[0,0,0,0,0,0,0,0,0,0,0,0,0,0,0,0,0,0,0,0,0,0,0,0,0,0,0,0,0,0,0,0,0,0,0,0,0],"id":17,"left_children":[1,3,5,7,9,11,13,-1,15,-1,-1,17,19,-1,-1,21,-1,-1,23,25,27,-1,-1,29,-1,-1,31,33,35,-1,-1,-1,-1,-1,-1,-1,-1],"loss_changes":[3.6390656E2,1.0117189E2,1.2198859E2,2.199884E1,5.2545896E0,5.6575104E1,6.513935E0,0E0,2.9702682E1,0E0,0E0,2.5684006E1,1.5206851E1,0E0,0E0,5.198005E0,0E0,0E0,1.3718292E1,1.8255806E1,1.1476133E1,0E0,0E0,9.266956E0,0E0,0E0,1.0346559E1,1.052938E1,7.1245117E0,0E0,0E0,0E0,0E0,0E0,0E0,0E0,0E0],"parents":[2147483647,0,0,1,1,2,2,3,3,4,4,5,5,6,6,8,8,11,11,12,12,15,15,18,18,19,19,20,20,23,23,26,26,27,27,28,28],"right_children":[2,4,6,8,10,12,14,-1,16,-1,-1,18,20,-1,-1,22,-1,-1,24,26,28,-1,-1,30,-1,-1,32,34,36,-1,-1,-1,-1,-1,-1,-1,-1],"split_conditions":[3E0,5.7226294E2,2.9E0,2E0,2E0,6.0836214E-1,2E0,-1.23129554E-1,1.960194E0,-5.639133E-3,4.6320166E-2,1.96E0,-3.2440414E0,2.8981157E-2,-1.330732E-1,1.6333333E0,-1.699677E-1,-1.7933217E-1,8E0,1.9630915E0,8E0,-1.8216573E-1,-2.4530664E-2,6.436225E0,1.13941126E-1,1.2559086E-1,7.201249E-1,4.5921454E0,6.047337E0,3.2814544E-2,1.0029291E-1,7.274562E-2,-2.2525744E-1,1.1138356E-2,9.263238E-2,-1.7328478E-1,4.7259554E-2],"split_indices":[6,1,3,6,6,4,2,0,3,0,0,3,1,0,0,3,0,0,6,3,2,0,0,1,0,0,4,1,1,0,0,0,0,0,0,0,0],"split_type":[0,0,0,0,0,0,0,0,0,0,0,0,0,0,0,0,0,0,0,0,0,0,0,0,0,0,0,0,0,0,0,0,0,0,0,0,0],"sum_hessian":[2.6731418E3,1.1836823E3,1.4894595E3,8.645325E2,3.1914978E2,1.3791913E3,1.10268265E2,6.196825E2,2.4484996E2,2.4555891E2,7.359086E1,7.7725806E2,6.019332E2,7.762411E0,1.0250585E2,1.8734364E2,5.7506313E1,9.791384E0,7.674666E2,8.653976E1,5.1539343E2,6.297282E0,1.8104637E2,2.3761452E2,5.298521E2,7.287792E1,1.36618395E1,4.9461282E2,2.07806E1,1.2562421E2,1.1199031E2,6.234636E0,7.427203E0,4.4313055E2,5.1482273E1,1.4795657E1,5.9849424E0],"tree_param":{"num_deleted":"0","num_feature":"8","num_nodes":"37","size_leaf_vector":"1"}},{"base_weights":[-2.0501595E-2,4.552602E-2,-7.809553E-1,2.9655412E-1,-2.0150708E-2,-4.9120475E-2,-1.5143067E-1,1.0702745E-2,4.432591E-1,-1.7966446E-1,-1.0022866E-2,4.6513253E-1,-1.0757643E-1,2.6341365E-3,-7.864876E-2,6.491691E-2,1.1911159E-1,-1.5162679E-2,2.372773E-1,-5.55963E-3,3.9616488E-2,1.2606546E-1,-3.809905E-3],"categories":[],"categories_nodes":[],"categories_segments":[],"categories_sizes":[],"default_left":[0,0,0,0,0,0,0,0,0,0,0,0,0,0,0,0,0,1,0,0,0,0,0],"id":18,"left_children":[1,3,5,7,9,-1,-1,-1,11,-1,13,15,-1,17,-1,-1,-1,19,21,-1,-1,-1,-1],"loss_changes":[1.271515E2,3.8414635E1,1.0658295E1,1.6573639E1,1.9325672E1,0E0,0E0,0E0,6.97456E0,0E0,1.0442064E1,5.7359734E0,0E0,7.428931E0,0E0,0E0,0E0,7.132646E0,1.6339884E1,0E0,0E0,0E0,0E0],"parents":[2147483647,0,0,1,1,2,2,3,3,4,4,8,8,10,10,11,11,13,13,17,17,18,18],"right_children":[2,4,6,8,10,-1,-1,-1,12,-1,14,16,-1,18,-1,-1,-1,20,22,-1,-1,-1,-1],"split_conditions":[2.8937814E0,2E0,1.88E1,1.5E0,1.96E0,-4.9120475E-2,-1.5143067E-1,1.0702745E-2,7.95E1,-1.7966446E-1,8E0,1.15E1,-1.0757643E-1,1.960194E0,-7.864876E-2,6.491691E-2,1.1911159E-1,7.340044E0,1.9684483E0,-5.55963E-3,3.9616488E-2,1.2606546E-1,-3.809905E-3],"split_indices":[3,2,5,5,3,0,0,0,5,0,2,5,0,3,0,0,0,1,3,0,0,0,0],"split_type":[0,0,0,0,0,0,0,0,0,0,0,0,0,0,0,0,0,0,0,0,0,0,0],"sum_hessian":[2.5323462E3,2.3300369E3,2.023092E2,4.8319186E2,1.8468451E3,3.6044445E1,1.6626476E2,1.8629387E2,2.96898E2,1.7927666E1,1.8289175E3,2.909718E2,5.92619E0,1.7790007E3,4.9916668E1,2.1356262E2,7.7409195E1,1.6535826E3,1.2541812E2,1.5447462E3,1.0883648E2,4.2761093E1,8.265703E1],"tree_param":{"num_deleted":"0","num_feature":"8","num_nodes":"23","size_leaf_vector":"1"}},{"base_weights":[-1.8278817E-2,-5.757409E-1,2.439879E-1,-1.6718942E-1,-3.1810832E-1,7.035506E-2,4.3957508E-1,1.7564985E-1,-6.8188334E-1,1.5378052E-1,-3.042913E-1,6.058169E-1,1.418681E-1,4.8050383E-1,-4.879779E-1,-1.4710726E-1,-4.963637E-1,3.2609634E-2,4.7750744E-1,1.6883935E-1,-3.6001903E-1,-1.4014038E-1,6.2418216E-1,-4.529342E-1,2.2964992E-1,-3.682324E-1,6.9996405E-1,-7.5453836E-1,3.9539796E-1,-6.8434197E-1,-2.190414E-1,-7.2463626E-1,1.4282393E-1,1.3886606E0,2.6024494E-1,-5.908744E-1,1.7767079E-3,1.4073935E-1,-1.9554994E-1,4.071358E-1,6.6995907E-1,-1.5212221E-1,-3.370457E-1,4.299098E-1,2.7720345E-2,-7.843923E-3,-1.6014194E-1,2.1073544E-1,8.3661646E-2,2.0730942E-3,-1.772452E-1,-5.156118E-2,1.4789598E-1,1.9575788E-2,-1.3138366E-1,-1.01278394E-1,6.5745837E-3,-1.7009471E-1,3.9877106E-2,2.801819E-2,-1.6565871E-1,3.7949082E-1,1.6066507E-1,-1.7673394E-2,7.931784E-2,-1.2489217E-1,2.091489E-2,1.0167358E-1,-1.7432168E-1,1.03342324E-1,1.4648792E-1,1.0732672E-1,-8.129956E-2,8.85548E-2,-2.1037918E-1,9.75029E-2,-1.3501273E-2],"categories":[],"categories_nodes":[],"categories_segments":[],"categories_sizes":[],"default_left":[0,0,0,0,0,0,0,0,0,0,0,0,0,0,0,0,0,0,0,0,0,0,0,0,0,0,0,0,0,0,0,0,0,0,0,1,0,0,0,0,0,0,0,0,0,0,0,0,0,0,0,0,0,0,0,0,0,0,0,0,0,0,0,0,0,0,0,0,0,0,0,0,0,0,0,0,0],"id":19,"left_children":[1,3,5,-1,7,9,11,13,15,17,19,21,23,25,27,-1,29,31,33,-1,35,37,39,41,43,45,47,49,51,53,55,57,59,61,63,65,-1,-1,-1,67,69,71,-1,73,75,-1,-1,-1,-1,-1,-1,-1,-1,-1,-1,-1,-1,-1,-1,-1,-1,-1,-1,-1,-1,-1,-1,-1,-1,-1,-1,-1,-1,-1,-1,-1,-1],"loss_changes":[3.6257413E2,8.268097E1,5.7273758E1,0E0,8.706074E1,2.7922787E1,3.925177E1,4.1598103E1,9.350433E0,2.8661808E1,1.1734657E1,6.972046E0,1.4838076E1,2.6243313E1,1.5240484E1,0E0,7.176594E0,4.437312E1,3.9394974E1,0E0,1.3339737E1,1.1878823E1,4.9349823E0,1.6744905E1,1.0014071E1,5.3230667E0,1.2558186E1,1.0850231E1,4.9375944E0,5.635437E0,5.3686023E0,1.7649963E1,1.1088069E1,1.4313095E1,1.1973755E1,9.692463E0,0E0,0E0,0E0,2.3363655E1,4.964142E0,7.739032E0,0E0,1.8463757E1,7.1681776E0,0E0,0E0,0E0,0E0,0E0,0E0,0E0,0E0,0E0,0E0,0E0,0E0,0E0,0E0,0E0,0E0,0E0,0E0,0E0,0E0,0E0,0E0,0E0,0E0,0E0,0E0,0E0,0E0,0E0,0E0,0E0,0E0],"parents":[2147483647,0,0,1,1,2,2,4,4,5,5,6,6,7,7,8,8,9,9,10,10,11,11,12,12,13,13,14,14,16,16,17,17,18,18,20,20,21,21,22,22,23,23,24,24,25,25,26,26,27,27,28,28,29,29,30,30,31,31,32,32,33,33,34,34,35,35,39,39,40,40,41,41,43,43,44,44],"right_children":[2,4,6,-1,8,10,12,14,16,18,20,22,24,26,28,-1,30,32,34,-1,36,38,40,42,44,46,48,50,52,54,56,58,60,62,64,66,-1,-1,-1,68,70,72,-1,74,76,-1,-1,-1,-1,-1,-1,-1,-1,-1,-1,-1,-1,-1,-1,-1,-1,-1,-1,-1,-1,-1,-1,-1,-1,-1,-1,-1,-1,-1,-1,-1,-1],"split_conditions":[5E-2,3.5086735E1,1.1E1,-1.6718942E-1,2.0966067E3,2.1205598E4,7.4603266E-1,6.390319E-1,2E0,5.6408826E2,-3.6147845E0,1.0555556E-1,4.2675314E2,4.9261083E-3,4.477215E0,-1.4710726E-1,2.4129689E5,7.4509805E-1,5.9716463E-1,1.6883935E-1,8.333333E-1,1.8950207E4,3.352322E0,1.606408E2,1.8950207E4,4.2675314E2,4.505612E-1,-4.181331E0,1.438849E-2,2.6682222E3,6.053085E-1,1.606408E2,1.2690432E2,2E0,2E-1,2.7088275E0,1.7767079E-3,1.4073935E-1,-1.9554994E-1,1.06E2,4.788271E0,2.5E1,-3.370457E-1,1.3949151E0,-3.0200706E0,-7.843923E-3,-1.6014194E-1,2.1073544E-1,8.3661646E-2,2.0730942E-3,-1.772452E-1,-5.156118E-2,1.4789598E-1,1.9575788E-2,-1.3138366E-1,-1.01278394E-1,6.5745837E-3,-1.7009471E-1,3.9877106E-2,2.801819E-2,-1.6565871E-1,3.7949082E-1,1.6066507E-1,-1.7673394E-2,7.931784E-2,-1.2489217E-1,2.091489E-2,1.0167358E-1,-1.7432168E-1,1.03342324E-1,1.4648792E-1,1.0732672E-1,-8.129956E-2,8.85548E-2,-2.1037918E-1,9.75029E-2,-1.3501273E-2],"split_indices":[7,0,6,0,0,0,4,4,6,0,1,7,0,7,1,0,0,7,4,0,7,0,0,0,0,0,4,1,7,0,4,0,0,6,7,1,0,0,0,6,1,6,0,4,1,0,0,0,0,0,0,0,0,0,0,0,0,0,0,0,0,0,0,0,0,0,0,0,0,0,0,0,0,0,0,0,0],"split_type":[0,0,0,0,0,0,0,0,0,0,0,0,0,0,0,0,0,0,0,0,0,0,0,0,0,0,0,0,0,0,0,0,0,0,0,0,0,0,0,0,0,0,0,0,0,0,0,0,0,0,0,0,0,0,0,0,0,0,0,0,0,0,0,0,0,0,0,0,0,0,0,0,0,0,0,0,0],"sum_hessian":[2.4799238E3,7.9343506E2,1.6864889E3,3.0873264E2,4.847024E2,8.933849E2,7.93104E2,2.0561607E2,2.790863E2,7.3067883E2,1.6270604E2,5.089195E2,2.841845E2,1.4089325E2,6.472283E1,1.4142052E2,1.3766579E2,5.316736E2,1.9900526E2,6.7169223E0,1.5598912E2,1.2228373E1,4.966911E2,3.6546753E1,2.4763777E2,2.8946415E1,1.1194683E2,4.9719788E1,1.5003047E1,8.204974E1,5.5616047E1,6.755126E1,4.6412228E2,3.8316006E1,1.6068925E2,9.609978E1,5.988934E1,6.2415442E0,5.9868283E0,8.6510635E1,4.1018048E2,3.0519331E1,6.02742E0,1.2433292E2,1.2330485E2,1.8499887E1,1.0446528E1,3.1473812E1,8.0473015E1,1.346107E1,3.6258717E1,6.051812E0,8.951235E0,7.967927E0,7.408182E1,2.2655798E1,3.2960247E1,5.259208E1,1.4959184E1,4.5535727E2,8.765025E0,1.334072E1,2.4975286E1,5.7869133E1,1.0282013E2,8.0208824E1,1.5890952E1,7.640783E1,1.0102804E1,3.0628607E2,1.038944E2,8.956004E0,2.1563326E1,1.17999344E2,6.3335733E0,2.02494E1,1.0305545E2],"tree_param":{"num_deleted":"0","num_feature":"8","num_nodes":"77","size_leaf_vector":"1"}},{"base_weights":[-2.1611528E-2,3.273766E-2,-6.634747E-1,1.4287116E-1,-6.812385E-2,-3.053068E-1,-1.4562872E-1,1.8187007E-1,-2.4631378E-1,-1.7953262E-1,-5.625336E-2,-1.9748507E-2,-1.2960008E-1,9.321075E-2,8.017762E-1,2.6967831E-2,-6.661769E-2,2.1907437E-1,-9.349103E-2,1.9123419E-1,-2.3619767E-2,8.922754E-1,9.94105E-3,1.7820145E-1,1.7532738E-1,-1.3172235E-1,2.0915116E-1,8.321997E-3,6.961303E-2,-9.673593E-3,8.956306E-2,2.5218362E-1,1.2841125E-1,6.626493E-2,-1.0006429E-2,-2.6898509E-2,3.703152E-2,1.0403151E-1,-6.128156E-3],"categories":[],"categories_nodes":[],"categories_segments":[],"categories_sizes":[],"default_left":[0,0,0,0,0,0,0,0,0,0,0,0,0,0,0,0,0,0,1,0,0,0,0,0,0,0,0,0,0,0,0,0,0,0,0,0,0,0,0],"id":20,"left_children":[1,3,5,7,9,11,-1,13,15,-1,17,-1,-1,19,21,-1,-1,23,25,27,29,31,-1,-1,33,35,37,-1,-1,-1,-1,-1,-1,-1,-1,-1,-1,-1,-1],"loss_changes":[8.166342E1,2.3973845E1,1.2457947E1,1.5658665E1,1.3164578E1,5.4626546E0,0E0,5.153736E1,5.4821563E0,0E0,1.1412145E1,0E0,0E0,9.395159E0,7.894745E0,0E0,0E0,4.7901583E0,1.1344685E1,1.3782677E1,6.7971497E0,8.549004E0,0E0,0E0,6.282082E0,7.889717E0,1.0801399E1,0E0,0E0,0E0,0E0,0E0,0E0,0E0,0E0,0E0,0E0,0E0,0E0],"parents":[2147483647,0,0,1,1,2,2,3,3,4,4,5,5,7,7,8,8,10,10,13,13,14,14,17,17,18,18,19,19,20,20,21,21,24,24,25,25,26,26],"right_children":[2,4,6,8,10,12,-1,14,16,-1,18,-1,-1,20,22,-1,-1,24,26,28,30,32,-1,-1,34,36,38,-1,-1,-1,-1,-1,-1,-1,-1,-1,-1,-1,-1],"split_conditions":[2.78E0,3E0,3.35E1,2.5071328E4,1.96E0,2.5071328E4,-1.4562872E-1,4.8787778E2,2E0,-1.7953262E-1,-6.64307E0,-1.9748507E-2,-1.2960008E-1,2E0,5.9871063E0,2.6967831E-2,-6.661769E-2,1.88E1,7.705701E0,3.5E0,1.9625064E0,1.9367965E3,9.94105E-3,1.7820145E-1,1.2395441E3,1.960194E0,1.2395441E3,8.321997E-3,6.961303E-2,-9.673593E-3,8.956306E-2,2.5218362E-1,1.2841125E-1,6.626493E-2,-1.0006429E-2,-2.6898509E-2,3.703152E-2,1.0403151E-1,-6.128156E-3],"split_indices":[3,2,5,0,3,0,0,0,5,0,1,0,0,2,1,0,0,5,1,5,3,0,0,0,0,3,0,0,0,0,0,0,0,0,0,0,0,0,0],"split_type":[0,0,0,0,0,0,0,0,0,0,0,0,0,0,0,0,0,0,0,0,0,0,0,0,0,0,0,0,0,0,0,0,0,0,0,0,0,0,0],"sum_hessian":[2.3409497E3,2.1582056E3,1.8274413E2,1.0316826E3,1.126523E3,6.34135E1,1.1933063E2,9.377171E2,9.39655E1,1.3421622E1,1.1131014E3,4.4752983E1,1.8660519E1,8.2038513E2,1.17331955E2,2.4705425E1,6.926008E1,1.3261003E2,9.8049133E2,4.4609845E2,3.7428668E2,1.0459988E2,1.2732078E1,6.6723504E0,1.25937675E2,8.705225E2,1.0996885E2,2.6926624E2,1.7683223E2,3.5299597E2,2.1290705E1,2.0095156E1,8.450472E1,6.5900055E1,6.0037624E1,8.1018005E2,6.0342445E1,4.1729332E1,6.8239525E1],"tree_param":{"num_deleted":"0","num_feature":"8","num_nodes":"39","size_leaf_vector":"1"}},{"base_weights":[-3.337614E-2,-4.368094E-1,2.2472629E-1,-6.513359E-1,-2.5393653E-1,3.0670322E-3,3.2890013E-1,-1.463091E-1,-7.509845E-1,-3.1858703E-1,6.397787E-2,5.171271E-1,1.6181457E-1,-1.7259218E-1,4.9692173E-3,-1.543489E-1,-2.8098002E-1,7.406516E-2,-4.6312332E-1,3.6200988E-1,6.009535E-1,2.3823221E-1,-1.336247E-2,-1.3457918E-1,-7.282191E-3,-2.2805835E-1,6.823895E-1,-1.4239055E-1,-3.487082E-1,6.964479E-2,-1.3359612E-1,-3.4340966E-2,1.0770389E-1,6.678987E-2,5.28956E-2,3.9344307E-2,-1.2235019E-1,7.849139E-2,2.0311785E-1,-9.4557844E-2,-2.623774E-2,2.3387975E-1,-3.6570835E-3],"categories":[],"categories_nodes":[],"categories_segments":[],"categories_sizes":[],"default_left":[0,0,0,0,0,0,0,0,0,0,0,0,0,0,0,0,0,0,0,0,0,0,0,0,0,0,0,0,0,0,0,0,0,0,0,0,0,0,0,0,0,0,0],"id":21,"left_children":[1,3,5,7,9,-1,11,13,15,17,-1,19,21,-1,-1,-1,23,25,27,29,31,33,-1,-1,-1,35,37,-1,39,-1,-1,-1,-1,41,-1,-1,-1,-1,-1,-1,-1,-1,-1],"loss_changes":[2.3883398E2,3.510762E1,3.0126144E1,2.0724258E1,1.9645834E1,0E0,2.9252243E1,1.0305947E1,2.4886673E1,2.486119E1,0E0,5.687317E0,9.04273E0,0E0,0E0,0E0,1.0273352E1,2.166242E1,1.3617416E1,8.138624E0,6.9492416E0,4.606985E0,0E0,0E0,0E0,1.7675594E1,4.4190693E0,0E0,9.813425E0,0E0,0E0,0E0,0E0,1.2709832E1,0E0,0E0,0E0,0E0,0E0,0E0,0E0,0E0,0E0],"parents":[2147483647,0,0,1,1,2,2,3,3,4,4,6,6,7,7,8,8,9,9,11,11,12,12,16,16,17,17,18,18,19,19,20,20,21,21,25,25,26,26,28,28,33,33],"right_children":[2,4,6,8,10,-1,12,14,16,18,-1,20,22,-1,-1,-1,24,26,28,30,32,34,-1,-1,-1,36,38,-1,40,-1,-1,-1,-1,42,-1,-1,-1,-1,-1,-1,-1,-1,-1],"split_conditions":[1.4521453E-1,1.3888889E-2,3.5E0,-7.968554E0,6.047337E0,3.0670322E-3,5.496001E-1,1.8083183E-3,7.340044E0,-3.7834318E0,6.397787E-2,2E0,1.0986123E0,-1.7259218E-1,4.9692173E-3,-1.543489E-1,3.6101083E-3,3.3333335E-2,2.739726E-2,8.3E1,3.3333334E-1,6.666667E-1,-1.336247E-2,-1.3457918E-1,-7.282191E-3,-5.8054304E0,6.931472E-1,-1.4239055E-1,2.0412414E0,6.964479E-2,-1.3359612E-1,-3.4340966E-2,1.0770389E-1,-2.2110424E0,5.28956E-2,3.9344307E-2,-1.2235019E-1,7.849139E-2,2.0311785E-1,-9.4557844E-2,-2.623774E-2,2.3387975E-1,-3.6570835E-3],"split_indices":[7,7,5,1,1,0,4,7,1,1,0,2,4,0,0,0,7,7,7,5,7,7,0,0,0,1,4,0,1,0,0,0,0,1,0,0,0,0,0,0,0,0,0],"split_type":[0,0,0,0,0,0,0,0,0,0,0,0,0,0,0,0,0,0,0,0,0,0,0,0,0,0,0,0,0,0,0,0,0,0,0,0,0,0,0,0,0,0,0],"sum_hessian":[2.2936772E3,8.9489307E2,1.3987843E3,4.1180652E2,4.8308655E2,4.6866556E2,9.301187E2,6.78644E1,3.439421E2,4.3806348E2,4.5023083E1,4.3738797E2,4.9273074E2,1.1437114E1,5.642729E1,2.5908035E2,8.486174E1,1.1786565E2,3.201978E2,1.5344487E2,2.839431E2,3.737912E2,1.1893956E2,2.7094254E1,5.776749E1,7.8753044E1,3.91126E1,7.5363716E1,2.448341E2,1.4748116E2,5.9637218E0,1.0400774E1,2.7354233E2,1.1043293E2,2.6335828E2,4.064503E1,3.8108013E1,2.7218292E1,1.1894307E1,1.19117035E2,1.25717064E2,6.996414E0,1.03436516E2],"tree_param":{"num_deleted":"0","num_feature":"8","num_nodes":"43","size_leaf_vector":"1"}},{"base_weights":[-1.5013522E-2,-4.7887293E-1,1.9151983E-1,-7.126735E-1,-2.3281834E-1,-7.039735E-3,2.9817894E-1,-9.187337E-2,-1.3494465E-1,-4.2355984E-2,-1.6260834E-1,-3.5709817E-2,4.0420717E-1,-1.7906532E-1,1.8082913E-3,1.0171E-2,-1.6584012E-1,4.3894783E-1,2.4102729E-2,-2.553788E-1,1.8227635E-1,-5.5716407E-2,1.4007725E-2,3.3597758E-1,5.1123255E-1,-1.4321847E-1,-2.10667E-2,-1.031008E-1,4.1915312E-2,6.756781E-2,1.3956218E-2,1.7940797E-1,8.373411E-2],"categories":[],"categories_nodes":[],"categories_segments":[],"categories_sizes":[],"default_left":[0,0,0,0,0,0,0,0,0,0,0,0,0,0,0,0,0,0,0,0,0,0,0,0,0,0,0,0,0,0,0,0,0],"id":22,"left_children":[1,3,5,7,9,-1,11,-1,-1,13,-1,15,17,-1,19,21,-1,23,-1,25,27,-1,-1,29,31,-1,-1,-1,-1,-1,-1,-1,-1],"loss_changes":[2.1105777E2,3.904477E1,3.7848618E1,4.75412E0,4.5382526E1,0E0,3.7008087E1,0E0,0E0,1.1637805E1,0E0,1.0826993E1,7.24646E0,0E0,1.1629928E1,5.8214126E0,0E0,5.216263E0,0E0,7.960961E0,7.3526783E0,0E0,0E0,4.420082E0,4.5203705E0,0E0,0E0,0E0,0E0,0E0,0E0,0E0,0E0],"parents":[2147483647,0,0,1,1,2,2,3,3,4,4,6,6,9,9,11,11,12,12,14,14,15,15,17,17,19,19,20,20,23,23,24,24],"right_children":[2,4,6,8,10,-1,12,-1,-1,14,-1,16,18,-1,20,22,-1,24,-1,26,28,-1,-1,30,32,-1,-1,-1,-1,-1,-1,-1,-1],"split_conditions":[5.5555556E-2,2E0,3E0,2.35E1,2.06E0,-7.039735E-3,6.666667E-1,-9.187337E-2,-1.3494465E-1,1.96E0,-1.6260834E-1,3.635E0,1.9669257E0,-1.7906532E-1,4E0,3E0,-1.6584012E-1,1.2666667E1,2.4102729E-2,1.1320755E-2,3.4129692E-3,-5.5716407E-2,1.4007725E-2,3E0,1.8E1,-1.4321847E-1,-2.10667E-2,-1.031008E-1,4.1915312E-2,6.756781E-2,1.3956218E-2,1.7940797E-1,8.373411E-2],"split_indices":[7,6,6,5,3,0,7,0,0,3,0,3,3,0,2,2,0,5,0,7,7,0,0,2,6,0,0,0,0,0,0,0,0],"split_type":[0,0,0,0,0,0,0,0,0,0,0,0,0,0,0,0,0,0,0,0,0,0,0,0,0,0,0,0,0,0,0,0,0],"sum_hessian":[2.2030522E3,6.787123E2,1.52434E3,3.4802222E2,3.3069003E2,4.7896198E2,1.045378E3,1.0818085E2,2.3984138E2,2.6155304E2,6.913699E1,2.5195563E2,7.9342236E2,1.0983946E1,2.5056909E2,2.4018953E2,1.1766102E1,7.008124E2,9.260999E1,1.0332271E2,1.4724638E2,4.227844E1,1.9791109E2,2.8905325E2,4.1175916E2,1.902467E1,8.4298035E1,1.099209E1,1.3625429E2,2.3372307E2,5.533018E1,1.4906428E1,3.9685272E2],"tree_param":{"num_deleted":"0","num_feature":"8","num_nodes":"33","size_leaf_vector":"1"}},{"base_weights":[-1.8745445E-2,-4.5050326E-1,1.6826446E-1,-1.6594982E-1,-2.120416E-1,-3.063423E-2,2.4598697E-1,1.625847E-1,-5.2119666E-1,-1.7524895E-1,9.744491E-2,9.984053E-3,3.5671633E-1,2.9144296E-1,-1.1619065E-1,-5.8132297E-1,1.4945896E-1,3.761616E-1,-3.109903E-1,4.4289786E-1,1.3242753E-1,3.7954852E-1,-1.1494954E-1,-1.2188101E-1,-3.6209574E-1,5.2622586E-1,-7.119449E-2,-3.9763066E-1,2.1015257E-1,2.542013E-1,5.33481E-1,-2.0093001E-1,2.8978607E-1,-5.2294414E-2,8.170167E-2,5.220454E-2,-8.43556E-2,1.1616677E-1,4.264692E-2,-5.244581E-2,-1.6840921E-1,5.2821588E-2,-1.0601094E-1,1.0835378E-1,4.9239464E-2,1.5265468E-1,-5.6693893E-2,9.9291995E-2,1.2845003E-2],"categories":[],"categories_nodes":[],"categories_segments":[],"categories_sizes":[],"default_left":[0,0,0,0,0,0,0,0,0,0,0,0,0,0,0,0,0,0,0,0,0,0,0,0,0,0,0,0,0,0,0,0,0,0,0,0,0,0,0,0,0,0,0,0,0,0,0,0,0],"id":23,"left_children":[1,3,5,-1,7,9,11,13,15,-1,17,-1,19,21,-1,23,-1,25,27,29,31,33,-1,-1,35,37,-1,39,-1,41,43,45,47,-1,-1,-1,-1,-1,-1,-1,-1,-1,-1,-1,-1,-1,-1,-1,-1],"loss_changes":[1.6922624E2,7.891513E1,2.2607578E1,0E0,5.0371407E1,5.2461246E1,2.182595E1,2.1380636E1,2.0021408E1,0E0,4.1450222E1,0E0,1.2777695E1,1.4509433E1,0E0,6.673813E0,0E0,2.5773474E1,1.974533E1,8.162628E0,9.625549E0,1.0668148E1,0E0,0E0,7.644642E0,7.784176E0,0E0,7.4341125E0,0E0,7.526473E0,8.039711E0,8.47748E0,7.816189E0,0E0,0E0,0E0,0E0,0E0,0E0,0E0,0E0,0E0,0E0,0E0,0E0,0E0,0E0,0E0,0E0],"parents":[2147483647,0,0,1,1,2,2,4,4,5,5,6,6,7,7,8,8,10,10,12,12,13,13,15,15,17,17,18,18,19,19,20,20,21,21,24,24,25,25,27,27,29,29,30,30,31,31,32,32],"right_children":[2,4,6,-1,8,10,12,14,16,-1,18,-1,20,22,-1,24,-1,26,28,30,32,34,-1,-1,36,38,-1,40,-1,42,44,46,48,-1,-1,-1,-1,-1,-1,-1,-1,-1,-1,-1,-1,-1,-1,-1,-1],"split_conditions":[5.882353E-2,2.47704E1,1E0,-1.6594982E-1,1.9367965E3,3.0409E2,3.5E0,7.6630753E-1,6.6700326E8,-1.7524895E-1,2.1205598E4,9.984053E-3,7.2619283E-1,2.2225E0,-1.1619065E-1,2.0833334E-2,1.4945896E-1,1.1413828E0,6.1324436E9,4E0,1.113808E3,5.751195E1,-1.1494954E-1,-1.2188101E-1,3.0312817E3,8.894848E-1,-7.119449E-2,1.9676563E0,2.1015257E-1,5.0040245E-1,3.025E1,3.724963E0,1.8950207E4,-5.2294414E-2,8.170167E-2,5.220454E-2,-8.43556E-2,1.1616677E-1,4.264692E-2,-5.244581E-2,-1.6840921E-1,5.2821588E-2,-1.0601094E-1,1.0835378E-1,4.9239464E-2,1.5265468E-1,-5.6693893E-2,9.9291995E-2,1.2845003E-2],"split_indices":[7,0,7,0,0,0,5,4,0,0,0,0,4,3,0,7,0,4,0,0,0,0,0,0,0,4,0,3,0,4,0,0,0,0,0,0,0,0,0,0,0,0,0,0,0,0,0,0,0],"split_type":[0,0,0,0,0,0,0,0,0,0,0,0,0,0,0,0,0,0,0,0,0,0,0,0,0,0,0,0,0,0,0,0,0,0,0,0,0,0,0,0,0,0,0,0,0,0,0,0,0],"sum_hessian":[2.095863E3,6.3343176E2,1.4624312E3,1.9851173E2,4.3492004E2,4.1090057E2,1.0515306E3,1.9663849E2,2.3828156E2,4.6783813E1,3.6411676E2,3.9048578E2,6.610448E2,1.7058774E2,2.605075E1,2.2845232E2,9.829241E0,2.1642682E2,1.4768994E2,4.7754953E2,1.834953E2,1.563211E2,1.4266634E1,1.4208649E2,8.6365814E1,1.8200887E2,3.4417965E1,1.3983842E2,7.8515177E0,1.548911E2,3.2265842E2,5.8841667E1,1.24653625E2,1.9790953E1,1.3653015E2,1.429009E1,7.207573E1,1.1662275E2,6.538611E1,1.21297325E2,1.8541098E1,1.4566185E2,9.22924E0,2.2789662E2,9.47618E1,6.302311E0,5.2539356E1,5.2749947E1,7.190369E1],"tree_param":{"num_deleted":"0","num_feature":"8","num_nodes":"49","size_leaf_vector":"1"}},{"base_weights":[-1.792532E-2,-3.7972015E-1,1.4376979E-1,-6.08982E-1,-1.6649906E-1,8.6184174E-2,8.7372325E-2,-1.4989956E-1,-6.866203E-1,-3.9032128E-1,-1.9873034E-2,3.7339652E-1,3.446978E-2,3.906619E-1,-7.015543E-2,-7.711145E-1,-2.9083836E-1,-1.4983413E-1,-4.407642E-2,-7.815744E-2,9.942442E-2,1.12934165E-1,2.1695384E-1,-1.6285544E-2,9.629233E-2,-4.8655495E-2,2.0462327E-1,-1.560969E-1,-4.9730352E-1,-1.1792849E-1,-5.67117E-3,4.6742905E-2,-3.970586E-2,1.7318006E-1,1.6206716E-1,-6.974771E-3,1.6730295E-1,4.0621527E-2,-1.10820346E-1,4.0770814E-2,-1.056087E-1,6.4122593E-3,4.6385907E-2],"categories":[],"categories_nodes":[],"categories_segments":[],"categories_sizes":[],"default_left":[0,0,1,0,0,0,0,0,0,0,0,0,0,0,0,0,0,0,0,0,0,0,0,0,0,0,0,0,0,0,0,0,0,0,0,0,0,0,0,0,0,0,0],"id":24,"left_children":[1,3,5,7,9,11,-1,13,15,17,19,21,23,25,-1,27,29,-1,-1,-1,31,-1,33,-1,35,-1,-1,-1,37,-1,-1,-1,-1,-1,39,-1,41,-1,-1,-1,-1,-1,-1],"loss_changes":[1.17473755E2,3.0320213E1,2.9449059E1,1.0652962E1,1.0546777E1,1.782743E1,0E0,6.109532E0,8.549278E0,8.190264E0,1.0154082E1,8.2722225E0,8.1714E0,7.70659E0,0E0,8.310562E0,4.640701E0,0E0,0E0,0E0,8.854668E0,0E0,5.205011E0,0E0,6.7141547E0,0E0,0E0,0E0,8.142376E0,0E0,0E0,0E0,0E0,0E0,6.6829166E0,0E0,6.1648054E0,0E0,0E0,0E0,0E0,0E0,0E0],"parents":[2147483647,0,0,1,1,2,2,3,3,4,4,5,5,7,7,8,8,9,9,10,10,11,11,12,12,13,13,15,15,16,16,20,20,22,22,24,24,28,28,34,34,36,36],"right_children":[2,4,6,8,10,12,-1,14,16,18,20,22,24,26,-1,28,30,-1,-1,-1,32,-1,34,-1,36,-1,-1,-1,38,-1,-1,-1,-1,-1,40,-1,42,-1,-1,-1,-1,-1,-1],"split_conditions":[7.1428575E-2,2E0,3.3620763E0,-6.9652367E0,4E0,-3.0995827E0,8.7372325E-2,4E0,7.1729517E0,1.1494253E-2,7.0921984E-3,5.8E1,1E0,4.1820154E-1,-7.015543E-2,2.1276595E-2,4.4444446E-3,-1.4983413E-1,-4.407642E-2,-7.815744E-2,7.394609E-1,1.12934165E-1,-1.2354205E1,-1.6285544E-2,2E0,-4.8655495E-2,2.0462327E-1,-1.560969E-1,-4.223294E0,-1.1792849E-1,-5.67117E-3,4.6742905E-2,-3.970586E-2,1.7318006E-1,8.7977237E-1,-6.974771E-3,1.3754928E0,4.0621527E-2,-1.10820346E-1,4.0770814E-2,-1.056087E-1,6.4122593E-3,4.6385907E-2],"split_indices":[7,6,1,1,2,1,0,2,1,7,7,6,7,4,0,7,7,0,0,0,4,0,1,0,6,0,0,0,1,0,0,0,0,0,4,0,1,0,0,0,0,0,0],"split_type":[0,0,0,0,0,0,0,0,0,0,0,0,0,0,0,0,0,0,0,0,0,0,0,0,0,0,0,0,0,0,0,0,0,0,0,0,0,0,0,0,0,0,0],"sum_hessian":[2.0080831E3,6.2025494E2,1.3878281E3,2.9888477E2,3.2137015E2,1.200257E3,1.8757126E2,4.3234573E1,2.5565019E2,1.2720057E2,1.9416959E2,1.8313858E2,1.01711835E3,1.40929165E1,2.9141655E1,2.1067406E2,4.497614E1,2.7059807E1,1.0014076E2,4.1538128E1,1.5263145E2,6.435905E1,1.1877953E2,3.2789194E2,6.892264E2,7.678059E0,6.414857E0,1.3804195E2,7.263211E1,1.7602762E1,2.7373375E1,1.0004442E2,5.2587032E1,7.6404824E0,1.11139046E2,2.3507912E2,4.5414728E2,1.246896E1,6.016315E1,1.0117154E2,9.967508E0,2.0279807E2,2.5134923E2],"tree_param":{"num_deleted":"0","num_feature":"8","num_nodes":"43","size_leaf_vector":"1"}},{"base_weights":[-2.0471048E-2,1.4252518E-2,-6.052933E-1,-1.782144E-1,1.891521E-2,-1.3605171E-1,-2.9636818E-1,5.4013375E-2,-1.1109009E-1,4.6950884E-2,-9.034946E-2,8.44775E-2,-3.79037E-1,-2.0344754E-1,4.6782218E-2,1.085741E-3,2.2728938E-1,-6.6481864E-1,-2.9702658E-2,-4.8779063E-2,4.221716E-2,1.7132388E-2,-1.436819E-2,6.1168868E-2,8.922153E-3,-5.9368454E-2,-1.9234803E-1,3.736827E-2,-5.415509E-2],"categories":[],"categories_nodes":[],"categories_segments":[],"categories_sizes":[],"default_left":[0,0,0,0,0,0,0,0,0,0,0,0,0,0,0,0,0,0,0,0,0,0,0,0,0,0,0,0,0],"id":25,"left_children":[1,3,5,-1,7,-1,9,11,13,-1,-1,15,17,19,-1,21,23,25,-1,-1,27,-1,-1,-1,-1,-1,-1,-1,-1],"loss_changes":[3.9304436E1,9.022376E0,6.446537E0,0E0,8.300066E0,0E0,5.5526257E0,1.8895916E1,1.3763039E1,0E0,0E0,1.5936888E1,5.51223E0,6.325124E0,0E0,7.162584E0,1.133754E1,5.7636814E0,0E0,0E0,4.9911957E0,0E0,0E0,0E0,0E0,0E0,0E0,0E0,0E0],"parents":[2147483647,0,0,1,1,2,2,4,4,6,6,7,7,8,8,11,11,12,12,13,13,15,15,16,16,17,17,20,20],"right_children":[2,4,6,-1,8,-1,10,12,14,-1,-1,16,18,20,-1,22,24,26,-1,-1,28,-1,-1,-1,-1,-1,-1,-1,-1],"split_conditions":[2.92E0,1.96E0,8.369882E-1,-1.782144E-1,2.1205598E4,-1.3605171E-1,3E0,1.0986123E0,1.1562363E0,4.6950884E-2,-9.034946E-2,1.02395256E2,2.8598267E3,5E0,4.6782218E-2,2E0,4E0,4E0,-2.9702658E-2,-4.8779063E-2,8.864683E6,1.7132388E-2,-1.436819E-2,6.1168868E-2,8.922153E-3,-5.9368454E-2,-1.9234803E-1,3.736827E-2,-5.415509E-2],"split_indices":[3,3,4,0,0,0,2,4,4,0,0,0,0,2,0,2,2,2,0,0,0,0,0,0,0,0,0,0,0],"split_type":[0,0,0,0,0,0,0,0,0,0,0,0,0,0,0,0,0,0,0,0,0,0,0,0,0,0,0,0,0],"sum_hessian":[1.9355007E3,1.8270221E3,1.08478645E2,8.008155E0,1.819014E3,6.6850876E1,4.162777E1,1.4323229E3,3.8669116E2,1.2066817E1,2.9560951E1,1.3381846E3,9.4138275E1,3.119335E2,7.475766E1,8.448523E2,4.9333228E2,3.930968E1,5.4828594E1,2.3348557E2,7.844795E1,3.903247E2,4.545276E2,2.8180862E2,2.1152364E2,2.3339396E1,1.5970287E1,5.2590252E1,2.5857698E1],"tree_param":{"num_deleted":"0","num_feature":"8","num_nodes":"29","size_leaf_vector":"1"}},{"base_weights":[-1.3373594E-2,-3.4330004E-1,1.3400686E-1,-1.980148E-2,-5.997494E-1,2.0233653E-1,-7.919857E-2,-1.6426092E-1,-3.8122097E-1,2.3658401E-1,-8.1469566E-2,-1.1909843E-1,4.6030486E-1,1.0347956E-2,-6.0699797E-1,2.533139E-1,-3.4489024E-1,-2.592482E-1,5.0098384E-3,2.8077984E-2,-2.1486188E-1,1.5712917E-1,-7.73784E-3,1.726572E-1,-1.0217017E-1,-3.0338028E-1,-1.4591272E-1,2.315413E-1,5.9040534E-1,-8.6317664E-1,1.0637894E-1,-4.0968668E-1,6.1778348E-2,-3.842392E-1,-5.8503564E-2,-4.194429E-2,1.6073908E-1,7.4719764E-2,-8.530753E-2,2.1202758E-2,5.277911E-2,1.1878241E-1,-3.4927156E-2,-2.700706E-1,-5.3427804E-2,-1.6833702E-1,-1.0753186E-2,-3.532524E-2,-1.0857851E-1,3.652752E-2,-4.2243164E-2],"categories":[],"categories_nodes":[],"categories_segments":[],"categories_sizes":[],"default_left":[0,0,0,0,0,0,1,0,0,0,0,0,0,0,0,1,0,0,0,0,0,0,0,0,0,0,0,0,0,0,0,0,0,0,0,0,0,0,0,0,0,0,0,0,0,0,0,0,0,0,0],"id":26,"left_children":[1,3,5,-1,7,9,11,-1,13,15,17,19,21,23,25,27,29,-1,31,-1,33,-1,-1,-1,35,37,-1,39,41,43,-1,45,-1,47,49,-1,-1,-1,-1,-1,-1,-1,-1,-1,-1,-1,-1,-1,-1,-1,-1],"loss_changes":[9.340841E1,3.4561447E1,1.9344433E1,0E0,2.2122078E1,9.773823E0,6.937305E0,0E0,1.5381979E1,8.728882E0,1.3469736E1,8.153124E0,5.17272E0,7.173546E0,8.325596E0,6.40139E0,1.2597508E1,0E0,1.5129315E1,0E0,5.941698E0,0E0,0E0,0E0,8.589836E0,7.2463756E0,0E0,6.8435783E0,4.460581E0,6.47472E0,0E0,9.457713E0,0E0,4.813732E0,6.0171056E0,0E0,0E0,0E0,0E0,0E0,0E0,0E0,0E0,0E0,0E0,0E0,0E0,0E0,0E0,0E0,0E0],"parents":[2147483647,0,0,1,1,2,2,4,4,5,5,6,6,8,8,9,9,10,10,11,11,12,12,13,13,14,14,15,15,16,16,18,18,20,20,24,24,25,25,27,27,28,28,29,29,31,31,33,33,34,34],"right_children":[2,4,6,-1,8,10,12,-1,14,16,18,20,22,24,26,28,30,-1,32,-1,34,-1,-1,-1,36,38,-1,40,42,44,-1,46,-1,48,50,-1,-1,-1,-1,-1,-1,-1,-1,-1,-1,-1,-1,-1,-1,-1,-1],"split_conditions":[2E0,6E0,2.5071328E4,-1.980148E-2,3.5086735E1,1.035E2,1.0017552E1,-1.6426092E-1,1.00900507E3,6E0,3.8842976E0,-2.6519635E0,7.7666664E1,-1.0629386E1,2.15E1,5.9871063E0,7.4E1,-2.592482E-1,4.4E1,2.8077984E-2,1.1534219E0,1.5712917E-1,-7.73784E-3,1.726572E-1,1.0017552E1,-4.223294E0,-1.4591272E-1,6E0,2.0966067E3,2.75E1,1.0637894E-1,1.6519175E1,6.1778348E-2,-3.126887E-1,1.8E1,-4.194429E-2,1.6073908E-1,7.4719764E-2,-8.530753E-2,2.1202758E-2,5.277911E-2,1.1878241E-1,-3.4927156E-2,-2.700706E-1,-5.3427804E-2,-1.6833702E-1,-1.0753186E-2,-3.532524E-2,-1.0857851E-1,3.652752E-2,-4.2243164E-2],"split_indices":[6,5,0,0,0,5,1,0,0,2,0,1,5,1,5,1,6,0,6,0,1,0,0,0,1,1,0,6,0,5,0,0,0,1,5,0,0,0,0,0,0,0,0,0,0,0,0,0,0,0,0],"split_type":[0,0,0,0,0,0,0,0,0,0,0,0,0,0,0,0,0,0,0,0,0,0,0,0,0,0,0,0,0,0,0,0,0,0,0,0,0,0,0,0,0,0,0,0,0,0,0,0,0,0,0],"sum_hessian":[1.9210072E3,5.9315906E2,1.3278481E3,3.145119E2,2.7864713E2,1.00557416E3,3.2227396E2,1.0465712E2,1.7399E2,8.972956E2,1.0827854E2,3.0008096E2,2.2192982E1,6.3631985E1,1.10358025E2,8.722011E2,2.5094524E1,6.1403995E0,1.02138145E2,7.572661E1,2.2435435E2,1.1610113E1,1.0582868E1,6.4245014E0,5.720748E1,4.9667862E1,6.0690163E1,8.1928394E2,5.2917152E1,1.6347174E1,8.747352E0,4.7264458E1,5.4873688E1,1.0769369E2,1.1666067E2,5.0287327E1,6.920154E0,1.0416645E1,3.9251217E1,3.4473538E2,4.7454855E2,4.6692554E1,6.224599E0,7.077752E0,9.269421E0,1.7733326E1,2.9531132E1,6.3277374E1,4.441631E1,4.7784374E1,6.887629E1],"tree_param":{"num_deleted":"0","num_feature":"8","num_nodes":"51","size_leaf_vector":"1"}},{"base_weights":[-1.1274677E-2,-3.2790044E-1,1.0787846E-1,-5.414429E-1,-1.5236922E-1,7.444573E-2,4.6558788E-1,