{"learner":{"attributes":{"scikit_learn":"{\"_estimator_type\": \"classifier\"}"},"feature_names":["var","skew","peak_count","peak_width","entropy","mean_height","peak_heights","relative_height"],"feature_types":["float","float","float","float","float","float","float","float"],"gradient_booster":{"model":{"cats":{"enc":[],"feature_segments":[],"sorted_idx":[]},"gbtree_model_param":{"num_parallel_tree":"1","num_trees":"417"},"iteration_indptr":[0,1,2,3,4,5,6,7,8,9,10,11,12,13,14,15,16,17,18,19,20,21,22,23,24,25,26,27,28,29,30,31,32,33,34,35,36,37,38,39,40,41,42,43,44,45,46,47,48,49,50,51,52,53,54,55,56,57,58,59,60,61,62,63,64,65,66,67,68,69,70,71,72,73,74,75,76,77,78,79,80,81,82,83,84,85,86,87,88,89,90,91,92,93,94,95,96,97,98,99,100,101,102,103,104,105,106,107,108,109,110,111,112,113,114,115,116,117,118,119,120,121,122,123,124,125,126,127,128,129,130,131,132,133,134,135,136,137,138,139,140,141,142,143,144,145,146,147,148,149,150,151,152,153,154,155,156,157,158,159,160,161,162,163,164,165,166,167,168,169,170,171,172,173,174,175,176,177,178,179,180,181,182,183,184,185,186,187,188,189,190,191,192,193,194,195,196,197,198,199,200,201,202,203,204,205,206,207,208,209,210,211,212,213,214,215,216,217,218,219,220,221,222,223,224,225,226,227,228,229,230,231,232,233,234,235,236,237,238,239,240,241,242,243,244,245,246,247,248,249,250,251,252,253,254,255,256,257,258,259,260,261,262,263,264,265,266,267,268,269,270,271,272,273,274,275,276,277,278,279,280,281,282,283,284,285,286,287,288,289,290,291,292,293,294,295,296,297,298,299,300,301,302,303,304,305,306,307,308,309,310,311,312,313,314,315,316,317,318,319,320,321,322,323,324,325,326,327,328,329,330,331,332,333,334,335,336,337,338,339,340,341,342,343,344,345,346,347,348,349,350,351,352,353,354,355,356,357,358,359,360,361,362,363,364,365,366,367,368,369,370,371,372,373,374,375,376,377,378,379,380,381,382,383,384,385,386,387,388,389,390,391,392,393,394,395,396,397,398,399,400,401,402,403,404,405,406,407,408,409,410,411,412,413,414,415,416,417],"tree_info":[0,0,0,0,0,0,0,0,0,0,0,0,0,0,0,0,0,0,0,0,0,0,0,0,0,0,0,0,0,0,0,0,0,0,0,0,0,0,0,0,0,0,0,0,0,0,0,0,0,0,0,0,0,0,0,0,0,0,0,0,0,0,0,0,0,0,0,0,0,0,0,0,0,0,0,0,0,0,0,0,0,0,0,0,0,0,0,0,0,0,0,0,0,0,0,0,0,0,0,0,0,0,0,0,0,0,0,0,0,0,0,0,0,0,0,0,0,0,0,0,0,0,0,0,0,0,0,0,0,0,0,0,0,0,0,0,0,0,0,0,0,0,0,0,0,0,0,0,0,0,0,0,0,0,0,0,0,0,0,0,0,0,0,0,0,0,0,0,0,0,0,0,0,0,0,0,0,0,0,0,0,0,0,0,0,0,0,0,0,0,0,0,0,0,0,0,0,0,0,0,0,0,0,0,0,0,0,0,0,0,0,0,0,0,0,0,0,0,0,0,0,0,0,0,0,0,0,0,0,0,0,0,0,0,0,0,0,0,0,0,0,0,0,0,0,0,0,0,0,0,0,0,0,0,0,0,0,0,0,0,0,0,0,0,0,0,0,0,0,0,0,0,0,0,0,0,0,0,0,0,0,0,0,0,0,0,0,0,0,0,0,0,0,0,0,0,0,0,0,0,0,0,0,0,0,0,0,0,0,0,0,0,0,0,0,0,0,0,0,0,0,0,0,0,0,0,0,0,0,0,0,0,0,0,0,0,0,0,0,0,0,0,0,0,0,0,0,0,0,0,0,0,0,0,0,0,0,0,0,0,0,0,0,0,0,0,0,0,0,0,0,0,0,0,0,0,0,0,0,0,0,0,0,0,0,0,0,0,0,0,0,0,0,0,0,0,0,0,0,0,0,0,0,0,0,0,0,0,0,0,0,0,0,0,0,0,0],"trees":[{"base_weights":[1.7636911E-3,-1.7968183E0,8.705317E-1,-2.077047E0,-1.1226357E0,1.0620948E0,2.4455582E-1,-3.9493823E-1,-1.8555216E0,-2.0378041E0,-7.272603E-1,6.949963E-1,1.1401141E0,4.068137E-1,-3.1466746E-1,-1.5643846E0,-2.1369495E0,-2.1557603E0,-2.6086226E-1,-1.7072557E-1,-1.6850215E0,1.0749683E-1,1.6994849E-1,1.1092129E0,1.4396855E0,-9.036092E-2,7.7761245E-1,-4.959144E-1,1.1186202E0,-1.903042E0,-1.219352E0,-3.804093E-1,-1.8935316E0,-3.7928876E-1,-2.9076087E-1,-1.6480915E-1,-1.3664912E-2,-3.0113783E-1,-2.1984541E-1,1.1423637E0,9.711884E-1,2.5289276E-1,-1.2725694E-2,8.3143574E-1,-3.367011E-1,2.3617135E-1,7.412332E-1,5.562118E-1,-7.828241E-1,1.1450445E-1,2.5834438E-1,-3.0599567E-1,-3.769784E-1,-3.3698633E-1,-1.7713162E-1,-3.505301E-1,-2.7173272E-1,-5.5429053E-2,3.185497E-2,2.094357E-1,1.8489052E-1,1.9792388E-1,1.4561631E-1,2.0067753E-1,8.872697E-2,-1.2350963E-1,9.499199E-2,1.1613019E-1,1.8199293E-1,5.9997465E-2,2.1153904E-1,-2.4784797E-1,-1.0973558E-1],"categories":[],"categories_nodes":[],"categories_segments":[],"categories_sizes":[],"default_left":[0,0,0,0,0,0,0,0,0,0,0,0,0,0,1,0,0,0,0,0,0,0,0,0,0,0,0,0,0,0,0,0,0,0,0,0,0,0,0,0,1,0,0,0,1,0,1,0,0,0,0,0,0,0,0,0,0,0,0,0,0,0,0,0,0,0,0,0,0,0,0,0,0],"id":0,"left_children":[1,3,5,7,9,11,13,-1,15,17,19,21,23,25,27,29,31,33,-1,35,37,-1,-1,39,41,43,45,47,49,51,53,-1,55,-1,-1,-1,57,-1,-1,59,61,-1,-1,63,65,-1,67,69,71,-1,-1,-1,-1,-1,-1,-1,-1,-1,-1,-1,-1,-1,-1,-1,-1,-1,-1,-1,-1,-1,-1,-1,-1],"loss_changes":[1.0231212E4,4.0290918E2,5.2943506E2,7.957324E1,2.2657129E2,9.6823E1,9.3872375E1,0E0,6.398535E1,1.1328491E1,2.330737E2,1.1564026E1,2.5809082E1,1.4782715E2,6.0440994E1,4.4851562E1,9.023804E0,4.701355E0,0E0,3.4555546E1,5.1255493E0,0E0,0E0,1.1564453E1,1.6976685E1,7.778738E1,1.0143311E1,6.2348595E1,4.6266785E0,6.486267E0,2.6007477E1,0E0,5.343231E0,0E0,0E0,0E0,1.4410979E1,0E0,0E0,1.0174316E1,1.0878052E1,0E0,0E0,7.759636E0,9.358937E1,0E0,8.522858E0,6.1891127E0,1.5169815E1,0E0,0E0,0E0,0E0,0E0,0E0,0E0,0E0,0E0,0E0,0E0,0E0,0E0,0E0,0E0,0E0,0E0,0E0,0E0,0E0,0E0,0E0,0E0,0E0],"parents":[2147483647,0,0,1,1,2,2,3,3,4,4,5,5,6,6,8,8,9,9,10,10,11,11,12,12,13,13,14,14,15,15,16,16,17,17,19,19,20,20,23,23,24,24,25,25,26,26,27,27,28,28,29,29,30,30,32,32,36,36,39,39,40,40,43,43,44,44,46,46,47,47,48,48],"right_children":[2,4,6,8,10,12,14,-1,16,18,20,22,24,26,28,30,32,34,-1,36,38,-1,-1,40,42,44,46,48,50,52,54,-1,56,-1,-1,-1,58,-1,-1,60,62,-1,-1,64,66,-1,68,70,72,-1,-1,-1,-1,-1,-1,-1,-1,-1,-1,-1,-1,-1,-1,-1,-1,-1,-1,-1,-1,-1,-1,-1,-1],"split_conditions":[5.416667E-1,7.8431375E-2,1.2971534E1,2.3301775E1,1.8186607E2,1.5E0,2.7630135E4,-3.9493823E-1,4.369942E3,1.25E1,1.94898E4,6.2222224E-2,6.65E1,5.806875E2,4.364358E0,2.2222223E-2,3.5714287E-2,5.920366E1,-2.6086226E-1,6.276365E2,3.904762E-1,1.0749683E-1,1.6994849E-1,4.4691358E0,9.412524E0,-1.9335938E0,-5.0129795E0,-2.6484346E0,3.4E0,1.5605555E3,1E2,-3.804093E-1,1.4E1,-3.7928876E-1,-2.9076087E-1,-1.6480915E-1,1.764706E-1,-3.0113783E-1,-2.1984541E-1,1.2081716E0,-1.6389037E0,2.5289276E-1,-1.2725694E-2,-3.9814923E0,1.6093295E0,2.3617135E-1,2.5585928E0,3.4E1,9.130435E-1,1.1450445E-1,2.5834438E-1,-3.0599567E-1,-3.769784E-1,-3.3698633E-1,-1.7713162E-1,-3.505301E-1,-2.7173272E-1,-5.5429053E-2,3.185497E-2,2.094357E-1,1.8489052E-1,1.9792388E-1,1.4561631E-1,2.0067753E-1,8.872697E-2,-1.2350963E-1,9.499199E-2,1.1613019E-1,1.8199293E-1,5.9997465E-2,2.1153904E-1,-2.4784797E-1,-1.0973558E-1],"split_indices":[7,7,0,0,0,5,0,0,0,5,0,0,5,0,1,7,7,0,0,0,7,0,0,0,1,1,1,1,3,0,0,0,5,0,0,0,7,0,0,1,1,0,0,1,1,0,1,5,7,0,0,0,0,0,0,0,0,0,0,0,0,0,0,0,0,0,0,0,0,0,0,0,0],"split_type":[0,0,0,0,0,0,0,0,0,0,0,0,0,0,0,0,0,0,0,0,0,0,0,0,0,0,0,0,0,0,0,0,0,0,0,0,0,0,0,0,0,0,0,0,0,0,0,0,0,0,0,0,0,0,0,0,0,0,0,0,0,0,0,0,0,0,0,0,0,0,0,0,0],"sum_hessian":[6.5477646E3,2.1326367E3,4.415128E3,1.5064639E3,6.2617285E2,3.3805894E3,1.0345386E3,7.255298E2,7.809341E2,1.8890887E2,4.3726398E2,5.9254254E2,2.7880469E3,8.018755E2,2.3266313E2,3.838459E2,3.9708817E2,1.5333284E2,3.5576035E1,2.7656055E2,1.6070345E2,4.877543E2,1.0478823E2,2.5273474E3,2.6069946E2,3.4256168E2,4.593138E2,2.0654448E2,2.6118666E1,1.9371255E2,1.9013335E2,2.8701132E2,1.1007685E2,1.3325085E2,2.0081985E1,4.5598267E1,2.3096227E2,1.3355241E2,2.7151026E1,2.0378868E3,4.894605E2,2.535005E2,7.1989517E0,7.224043E1,2.7032126E2,2.5969805E1,4.33344E2,4.4255432E1,1.6228905E2,1.2265551E1,1.3853114E1,1.4296918E2,5.0743378E1,3.668803E1,1.5344531E2,7.1573135E1,3.8503716E1,9.04588E1,1.4050346E2,8.265363E2,1.2113506E3,1.8745686E2,3.0200366E2,3.4255615E1,3.7984818E1,1.8856895E2,8.17523E1,3.655933E2,6.77507E1,3.407158E1,1.0183851E1,2.794945E1,1.343396E2],"tree_param":{"num_deleted":"0","num_feature":"8","num_nodes":"73","size_leaf_vector":"1"}},{"base_weights":[4.1714683E-3,-1.4048625E0,7.7854675E-1,-1.6696075E0,-7.753589E-1,8.2727104E-1,1.2486932E-2,-1.750583E0,-1.4042597E0,-1.062367E0,-5.660128E-1,4.0653518E-1,9.168966E-1,1.1422108E-1,-1.3398889E-1,-1.7873396E0,-1.5942411E0,-1.5505031E0,-1.0984386E0,-2.3429735E-1,-7.358054E-1,-9.7543716E-1,-4.0643036E-1,5.294807E-1,-3.08546E-1,1.0004423E0,7.174484E-1,2.8048286E-1,-1.8214263E-1,-1.619706E0,-3.149408E-1,-2.9258937E-1,-2.315473E-1,-1.103781E-1,-1.5770326E0,-6.579797E-1,-1.2534014E0,-6.119354E-1,-2.2635278E-1,-1.7812812E-1,-3.129293E-2,-9.996781E-2,-7.9363483E-1,8.2171485E-2,1.2819016E-1,-1.0242302E-1,9.638471E-2,9.780057E-1,1.1944569E0,5.473481E-1,9.9147534E-1,1.4295688E-1,1.9594224E-1,-6.16776E-2,3.8106516E-2,-3.094952E-1,-2.3708299E-1,-2.815821E-1,-2.04707E-1,-2.3005833E-1,-6.499068E-2,-2.7247596E-1,-1.6212498E-1,-8.87755E-2,-2.0208998E-1,9.794105E-3,-7.273594E-2,-1.6089956E-1,-4.0625897E-3,1.759922E-1,1.5700647E-1,3.3166758E-3,2.0888367E-1,1.3993886E-1,7.3256664E-2,-8.142598E-3,1.7423712E-1,7.126862E-3,1.0285867E-1],"categories":[],"categories_nodes":[],"categories_segments":[],"categories_sizes":[],"default_left":[0,0,0,0,0,0,0,0,0,0,0,0,0,0,0,0,0,0,0,0,0,0,0,0,0,0,0,0,0,0,0,0,0,0,0,0,0,0,0,0,0,0,0,0,0,0,0,0,1,0,0,0,0,0,0,0,0,0,0,0,0,0,0,0,0,0,0,0,0,0,0,0,0,0,0,0,0,0,0],"id":1,"left_children":[1,3,5,7,9,11,13,15,17,19,21,23,25,27,-1,29,31,33,35,-1,37,39,41,43,45,47,49,51,53,55,-1,-1,-1,-1,57,59,61,63,-1,-1,-1,65,67,-1,-1,-1,-1,69,71,73,75,-1,77,-1,-1,-1,-1,-1,-1,-1,-1,-1,-1,-1,-1,-1,-1,-1,-1,-1,-1,-1,-1,-1,-1,-1,-1,-1,-1],"loss_changes":[7.0358125E3,3.8113916E2,1.55323E2,3.459082E1,4.068045E1,1.4753271E2,2.0203615E1,7.088379E0,1.6835022E1,2.9029694E1,2.557927E1,6.0404533E1,5.3744873E1,1.0875277E1,0E0,9.89917E0,6.7348633E0,6.102844E0,8.311462E0,0E0,1.0207329E1,5.9924774E0,3.3427467E1,6.2128143E0,2.5709887E1,9.89502E0,4.438385E1,6.6658287E0,5.7733164E0,1.1655273E1,0E0,0E0,0E0,0E0,6.885559E0,6.0633783E0,9.388138E0,6.0370064E0,0E0,0E0,0E0,8.079862E0,1.4342911E1,0E0,0E0,0E0,0E0,6.3043213E0,8.364258E0,1.8908981E1,1.1393311E1,0E0,7.7053895E0,0E0,0E0,0E0,0E0,0E0,0E0,0E0,0E0,0E0,0E0,0E0,0E0,0E0,0E0,0E0,0E0,0E0,0E0,0E0,0E0,0E0,0E0,0E0,0E0,0E0,0E0],"parents":[2147483647,0,0,1,1,2,2,3,3,4,4,5,5,6,6,7,7,8,8,9,9,10,10,11,11,12,12,13,13,15,15,16,16,17,17,18,18,20,20,21,21,22,22,23,23,24,24,25,25,26,26,27,27,28,28,29,29,34,34,35,35,36,36,37,37,41,41,42,42,47,47,48,48,49,49,50,50,52,52],"right_children":[2,4,6,8,10,12,14,16,18,20,22,24,26,28,-1,30,32,34,36,-1,38,40,42,44,46,48,50,52,54,56,-1,-1,-1,-1,58,60,62,64,-1,-1,-1,66,68,-1,-1,-1,-1,70,72,74,76,-1,78,-1,-1,-1,-1,-1,-1,-1,-1,-1,-1,-1,-1,-1,-1,-1,-1,-1,-1,-1,-1,-1,-1,-1,-1,-1,-1],"split_conditions":[1E0,9.52381E-2,1.2770343E0,4.225352E-2,2.027027E-1,2E0,1.6769878E0,5.2241154E0,1.3E1,6E0,3E0,2E0,2E0,3E0,-1.3398889E-1,-4.884792E0,1.7857144E-2,-4.884792E0,-3.1317055E0,-2.3429735E-1,4E0,5.416667E-1,3E0,1.4804225E-1,1.5E0,5.6E1,2.55E1,-1.6723658E0,8.796989E-1,1.369863E-2,-3.149408E-1,-2.9258937E-1,-2.315473E-1,-1.103781E-1,3.7050154E0,6.7239624E-1,2.5585928E0,1.3751022E0,-2.2635278E-1,-1.7812812E-1,-3.129293E-2,1.2972958E0,3.9E1,8.2171485E-2,1.2819016E-1,-1.0242302E-1,9.638471E-2,9.333333E0,-9.777597E0,-2.105175E0,3.25083E-1,1.4295688E-1,1.0208809E0,-6.16776E-2,3.8106516E-2,-3.094952E-1,-2.3708299E-1,-2.815821E-1,-2.04707E-1,-2.3005833E-1,-6.499068E-2,-2.7247596E-1,-1.6212498E-1,-8.87755E-2,-2.0208998E-1,9.794105E-3,-7.273594E-2,-1.6089956E-1,-4.0625897E-3,1.759922E-1,1.5700647E-1,3.3166758E-3,2.0888367E-1,1.3993886E-1,7.3256664E-2,-8.142598E-3,1.7423712E-1,7.126862E-3,1.0285867E-1],"split_indices":[7,7,4,7,7,5,4,1,5,5,5,2,2,2,0,1,7,1,1,0,2,7,2,4,5,5,5,1,1,7,0,0,0,0,1,4,1,4,0,0,0,4,5,0,0,0,0,5,1,1,4,0,1,0,0,0,0,0,0,0,0,0,0,0,0,0,0,0,0,0,0,0,0,0,0,0,0,0,0],"split_type":[0,0,0,0,0,0,0,0,0,0,0,0,0,0,0,0,0,0,0,0,0,0,0,0,0,0,0,0,0,0,0,0,0,0,0,0,0,0,0,0,0,0,0,0,0,0,0,0,0,0,0,0,0,0,0,0,0,0,0,0,0,0,0,0,0,0,0,0,0,0,0,0,0,0,0,0,0,0,0],"sum_hessian":[6.448241E3,2.2869548E3,4.161286E3,1.609895E3,6.7705975E2,3.9124402E3,2.4884616E2,1.2334779E3,3.764172E2,2.8556186E2,3.9149792E2,6.8707086E2,3.2253694E3,2.2071043E2,2.8135733E1,9.986839E2,2.3479399E2,2.5464569E2,1.2177149E2,1.461975E2,1.3936435E2,1.097987E2,2.8169922E2,5.8627185E2,1.0079902E2,2.2731729E3,9.521964E2,1.4138988E2,7.932055E1,2.6041788E2,7.38266E2,1.5528894E2,7.950505E1,7.264918E0,2.4738078E2,3.1691908E1,9.007959E1,1.15225334E2,2.4139017E1,1.0100941E2,8.789292E0,1.5724432E2,1.244549E2,4.825864E2,1.03685425E2,7.555142E1,2.5247599E1,2.0375437E3,2.356292E2,5.875061E2,3.646903E2,1.8612822E1,1.2277706E2,5.4987446E1,2.4333103E1,1.4090381E2,1.1951408E2,2.0684196E2,4.0538822E1,9.069141E0,2.2622766E1,4.216985E1,4.7909737E1,9.936387E1,1.5861464E1,1.0609664E2,5.1147675E1,1.04192635E2,2.026227E1,1.0523484E3,9.851954E2,5.906322E0,2.2972287E2,1.7710077E2,4.1040533E2,1.0253056E1,3.5443726E2,8.905504E1,3.372202E1],"tree_param":{"num_deleted":"0","num_feature":"8","num_nodes":"79","size_leaf_vector":"1"}},{"base_weights":[1.4221834E-2,7.863113E-1,-6.082028E-1,4.7248283E-1,8.6879164E-1,-1.2649171E0,1.02204576E-1,7.103519E-2,1.266905E-1,8.8126355E-1,4.6526726E-2,-5.396284E-1,-1.4163202E0,-1.24942556E-1,7.531057E-1,8.607401E-1,1.0690078E0,-7.3274785E-1,1.4717792E-1,-1.4825459E0,-1.0585883E0,1.8082048E-1,-7.1241593E-1,9.067563E-1,5.2487217E-2,1.9896224E-1,1.4535114E-1,1.8753968E-1,1.0912378E-2,-5.1030344E-1,-1.6501945E-1,3.7016377E-1,-1.6066757E-1,-1.3332442E0,-1.5293689E0,-5.1084995E-1,-2.2251153E-1,3.389902E-1,-6.9467366E-1,-4.753588E-1,-1.1604875E0,8.020182E-1,1.1331538E0,3.3201188E-2,-1.3752647E-1,-7.771741E-2,-1.9931224E-1,1.1203225E-1,1.5085401E-2,-2.1645959E-1,-2.7846262E-1,-2.6735485E-1,-2.2936898E-1,-4.091159E-2,-1.6920866E-1,7.013149E-2,-2.5684038E-2,-1.7376877E-1,-3.4742117E-2,-1.3807277E-1,-2.7245823E-2,-1.6613553E-1,-2.4917978E-1,1.4443955E-1,-1.4727288E-1,7.50272E-2,2.0372556E-1],"categories":[],"categories_nodes":[],"categories_segments":[],"categories_sizes":[],"default_left":[0,0,0,0,0,0,0,0,0,0,0,0,0,0,0,0,0,0,0,0,0,0,0,0,0,0,0,0,0,0,0,0,0,0,0,0,0,0,0,0,0,0,0,0,0,0,0,0,0,0,0,0,0,0,0,0,0,0,0,0,0,0,0,0,0,0,0],"id":2,"left_children":[1,3,5,7,9,11,13,-1,-1,15,-1,17,19,21,23,25,27,29,31,33,35,37,39,41,43,-1,-1,-1,-1,45,-1,47,-1,49,51,53,-1,55,57,59,61,63,65,-1,-1,-1,-1,-1,-1,-1,-1,-1,-1,-1,-1,-1,-1,-1,-1,-1,-1,-1,-1,-1,-1,-1,-1],"loss_changes":[2.9955022E3,7.201489E1,1.6100665E3,8.765823E0,1.6376587E1,1.96927E2,2.4510461E2,0E0,0E0,8.314941E0,0E0,4.1077904E1,3.514868E1,2.2074915E2,4.616722E1,5.0908203E0,6.523102E0,1.26228485E1,1.6508066E1,8.751709E0,3.122467E1,1.1192424E2,4.4683258E1,8.3403015E0,9.417804E0,0E0,0E0,0E0,0E0,4.4651985E0,0E0,4.5565805E0,0E0,5.7403564E0,6.7043457E0,9.365726E0,0E0,2.4192719E1,1.9681652E1,2.9015102E1,8.153259E0,1.7949997E1,4.725754E0,0E0,0E0,0E0,0E0,0E0,0E0,0E0,0E0,0E0,0E0,0E0,0E0,0E0,0E0,0E0,0E0,0E0,0E0,0E0,0E0,0E0,0E0,0E0,0E0],"parents":[2147483647,0,0,1,1,2,2,3,3,4,4,5,5,6,6,9,9,11,11,12,12,13,13,14,14,15,15,16,16,17,17,18,18,19,19,20,20,21,21,22,22,23,23,24,24,29,29,31,31,33,33,34,34,35,35,37,37,38,38,39,39,40,40,41,41,42,42],"right_children":[2,4,6,8,10,12,14,-1,-1,16,-1,18,20,22,24,26,28,30,32,34,36,38,40,42,44,-1,-1,-1,-1,46,-1,48,-1,50,52,54,-1,56,58,60,62,64,66,-1,-1,-1,-1,-1,-1,-1,-1,-1,-1,-1,-1,-1,-1,-1,-1,-1,-1,-1,-1,-1,-1,-1,-1],"split_conditions":[2E0,1.5E0,3E0,1.4804225E-1,1.250097E0,3.6666667E0,5E1,7.103519E-2,1.266905E-1,5.7E1,4.6526726E-2,2E0,2E0,3E0,1.2192327E0,-3.8729548E0,6.705337E0,1.6666666E0,3E0,1.025E1,1.35E1,2.6E1,4E0,1.37E2,5E0,1.9896224E-1,1.4535114E-1,1.8753968E-1,1.0912378E-2,3E0,-1.6501945E-1,1.6666666E0,-1.6066757E-1,1.2862904E0,5.2241154E0,3E0,-2.2251153E-1,1.3210968E0,1.2E1,1E1,3.15E1,7.25E1,4.6215457E-1,3.3201188E-2,-1.3752647E-1,-7.771741E-2,-1.9931224E-1,1.1203225E-1,1.5085401E-2,-2.1645959E-1,-2.7846262E-1,-2.6735485E-1,-2.2936898E-1,-4.091159E-2,-1.6920866E-1,7.013149E-2,-2.5684038E-2,-1.7376877E-1,-3.4742117E-2,-1.3807277E-1,-2.7245823E-2,-1.6613553E-1,-2.4917978E-1,1.4443955E-1,-1.4727288E-1,7.50272E-2,2.0372556E-1],"split_indices":[2,5,6,4,4,5,6,0,0,6,0,6,6,2,4,1,1,5,2,5,5,5,2,6,2,0,0,0,0,2,0,5,0,4,1,2,0,4,6,6,5,5,4,0,0,0,0,0,0,0,0,0,0,0,0,0,0,0,0,0,0,0,0,0,0,0,0],"split_type":[0,0,0,0,0,0,0,0,0,0,0,0,0,0,0,0,0,0,0,0,0,0,0,0,0,0,0,0,0,0,0,0,0,0,0,0,0,0,0,0,0,0,0,0,0,0,0,0,0,0,0,0,0,0,0,0,0,0,0,0,0,0,0,0,0,0,0],"sum_hessian":[6.2332593E3,2.7821404E3,3.4511187E3,5.7902246E2,2.203118E3,1.79333E3,1.6577887E3,4.7963367E2,9.938878E1,2.157961E3,4.5156925E1,3.097048E2,1.4836252E3,1.2289263E3,4.288625E2,1.9453076E3,2.1265334E2,2.4173312E2,6.7971664E1,1.2518707E3,2.3175452E2,8.082535E2,4.2067276E2,3.517264E2,7.713608E1,5.2970093E1,1.8923375E3,2.063857E2,6.2676444E0,1.2411903E2,1.176141E2,5.6420555E1,1.1551109E1,2.9887317E2,9.529975E2,7.182226E1,1.5993225E2,6.8457574E2,1.2367775E2,2.751184E2,1.4555435E2,2.4047542E2,1.11250984E2,6.618029E1,1.0955786E1,1.1460372E2,9.515307E0,2.796448E1,2.8456074E1,2.4612277E2,5.2750378E1,7.8992053E2,1.6307698E2,4.5947273E1,2.587498E1,5.9660925E2,8.79665E1,7.449839E1,4.9179363E1,1.3363606E2,1.4148236E2,8.981496E1,5.5739395E1,2.3417368E2,6.30174E0,9.033961E0,1.0221702E2],"tree_param":{"num_deleted":"0","num_feature":"8","num_nodes":"67","size_leaf_vector":"1"}},{"base_weights":[-9.26824E-3,6.685431E-1,-5.4481375E-1,3.3891362E-1,7.567731E-1,-1.08486E0,1.4342757E-1,5.258036E-2,1.3603376E-1,7.4180865E-1,1.0149277E0,-4.684745E-1,-1.2301375E0,-1.5057011E-1,4.5375994E-1,1.832164E-1,7.3160994E-1,1.8494292E-1,6.822736E-2,-7.202178E-1,1.417359E-1,-1.3262036E0,-9.010226E-1,1.6634156E-1,-6.5769917E-1,6.5334374E-1,9.998561E-2,7.801758E-1,6.809056E-1,-7.670912E-1,6.801434E-2,2.3950717E-1,-6.6172056E-2,-1.1834873E0,-2.3659654E-1,-5.4774165E-1,-2.0625219E-1,3.194755E-1,-3.504178E-1,-5.3926563E-1,-1.9057533E-1,9.2054415E-1,5.1156646E-1,-5.7618445E-1,3.762832E-1,1.3418895E-1,-4.9415745E-2,4.108915E-2,1.22027345E-1,-9.14617E-2,-1.6866574E-1,1.3402876E-1,2.2245975E-2,-2.1404393E-1,-1.7010099E-1,-5.7085082E-2,-1.4850335E-1,1.06529556E-1,3.05681E-2,-3.0016897E-2,-1.5686023E-1,-6.948294E-2,-1.1886647E-1,1.320389E-1,1.948451E-1,1.3320288E-2,1.355526E-1,5.8410466E-2,-1.3256645E-1,1.1404494E-2,1.708834E-1],"categories":[],"categories_nodes":[],"categories_segments":[],"categories_sizes":[],"default_left":[0,0,0,0,0,0,0,0,0,0,0,0,0,0,0,0,0,0,0,0,0,0,0,0,0,0,0,0,1,1,0,0,0,0,0,0,0,0,0,0,0,0,0,0,0,0,0,0,0,0,0,0,0,0,0,0,0,0,0,0,0,0,0,0,0,0,0,0,0,0,0],"id":3,"left_children":[1,3,5,7,9,11,13,-1,-1,15,17,19,21,23,25,-1,27,-1,-1,29,31,33,35,37,39,41,43,45,47,49,-1,51,-1,53,-1,55,-1,57,59,61,-1,63,65,67,69,-1,-1,-1,-1,-1,-1,-1,-1,-1,-1,-1,-1,-1,-1,-1,-1,-1,-1,-1,-1,-1,-1,-1,-1,-1,-1],"loss_changes":[2.1854197E3,7.728223E1,1.2500334E3,7.884552E0,8.098022E0,1.6874902E2,1.3491235E2,0E0,0E0,6.7163086E0,4.899742E0,5.5215843E1,4.8216797E1,1.2203668E2,5.0792786E1,0E0,4.7337646E0,0E0,0E0,1.3346588E1,5.4367447E0,1.026709E1,3.7519073E1,3.697969E1,1.5896576E1,1.7422668E1,4.847329E1,6.894165E0,1.4289093E1,1.2504669E1,0E0,5.280919E0,0E0,4.698395E0,0E0,1.10457535E1,0E0,1.5425926E1,1.0606922E1,4.8276978E0,0E0,5.1777954E0,3.6881645E1,1.3900394E1,3.5654465E1,0E0,0E0,0E0,0E0,0E0,0E0,0E0,0E0,0E0,0E0,0E0,0E0,0E0,0E0,0E0,0E0,0E0,0E0,0E0,0E0,0E0,0E0,0E0,0E0,0E0,0E0],"parents":[2147483647,0,0,1,1,2,2,3,3,4,4,5,5,6,6,9,9,10,10,11,11,12,12,13,13,14,14,16,16,19,19,20,20,21,21,22,22,23,23,24,24,25,25,26,26,27,27,28,28,29,29,31,31,33,33,35,35,37,37,38,38,39,39,41,41,42,42,43,43,44,44],"right_children":[2,4,6,8,10,12,14,-1,-1,16,18,20,22,24,26,-1,28,-1,-1,30,32,34,36,38,40,42,44,46,48,50,-1,52,-1,54,-1,56,-1,58,60,62,-1,64,66,68,70,-1,-1,-1,-1,-1,-1,-1,-1,-1,-1,-1,-1,-1,-1,-1,-1,-1,-1,-1,-1,-1,-1,-1,-1,-1,-1],"split_conditions":[2E0,1.5E0,4E0,1.969423E0,7.7666664E1,3.6666667E0,2.5E1,5.258036E-2,1.3603376E-1,-3.8158362E0,4.0489173E0,2E0,2E0,1.3E1,3E0,1.832164E-1,9.333333E0,1.8494292E-1,6.822736E-2,1.969423E0,3E0,1.25E1,2.1E1,3E0,5.85E1,-2.4691985E0,2.2E0,4.865E0,-3.7523425E0,-1.977868E0,6.801434E-2,-8.0375266E-1,-6.6172056E-2,2.6184916E0,-2.3659654E-1,3E0,-2.0625219E-1,-1.3549305E0,4E0,3E0,-1.9057533E-1,7.5E1,2.0412414E0,-4.430587E0,9.2E1,1.3418895E-1,-4.9415745E-2,4.108915E-2,1.22027345E-1,-9.14617E-2,-1.6866574E-1,1.3402876E-1,2.2245975E-2,-2.1404393E-1,-1.7010099E-1,-5.7085082E-2,-1.4850335E-1,1.06529556E-1,3.05681E-2,-3.0016897E-2,-1.5686023E-1,-6.948294E-2,-1.1886647E-1,1.320389E-1,1.948451E-1,1.3320288E-2,1.355526E-1,5.8410466E-2,-1.3256645E-1,1.1404494E-2,1.708834E-1],"split_indices":[2,5,6,3,5,5,6,0,0,1,1,6,6,5,2,0,5,0,0,3,2,5,5,2,5,1,3,3,1,1,0,1,0,1,0,2,0,1,2,2,0,6,1,1,6,0,0,0,0,0,0,0,0,0,0,0,0,0,0,0,0,0,0,0,0,0,0,0,0,0,0],"split_type":[0,0,0,0,0,0,0,0,0,0,0,0,0,0,0,0,0,0,0,0,0,0,0,0,0,0,0,0,0,0,0,0,0,0,0,0,0,0,0,0,0,0,0,0,0,0,0,0,0,0,0,0,0,0,0,0,0,0,0,0,0,0,0,0,0,0,0,0,0,0,0],"sum_hessian":[6.020459E3,2.6572808E3,3.3631782E3,5.610784E2,2.0962024E3,1.8844758E3,1.4787024E3,5.259429E2,3.5135567E1,1.9813491E3,1.14853226E2,3.5943973E2,1.5250361E3,7.593354E2,7.1936694E2,5.8986565E1,1.9223625E3,1.0320888E2,1.164435E1,2.5446129E2,1.0497845E2,1.180467E3,3.4456912E2,4.6730826E2,2.9202713E2,4.599075E2,2.5945944E2,9.8188727E2,9.404753E2,2.4423062E2,1.0230661E1,8.862084E1,1.63576E1,3.532381E2,8.2722894E2,1.6054765E2,1.8402147E2,3.6048416E2,1.06824104E2,2.3219647E2,5.9830673E1,1.5943277E2,3.0047473E2,7.526557E1,1.8419388E2,9.759012E2,5.986056E0,6.843551E1,8.720398E2,1.1966637E2,1.24564255E2,1.4750137E1,7.3870705E1,2.5529588E2,9.794222E1,9.672829E1,6.3819366E1,1.13528496E2,2.4695567E2,8.176807E1,2.505604E1,1.2642172E2,1.0577475E2,9.604055E1,6.3392223E1,1.1872736E2,1.8174736E2,1.3514106E1,6.1751465E1,1.2323932E2,6.0954567E1],"tree_param":{"num_deleted":"0","num_feature":"8","num_nodes":"71","size_leaf_vector":"1"}},{"base_weights":[9.082774E-4,-9.5417756E-1,4.9090728E-1,-1.334948E0,-6.39001E-1,6.334205E-1,1.2769943E-1,-2.3629023E-1,-1.1434851E0,-3.3060375E-1,-1.1184409E0,4.6852168E-1,7.271646E-1,2.4524058E-1,-2.9663777E-1,-2.1583004E-1,-1.5246463E-1,-9.173676E-1,9.5543966E-2,-2.2338602E-1,-1.0083537E0,5.59253E-2,5.885697E-1,6.944494E-1,1.7240681E-1,-6.390666E-2,6.282498E-1,-4.0029246E-1,1.2631701E-1,-6.471846E-1,-2.0482793E-1,-6.6099536E-1,2.003281E-1,-3.0294877E-2,-1.0308045E0,1.096954E-1,-2.1104205E-1,1.261478E-1,5.9443575E-1,4.959458E-1,-2.4766928E-1,5.9455764E-1,1.7381532E-1,2.7686888E-1,-5.8160055E-1,-2.0204505E-1,-8.7085605E-2,-1.0203456E-2,-1.5425348E-1,-1.1665428E-2,6.324658E-2,-8.2722306E-2,-1.821663E-1,-7.883911E-2,5.1974166E-2,8.1232905E-2,1.2182872E-1,2.171754E-1,7.265877E-2,-9.119435E-2,6.797519E-2,1.08755335E-1,2.833689E-2,5.2119927E-3,1.597519E-1,-1.2654935E-1,-4.1578528E-2],"categories":[],"categories_nodes":[],"categories_segments":[],"categories_sizes":[],"default_left":[0,0,0,0,0,0,0,0,0,0,0,0,0,0,1,0,0,0,0,0,0,0,0,0,0,0,0,0,0,0,0,0,0,0,0,0,1,0,0,0,1,0,0,0,1,0,0,0,0,0,0,0,0,0,0,0,0,0,0,0,0,0,0,0,0,0,0],"id":4,"left_children":[1,3,5,7,9,11,13,-1,15,17,19,21,23,25,27,-1,-1,29,31,-1,33,-1,35,37,-1,39,41,43,-1,45,-1,47,49,-1,51,-1,53,-1,55,57,59,61,-1,63,65,-1,-1,-1,-1,-1,-1,-1,-1,-1,-1,-1,-1,-1,-1,-1,-1,-1,-1,-1,-1,-1,-1],"loss_changes":[2.6923972E3,2.3411035E2,1.968164E2,8.525269E0,1.5781024E2,4.221399E1,5.344362E1,0E0,5.6017914E0,1.6240955E2,8.796448E0,1.671054E1,1.6155823E1,9.935248E1,2.498873E1,0E0,0E0,2.0932465E1,2.982682E1,0E0,4.945526E0,0E0,2.329779E1,7.0480957E0,0E0,4.7768303E1,4.9347534E0,2.5943306E1,0E0,1.02719345E1,0E0,6.697201E0,1.5139939E1,0E0,5.2452087E0,0E0,4.419068E0,0E0,6.875046E0,6.2393055E0,6.483025E1,6.3658066E0,0E0,7.252164E0,9.029064E0,0E0,0E0,0E0,0E0,0E0,0E0,0E0,0E0,0E0,0E0,0E0,0E0,0E0,0E0,0E0,0E0,0E0,0E0,0E0,0E0,0E0,0E0],"parents":[2147483647,0,0,1,1,2,2,3,3,4,4,5,5,6,6,8,8,9,9,10,10,11,11,12,12,13,13,14,14,17,17,18,18,20,20,22,22,23,23,25,25,26,26,27,27,29,29,31,31,32,32,34,34,36,36,38,38,39,39,40,40,41,41,43,43,44,44],"right_children":[2,4,6,8,10,12,14,-1,16,18,20,22,24,26,28,-1,-1,30,32,-1,34,-1,36,38,-1,40,42,44,-1,46,-1,48,50,-1,52,-1,54,-1,56,58,60,62,-1,64,66,-1,-1,-1,-1,-1,-1,-1,-1,-1,-1,-1,-1,-1,-1,-1,-1,-1,-1,-1,-1,-1,-1],"split_conditions":[5.416667E-1,1.3225E2,8.968316E0,1.9711649E1,1.6458984E4,7.9395086E-2,2.2233375E4,-2.3629023E-1,2.25E1,4E-2,2.7777778E-2,1.5E0,6.85E1,9.0222876E2,4.8E0,-2.1583004E-1,-1.5246463E-1,1.5605555E3,3.6841345E2,-2.2338602E-1,-6.1091976E0,5.59253E-2,1.85E1,3.5406525E0,1.7240681E-1,-1.6389037E0,4.8E1,-2.2677867E0,1.2631701E-1,8E-3,-2.0482793E-1,9.090909E-2,1.15384616E-1,-3.0294877E-2,2.2233375E4,1.096954E-1,-8.042945E0,1.261478E-1,2E1,-8.042945E0,1.6499158E0,6.3E1,1.7381532E-1,8.1E1,1.0208809E0,-2.0204505E-1,-8.7085605E-2,-1.0203456E-2,-1.5425348E-1,-1.1665428E-2,6.324658E-2,-8.2722306E-2,-1.821663E-1,-7.883911E-2,5.1974166E-2,8.1232905E-2,1.2182872E-1,2.171754E-1,7.265877E-2,-9.119435E-2,6.797519E-2,1.08755335E-1,2.833689E-2,5.2119927E-3,1.597519E-1,-1.2654935E-1,-4.1578528E-2],"split_indices":[7,0,0,0,0,0,0,0,5,7,7,5,5,0,1,0,0,0,0,0,1,0,5,0,0,1,5,1,0,7,0,7,7,0,0,0,1,0,6,1,1,6,0,6,1,0,0,0,0,0,0,0,0,0,0,0,0,0,0,0,0,0,0,0,0,0,0],"split_type":[0,0,0,0,0,0,0,0,0,0,0,0,0,0,0,0,0,0,0,0,0,0,0,0,0,0,0,0,0,0,0,0,0,0,0,0,0,0,0,0,0,0,0,0,0,0,0,0,0,0,0,0,0,0,0,0,0,0,0,0,0,0,0,0,0,0,0],"sum_hessian":[5.7530947E3,1.9507578E3,3.802337E3,8.8344824E2,1.0673096E3,2.7308306E3,1.0715065E3,6.9934875E2,1.8409952E2,6.4951337E2,4.1779623E2,9.8977856E2,1.7410519E3,8.3908136E2,2.3242503E2,1.2368812E2,6.04114E1,2.7326044E2,3.7625293E2,1.5263177E2,2.6516446E2,4.5580386E2,5.3397473E2,1.5610059E3,1.8004604E2,4.643111E2,3.747703E2,2.1130803E2,2.1117012E1,1.3992151E2,1.3333891E2,4.5772976E1,3.3047998E2,6.977533E0,2.5818692E2,4.9986423E2,3.4110466E1,1.0755304E3,4.854755E2,1.14740845E2,3.4957025E2,3.4502554E2,2.9744745E1,4.4628098E1,1.6667993E2,2.8359993E1,1.1156152E2,1.3190661E1,3.2582314E1,1.2827933E2,2.0220064E2,1.6482723E1,2.417042E2,2.2938854E1,1.1171613E1,2.4443219E2,2.4104329E2,9.473201E0,1.0526765E2,2.4206346E2,1.07506775E2,3.1351086E2,3.1514685E1,3.2495922E1,1.2132174E1,1.1303087E2,5.3649055E1],"tree_param":{"num_deleted":"0","num_feature":"8","num_nodes":"67","size_leaf_vector":"1"}},{"base_weights":[-1.6783817E-3,-8.283975E-1,4.462406E-1,-1.0636524E0,-4.7153246E-1,4.8825508E-1,-6.929344E-2,-1.1402028E0,-9.179364E-1,-7.803076E-1,-2.8894982E-1,3.5725442E-1,6.444884E-1,-6.485803E-2,3.3747848E-2,-4.6537098E-2,-1.9570115E-1,-1.7320053E-1,-1.2151696E-1,-1.3795674E-1,-1.7113565E-2,-2.2717795E-1,-1.4328565E-1,4.3437228E-1,1.0934907E-1,1.03265025E-1,1.581957E-1,1.09284304E-1,-6.925428E-1,1.6110385E-2,-4.7621727E-2,3.9899413E-2,5.318867E-1,2.1845403E-1,-1.4627665E-2,4.449213E-2,-6.721859E-2,-2.4087602E-1,-4.6152625E-2,1.0631519E-1,6.574318E-2,2.7145328E-2,1.2750676E-1,-6.0863927E-2,2.9021388E-2],"categories":[],"categories_nodes":[],"categories_segments":[],"categories_sizes":[],"default_left":[0,0,0,0,0,0,0,0,0,0,0,0,0,0,0,0,0,0,0,0,0,0,0,0,0,0,0,0,0,0,0,0,0,0,0,0,0,0,0,0,0,0,0,0,0],"id":5,"left_children":[1,3,5,7,9,11,13,15,17,19,21,23,25,-1,27,-1,-1,-1,-1,-1,-1,29,-1,31,33,-1,-1,35,37,-1,-1,-1,39,41,-1,-1,43,-1,-1,-1,-1,-1,-1,-1,-1],"loss_changes":[2.0421898E3,1.627024E2,7.747583E1,1.3028564E1,4.3409225E1,6.76911E1,8.636679E0,4.7663574E0,8.0616455E0,5.5487823E0,1.6472633E1,3.4392426E1,1.667157E1,0E0,1.1107009E1,0E0,0E0,0E0,0E0,0E0,0E0,7.2803345E0,0E0,2.6820007E1,9.086288E0,0E0,0E0,4.905945E0,5.7918606E0,0E0,0E0,0E0,1.2358948E1,8.58982E0,0E0,0E0,5.8244557E0,0E0,0E0,0E0,0E0,0E0,0E0,0E0,0E0],"parents":[2147483647,0,0,1,1,2,2,3,3,4,4,5,5,6,6,7,7,8,8,9,9,10,10,11,11,12,12,14,14,21,21,23,23,24,24,27,27,28,28,32,32,33,33,36,36],"right_children":[2,4,6,8,10,12,14,16,18,20,22,24,26,-1,28,-1,-1,-1,-1,-1,-1,30,-1,32,34,-1,-1,36,38,-1,-1,-1,40,42,-1,-1,44,-1,-1,-1,-1,-1,-1,-1,-1],"split_conditions":[1E0,6.896552E-2,1.2592005E0,2.8571429E-2,2E0,1.969423E0,2.2E0,2.2872074E-1,2E0,1.969423E0,1.6396388E0,6.5236527E-1,6.85E1,-6.485803E-2,1.7224604E0,-4.6537098E-2,-1.9570115E-1,-1.7320053E-1,-1.2151696E-1,-1.3795674E-1,-1.7113565E-2,5.6666665E0,-1.4328565E-1,1.5E0,9E0,1.03265025E-1,1.581957E-1,1.7E1,1.2E1,1.6110385E-2,-4.7621727E-2,3.9899413E-2,8E0,5.6666665E0,-1.4627665E-2,4.449213E-2,5.1E1,-2.4087602E-1,-4.6152625E-2,1.0631519E-1,6.574318E-2,2.7145328E-2,1.2750676E-1,-6.0863927E-2,2.9021388E-2],"split_indices":[7,7,4,7,6,3,3,4,6,3,4,4,5,0,4,0,0,0,0,0,0,5,0,5,6,0,0,5,6,0,0,0,6,5,0,0,6,0,0,0,0,0,0,0,0],"split_type":[0,0,0,0,0,0,0,0,0,0,0,0,0,0,0,0,0,0,0,0,0,0,0,0,0,0,0,0,0,0,0,0,0,0,0,0,0,0,0,0,0,0,0,0,0],"sum_hessian":[5.5149126E3,1.9379885E3,3.576924E3,1.1680072E3,7.699813E2,3.3073823E3,2.695417E2,7.657361E2,4.0227118E2,2.861158E2,4.838655E2,1.798963E3,1.5084193E3,6.7085976E1,2.0245572E2,6.283583E0,7.594525E2,2.728031E2,1.2946806E2,2.7459796E2,1.15178585E1,4.3509802E2,4.8767475E1,1.3721252E3,4.2683777E2,1.3254988E3,1.8292052E2,1.8338329E2,1.9072426E1,6.057878E1,3.7451926E2,4.490605E2,9.230648E2,2.7375473E2,1.5308302E2,9.8660255E1,8.472304E1,7.0491896E0,1.2023236E1,5.6826636E2,3.5479846E2,2.4616422E2,2.7590528E1,3.8161224E1,4.6561813E1],"tree_param":{"num_deleted":"0","num_feature":"8","num_nodes":"45","size_leaf_vector":"1"}},{"base_weights":[1.1307737E-3,-7.28382E-1,3.895395E-1,-1.1500962E0,-4.3502784E-1,5.048957E-1,3.2595873E-2,-2.0850432E-1,-9.1218156E-1,1.18692644E-1,-7.836608E-1,3.6144707E-1,5.975603E-1,-3.3530974E-1,1.9817409E-1,-1.9853011E-1,-8.074126E-1,5.1551276E-1,-1.5898888E-1,-1.0120274E0,-5.585207E-1,4.1703273E-2,4.4875845E-1,6.139149E-1,-2.1936295E-3,1.9213125E-2,-4.4604418E-1,4.227127E-1,-2.5362834E-1,-1.0157395E-1,-1.7857489E-1,-1.05170056E-1,6.051556E-1,-7.8254724E-1,-1.8878658E-1,-7.93249E-1,-4.2740977E-1,4.7658816E-1,-4.9076684E-2,1.0185376E-1,1.710154E-1,1.7084493E-1,-2.0695385E-1,-9.299747E-2,4.18425E-1,5.123416E-1,-3.0787697E-1,-4.49283E-1,1.1075639E-2,5.349981E-2,-1.6850425E-1,-1.0906612E-1,1.11718275E-1,-1.1539767E-1,-2.0939082E-1,-1.5138349E-1,-6.50871E-2,-5.6889232E-2,-1.4681937E-1,9.0303205E-2,4.10793E-2,-1.1455136E-1,4.6503134E-2,1.6320008E-1,-1.3627436E-2,-2.5524907E-2,9.13164E-2,5.762122E-4,-1.9158179E-1,-1.0480001E-1,-2.6097747E-2],"categories":[],"categories_nodes":[],"categories_segments":[],"categories_sizes":[],"default_left":[0,0,0,0,0,0,0,0,0,0,0,0,0,0,0,0,0,0,0,0,0,0,0,0,0,0,0,0,0,0,0,0,0,0,0,0,0,0,0,0,0,0,0,0,0,0,0,0,0,0,0,0,0,0,0,0,0,0,0,0,0,0,0,0,0,0,0,0,0,0,0],"id":6,"left_children":[1,3,5,7,9,11,13,-1,15,17,19,21,23,25,27,-1,29,31,-1,33,35,-1,37,39,-1,41,43,45,47,-1,-1,49,51,53,-1,55,57,59,-1,-1,-1,61,-1,-1,63,65,67,69,-1,-1,-1,-1,-1,-1,-1,-1,-1,-1,-1,-1,-1,-1,-1,-1,-1,-1,-1,-1,-1,-1,-1],"loss_changes":[1.4927426E3,2.2643896E2,1.4155493E2,1.2924805E1,2.0838692E2,3.4536377E1,5.115019E1,0E0,4.6188965E0,1.7391205E2,3.4057312E1,1.0411407E1,1.5758484E1,1.0230957E1,5.874386E1,0E0,6.2763443E0,1.6844467E1,0E0,7.1549377E0,1.026545E1,0E0,1.1965797E1,1.0012817E1,0E0,1.1592565E1,1.7028133E1,2.5329529E1,1.1982155E1,0E0,0E0,1.4125814E1,1.6409103E1,4.5352325E0,0E0,4.6404266E0,8.706802E0,7.0090027E0,0E0,0E0,0E0,4.736729E0,0E0,0E0,5.4841633E0,5.254837E0,1.0727173E1,5.827341E0,0E0,0E0,0E0,0E0,0E0,0E0,0E0,0E0,0E0,0E0,0E0,0E0,0E0,0E0,0E0,0E0,0E0,0E0,0E0,0E0,0E0,0E0,0E0],"parents":[2147483647,0,0,1,1,2,2,3,3,4,4,5,5,6,6,8,8,9,9,10,10,11,11,12,12,13,13,14,14,16,16,17,17,19,19,20,20,22,22,23,23,25,25,26,26,27,27,28,28,31,31,32,32,33,33,35,35,36,36,37,37,41,41,44,44,45,45,46,46,47,47],"right_children":[2,4,6,8,10,12,14,-1,16,18,20,22,24,26,28,-1,30,32,-1,34,36,-1,38,40,-1,42,44,46,48,-1,-1,50,52,54,-1,56,58,60,-1,-1,-1,62,-1,-1,64,66,68,70,-1,-1,-1,-1,-1,-1,-1,-1,-1,-1,-1,-1,-1,-1,-1,-1,-1,-1,-1,-1,-1,-1,-1],"split_conditions":[1E0,1.3225E2,1.3596254E1,1.9711649E1,3E0,3.243459E-1,3.6841345E2,-2.0850432E-1,5.5E0,2.2233375E4,4.109589E-2,1.5E0,1.3094578E0,1.9711649E1,2.2233375E4,-1.9853011E-1,3E0,3.6841345E2,-1.5898888E-1,1.8273175E3,8E0,4.1703273E-2,2.4691358E0,1.08E2,-2.1936295E-3,2.95E1,3.94E1,1.4584119E0,1.5666667E1,-1.0157395E-1,-1.7857489E-1,2.631579E-1,1.5151516E-2,1.2592005E0,-1.8878658E-1,4.0625E-1,1.6396388E0,1.3333333E1,-4.9076684E-2,1.0185376E-1,1.710154E-1,1.5E0,-2.0695385E-1,-9.299747E-2,9.5027053E-1,4.195559E-1,4E0,3E0,1.1075639E-2,5.349981E-2,-1.6850425E-1,-1.0906612E-1,1.11718275E-1,-1.1539767E-1,-2.0939082E-1,-1.5138349E-1,-6.50871E-2,-5.6889232E-2,-1.4681937E-1,9.0303205E-2,4.10793E-2,-1.1455136E-1,4.6503134E-2,1.6320008E-1,-1.3627436E-2,-2.5524907E-2,9.13164E-2,5.762122E-4,-1.9158179E-1,-1.0480001E-1,-2.6097747E-2],"split_indices":[7,0,0,0,2,4,0,0,5,0,7,5,4,0,0,0,2,0,0,0,5,0,0,5,0,5,5,4,5,0,0,7,7,4,0,7,4,5,0,0,0,5,0,0,4,4,2,2,0,0,0,0,0,0,0,0,0,0,0,0,0,0,0,0,0,0,0,0,0,0,0],"split_type":[0,0,0,0,0,0,0,0,0,0,0,0,0,0,0,0,0,0,0,0,0,0,0,0,0,0,0,0,0,0,0,0,0,0,0,0,0,0,0,0,0,0,0,0,0,0,0,0,0,0,0,0,0,0,0,0,0,0,0,0,0,0,0,0,0,0,0,0,0,0,0],"sum_hessian":[5.2682085E3,1.8303774E3,3.4378313E3,7.509056E2,1.0794718E3,2.5981633E3,8.39668E2,5.7580927E2,1.7509637E2,4.170644E2,6.624074E2,1.0196705E3,1.5784928E3,2.6060907E2,5.7905896E2,5.1450096E1,1.2364627E2,3.0274158E2,1.1432282E2,3.2884744E2,3.3356E2,4.3586957E2,5.8380096E2,1.5373047E3,4.1188072E1,6.202675E1,1.9858234E2,3.8681702E2,1.9224193E2,6.561149E1,5.803478E1,3.820586E1,2.645357E2,9.614399E1,2.3270345E2,1.1954255E2,2.1401746E2,5.625441E2,2.1256817E1,1.4737825E3,6.352226E1,5.5232037E1,6.794714E0,1.7814175E2,2.0440575E1,3.4454782E2,4.2269207E1,1.19095924E2,7.3146E1,2.5911715E1,1.2294145E1,1.0185278E1,2.5435045E2,7.7653915E1,1.8490068E1,9.726201E1,2.2280542E1,1.7591338E2,3.8104073E1,4.595229E2,1.03021225E2,5.9545383E0,4.9277496E1,9.825151E0,1.0615423E1,1.1587689E1,3.3296014E2,3.05912E1,1.1678008E1,7.646979E1,4.2626144E1],"tree_param":{"num_deleted":"0","num_feature":"8","num_nodes":"71","size_leaf_vector":"1"}},{"base_weights":[2.4347885E-3,-6.6141623E-1,3.2833725E-1,-9.113953E-1,-3.6297885E-1,3.710192E-1,8.614139E-2,-1.0305215E0,-7.979203E-1,-5.696819E-1,-2.2999E-1,2.6766434E-1,5.11558E-1,-1.0773406E-1,2.2954209E-1,-3.1409185E-2,-1.7820711E-1,-1.5093222E-1,-1.0061945E-1,-1.0274713E-1,3.881235E-2,-1.5568724E-1,-5.16446E-1,2.1320388E-2,3.3841786E-1,4.760774E-1,1.4862809E-1,-1.454993E-1,1.1808317E-1,6.252686E-2,-5.8507748E-2,-2.254743E-1,2.173258E-2,-1.2995787E-1,-5.563946E-2,7.803497E-2,1.2548815E-1,4.0961558E-1,9.187824E-2,-1.0873439E-2,-8.980068E-2,5.924008E-3,-1.1819483E-1,-3.504083E-2,-1.800805E-1,3.8809627E-2,-8.09009E-3,1.0696766E-1,6.3255645E-2],"categories":[],"categories_nodes":[],"categories_segments":[],"categories_sizes":[],"default_left":[0,0,0,0,0,0,0,0,0,0,0,0,0,0,0,0,0,0,0,0,0,0,0,0,0,0,0,0,0,0,0,0,0,0,0,0,0,0,0,0,0,0,0,0,0,0,0,0,0],"id":7,"left_children":[1,3,5,7,9,11,13,15,17,19,21,23,25,27,29,-1,-1,-1,-1,-1,-1,31,33,-1,35,37,-1,39,-1,-1,41,43,-1,-1,-1,-1,45,47,-1,-1,-1,-1,-1,-1,-1,-1,-1,-1,-1],"loss_changes":[1.0903013E3,1.2379584E2,3.494159E1,1.2206665E1,2.0792366E1,4.1741425E1,1.4079646E1,5.3287354E0,8.367126E0,7.7235565E0,9.796404E0,1.6714752E1,1.5547668E1,6.5056424E0,1.1491947E1,0E0,0E0,0E0,0E0,0E0,0E0,7.220462E0,4.4270306E0,0E0,2.8070427E1,4.611618E0,0E0,6.404046E0,0E0,0E0,5.5519004E0,4.8768606E0,0E0,0E0,0E0,0E0,7.006442E0,4.5322495E0,0E0,0E0,0E0,0E0,0E0,0E0,0E0,0E0,0E0,0E0,0E0],"parents":[2147483647,0,0,1,1,2,2,3,3,4,4,5,5,6,6,7,7,8,8,9,9,10,10,11,11,12,12,13,13,14,14,21,21,22,22,24,24,25,25,27,27,30,30,31,31,36,36,37,37],"right_children":[2,4,6,8,10,12,14,16,18,20,22,24,26,28,30,-1,-1,-1,-1,-1,-1,32,34,-1,36,38,-1,40,-1,-1,42,44,-1,-1,-1,-1,46,48,-1,-1,-1,-1,-1,-1,-1,-1,-1,-1,-1],"split_conditions":[7.45283E-1,5.882353E-2,1.0986123E0,1.8181818E-2,2E0,1.969423E0,2.895E0,3.046361E-1,2E0,1.969423E0,1.4402348E0,1.5E0,1.14E2,4.5333332E1,1.3961879E0,-3.1409185E-2,-1.7820711E-1,-1.5093222E-1,-1.0061945E-1,-1.0274713E-1,3.881235E-2,2.88E0,2.857143E-1,2.1320388E-2,1E1,2.4E1,1.4862809E-1,3.2E1,1.1808317E-1,6.252686E-2,1.7861086E0,4E1,2.173258E-2,-1.2995787E-1,-5.563946E-2,7.803497E-2,5.8928007E-1,3.5E0,9.187824E-2,-1.0873439E-2,-8.980068E-2,5.924008E-3,-1.1819483E-1,-3.504083E-2,-1.800805E-1,3.8809627E-2,-8.09009E-3,1.0696766E-1,6.3255645E-2],"split_indices":[7,7,4,7,6,3,3,4,6,3,4,5,6,5,4,0,0,0,0,0,0,3,7,0,6,6,0,6,0,0,4,6,0,0,0,0,4,5,0,0,0,0,0,0,0,0,0,0,0],"split_type":[0,0,0,0,0,0,0,0,0,0,0,0,0,0,0,0,0,0,0,0,0,0,0,0,0,0,0,0,0,0,0,0,0,0,0,0,0,0,0,0,0,0,0,0,0,0,0,0,0],"sum_hessian":[5.03951E3,1.6593916E3,3.380118E3,9.03008E2,7.5638354E2,2.8736902E3,5.0642786E2,4.405344E2,4.6247363E2,2.9612296E2,4.602606E2,1.6559061E3,1.217784E3,2.1531943E2,2.9110843E2,7.3151894E0,4.332192E2,3.2610104E2,1.3637257E2,2.8445007E2,1.1672855E1,3.654642E2,9.479641E1,5.489745E2,1.1069316E3,1.108485E3,1.09299034E2,2.0561368E2,9.705757E0,1.9725772E2,9.3850716E1,2.9319058E2,7.2273605E1,4.138815E1,5.3408264E1,7.0988385E2,3.9704776E2,5.376445E2,5.708406E2,1.6928954E2,3.6324135E1,8.182565E1,1.2025059E1,2.8628354E2,6.9070625E0,2.4969122E2,1.4735652E2,8.1299355E1,4.563451E2],"tree_param":{"num_deleted":"0","num_feature":"8","num_nodes":"49","size_leaf_vector":"1"}},{"base_weights":[1.1592691E-2,-7.033875E-1,2.5385097E-1,-1.8782607E-1,-4.4160715E-1,3.068485E-1,-3.3393613E-1,-1.6447027E-1,-8.2580703E-1,3.808112E-1,1.3127117E-1,-5.4310757E-1,2.2174345E-2,-4.7643197E-1,1.120945E-1,-1.6863038E-1,-1.1966127E-1,2.1648169E-1,4.8019457E-1,-2.0093367E-1,4.2867932E-1,-4.4097364E-1,-1.7483068E-1,-6.2822156E-2,1.4422303E-1,-3.7130374E-1,-1.709079E-1,-1.0414505E-1,2.8704852E-1,2.3748045E-1,-3.103704E-2,4.6396387E-1,1.6602609E-1,1.7577483E-1,-4.0020758E-1,5.126421E-1,-1.2173123E-2,-8.238149E-2,9.166961E-2,-7.640649E-3,9.2913E-2,-1.5217085E-1,-4.1585878E-2,7.038249E-2,-1.1605506E-1,2.703766E-2,5.549296E-2,8.910717E-2,6.7362025E-2,-2.1041995E-1,4.2328842E-2,-1.0209182E-1,-1.3767166E-2,-3.5964515E-2,9.0522744E-2,-3.0166328E-2,6.346146E-2],"categories":[],"categories_nodes":[],"categories_segments":[],"categories_sizes":[],"default_left":[0,0,0,0,0,0,0,0,0,0,0,0,0,0,0,0,0,0,0,0,0,0,0,0,0,0,0,0,0,0,0,0,0,0,0,0,0,0,0,0,0,0,0,0,0,0,0,0,0,0,0,0,0,0,0,0,0],"id":8,"left_children":[1,3,5,-1,7,9,11,13,15,17,19,21,23,25,27,-1,-1,29,31,33,35,37,-1,-1,39,41,-1,-1,43,45,-1,47,-1,49,51,53,55,-1,-1,-1,-1,-1,-1,-1,-1,-1,-1,-1,-1,-1,-1,-1,-1,-1,-1,-1,-1],"loss_changes":[8.356442E2,1.2715454E2,1.1225311E2,0E0,7.840883E1,4.292514E1,2.2200027E1,3.6910168E1,6.2440796E0,3.798291E1,9.6797035E1,9.241066E0,5.2559667E0,1.110817E1,2.8672003E1,0E0,0E0,7.3334465E0,1.1601257E1,3.4740673E1,1.9134415E1,6.3695755E0,0E0,0E0,6.360878E0,1.1124632E1,0E0,0E0,2.2184568E1,5.776821E0,0E0,5.6621704E0,0E0,1.6337477E1,1.9180782E1,5.68174E0,5.233434E0,0E0,0E0,0E0,0E0,0E0,0E0,0E0,0E0,0E0,0E0,0E0,0E0,0E0,0E0,0E0,0E0,0E0,0E0,0E0,0E0],"parents":[2147483647,0,0,1,1,2,2,4,4,5,5,6,6,7,7,8,8,9,9,10,10,11,11,12,12,13,13,14,14,17,17,18,18,19,19,20,20,21,21,24,24,25,25,28,28,29,29,31,31,33,33,34,34,35,35,36,36],"right_children":[2,4,6,-1,8,10,12,14,16,18,20,22,24,26,28,-1,-1,30,32,34,36,38,-1,-1,40,42,-1,-1,44,46,-1,48,-1,50,52,54,56,-1,-1,-1,-1,-1,-1,-1,-1,-1,-1,-1,-1,-1,-1,-1,-1,-1,-1,-1,-1],"split_conditions":[2.027027E-1,3.6E1,2.2233375E4,-1.8782607E-1,8.0257393E3,9.1875E0,2.85E0,4.109589E-2,2.8985508E-2,1.4804225E-1,5.806875E2,2.6123156E7,8.75E-1,3.11424E3,2.0795918E2,-1.6863038E-1,-1.1966127E-1,1.4E1,1.56E2,1.9711649E1,1.4584119E0,1.18E2,-1.7483068E-1,-6.2822156E-2,2.0227142E6,8E-3,-1.709079E-1,-1.0414505E-1,1.3961879E0,2E0,-3.103704E-2,2.3015459E0,1.6602609E-1,3.4146342E-1,2.48E0,4.195559E-1,8.534707E3,-8.238149E-2,9.166961E-2,-7.640649E-3,9.2913E-2,-1.5217085E-1,-4.1585878E-2,7.038249E-2,-1.1605506E-1,2.703766E-2,5.549296E-2,8.910717E-2,6.7362025E-2,-2.1041995E-1,4.2328842E-2,-1.0209182E-1,-1.3767166E-2,-3.5964515E-2,9.0522744E-2,-3.0166328E-2,6.346146E-2],"split_indices":[7,0,0,0,0,0,3,7,7,4,0,0,7,0,0,0,0,6,6,0,4,6,0,0,0,7,0,0,4,6,0,0,0,7,3,4,0,0,0,0,0,0,0,0,0,0,0,0,0,0,0,0,0,0,0,0,0],"split_type":[0,0,0,0,0,0,0,0,0,0,0,0,0,0,0,0,0,0,0,0,0,0,0,0,0,0,0,0,0,0,0,0,0,0,0,0,0,0,0,0,0,0,0,0,0,0,0,0,0,0,0,0,0,0,0,0,0],"sum_hessian":[4.8244614E3,1.2209766E3,3.6034849E3,4.8457715E2,7.3639935E2,3.3054504E3,2.9803436E2,4.278071E2,3.0859225E2,2.3257278E3,9.797228E2,1.8775261E2,1.1028176E2,2.0103831E2,2.2676877E2,1.3354323E2,1.7504903E2,8.7647833E2,1.4492494E3,4.6278833E2,5.1693445E2,1.5491959E2,3.283301E1,2.626066E1,8.4021095E1,1.6752902E2,3.350929E1,4.419814E1,1.8257063E2,8.325993E2,4.3879025E1,1.4030758E3,4.6173573E1,1.6011191E2,3.0267642E2,4.342325E2,8.270196E1,1.4854001E2,6.3795924E0,5.708197E1,2.6939127E1,3.294231E1,1.3458672E2,1.615925E2,2.0978128E1,4.3853082E2,3.9406848E2,7.596584E2,6.4341736E2,7.822272E0,1.5228963E2,1.8674237E2,1.1593405E2,1.0589681E1,4.2364282E2,5.7889866E1,2.4812088E1],"tree_param":{"num_deleted":"0","num_feature":"8","num_nodes":"57","size_leaf_vector":"1"}},{"base_weights":[-2.5534744E-3,-6.3329303E-1,2.0291263E-1,-7.701283E-1,-3.7655357E-1,2.6159942E-1,-4.102051E-2,-6.3705814E-1,-1.5305056E-1,-1.4734744E-1,-3.0202037E-1,1.7371887E-1,3.9672482E-1,-2.4977018E-1,7.681922E-2,-1.12293154E-1,-3.2138918E-3,-4.5557722E-2,-1.2639436E-1,2.3382391E-1,-4.629083E-3,3.1540096E-1,5.5998105E-1,-3.1820994E-2,-9.9700205E-2,1.1388209E-1,-1.7694883E-1,2.4296129E-1,-1.2510625E-1,7.88936E-2,2.7175322E-1,8.349376E-2,1.312731E-1,2.667121E-1,1.1469213E-2,1.9618265E-2,5.3604867E-2,1.0045496E-1,4.127095E-2,2.965008E-3,7.526041E-2,-5.978357E-2,1.074651E-2],"categories":[],"categories_nodes":[],"categories_segments":[],"categories_sizes":[],"default_left":[0,0,0,0,0,0,0,0,0,0,0,0,0,0,0,0,0,0,0,0,0,0,0,0,0,0,0,0,0,0,0,0,0,0,0,0,0,0,0,0,0,0,0],"id":9,"left_children":[1,3,5,7,9,11,13,15,-1,-1,17,19,21,23,25,-1,-1,-1,-1,27,-1,29,31,-1,-1,33,-1,35,-1,-1,37,-1,-1,39,41,-1,-1,-1,-1,-1,-1,-1,-1],"loss_changes":[6.00366E2,3.998929E1,5.00235E1,1.2567993E1,1.4374683E1,3.3447662E1,1.6669527E1,4.78006E0,0E0,0E0,5.262182E0,2.0604328E1,1.4736725E1,5.173622E0,1.7887642E1,0E0,0E0,0E0,0E0,1.1610603E1,0E0,4.758499E0,5.4525223E0,0E0,0E0,6.56118E0,0E0,1.1874138E1,0E0,0E0,5.3986664E0,0E0,0E0,7.3193045E0,4.682404E0,0E0,0E0,0E0,0E0,0E0,0E0,0E0,0E0],"parents":[2147483647,0,0,1,1,2,2,3,3,4,4,5,5,6,6,7,7,10,10,11,11,12,12,13,13,14,14,19,19,21,21,22,22,25,25,27,27,30,30,33,33,34,34],"right_children":[2,4,6,8,10,12,14,16,-1,-1,18,20,22,24,26,-1,-1,-1,-1,28,-1,30,32,-1,-1,34,-1,36,-1,-1,38,-1,-1,40,42,-1,-1,-1,-1,-1,-1,-1,-1],"split_conditions":[2.027027E-1,2E0,1.0986123E0,1.65E1,1.2048192E-2,1.969423E0,2.32E0,1.969423E0,-1.5305056E-1,-1.4734744E-1,1.4873841E0,6.87092E-1,4.4E1,1.5553697E0,1.8977357E0,-1.12293154E-1,-3.2138918E-3,-4.5557722E-2,-1.2639436E-1,1.18E2,-4.629083E-3,5.6233513E-1,1.14E2,-3.1820994E-2,-9.9700205E-2,1.2700181E0,-1.7694883E-1,2E0,-1.2510625E-1,7.88936E-2,3E0,8.349376E-2,1.312731E-1,1.153742E0,4.0625E-1,1.9618265E-2,5.3604867E-2,1.0045496E-1,4.127095E-2,2.965008E-3,7.526041E-2,-5.978357E-2,1.074651E-2],"split_indices":[7,6,4,5,7,3,3,3,0,0,4,4,6,4,4,0,0,0,0,6,0,4,6,0,0,4,0,6,0,0,5,0,0,4,7,0,0,0,0,0,0,0,0],"split_type":[0,0,0,0,0,0,0,0,0,0,0,0,0,0,0,0,0,0,0,0,0,0,0,0,0,0,0,0,0,0,0,0,0,0,0,0,0,0,0,0,0,0,0],"sum_hessian":[4.6326113E3,1.13829E3,3.4943213E3,7.425375E2,3.957526E2,2.816671E3,6.776505E2,3.6288638E2,3.796511E2,5.249785E1,3.4325476E2,1.7066978E3,1.1099733E3,2.4450932E2,4.3314117E2,3.5079605E2,1.2090335E1,3.1796405E2,2.5290695E1,1.313612E3,3.930857E2,7.4090265E2,3.6907056E2,2.0567586E2,3.8833458E1,4.1919763E2,1.3943543E1,1.3013196E3,1.229248E1,1.6949608E2,5.7140656E2,2.762329E2,9.283765E1,1.6819757E2,2.5100005E2,4.6576926E2,8.355503E2,4.904869E1,5.2235785E2,6.92586E1,9.893898E1,3.1282549E1,2.197175E2],"tree_param":{"num_deleted":"0","num_feature":"8","num_nodes":"43","size_leaf_vector":"1"}},{"base_weights":[4.1067274E-3,2.7740872E-1,-2.2132005E-1,1.7938983E-1,3.5438758E-1,-5.912492E-1,-2.3982491E-2,3.4194857E-2,-6.018182E-2,4.4329515E-1,2.0239185E-1,-1.0094904E0,-2.943832E-1,7.115936E-2,-3.7171695E-1,8.815158E-2,3.5871404E-1,3.8361408E-2,-1.15075834E-1,-7.62021E-2,-1.7716734E-1,1.8034236E-1,-7.563264E-1,-1.05278134E-1,2.9600963E-1,-4.0589675E-1,9.3571E-2,5.7912838E-2,1.9194637E-1,4.5171443E-1,-1.1004127E-1,-1.1161404E-1,-1.6402577E-1,-3.863246E-1,1.4915049E-1,3.9296263E-1,-3.8928324E-1,-3.5206574E-1,-1.6559035E-1,-3.724291E-2,1.2138674E-1,1.2195775E-2,-9.1138184E-2,7.143368E-2,-4.2378508E-2,8.6046286E-2,2.819951E-2,-9.6707255E-2,3.1844333E-2,-6.772668E-2,2.7404822E-2],"categories":[],"categories_nodes":[],"categories_segments":[],"categories_sizes":[],"default_left":[0,0,0,0,0,0,0,0,0,0,0,0,0,0,0,0,0,0,0,0,0,0,0,0,0,0,0,0,0,0,0,0,0,0,0,0,0,0,0,0,0,0,0,0,0,0,0,0,0,0,0],"id":10,"left_children":[1,3,5,7,9,11,13,-1,-1,15,17,19,21,23,25,-1,27,-1,-1,-1,-1,29,31,33,35,37,-1,-1,-1,39,-1,-1,-1,41,43,45,47,49,-1,-1,-1,-1,-1,-1,-1,-1,-1,-1,-1,-1,-1],"loss_changes":[2.7377655E2,1.5155502E1,1.7776843E2,9.918352E0,1.5203247E1,1.05180664E2,5.2538414E1,0E0,0E0,4.414627E0,8.20019E0,5.7838135E0,1.0865146E2,4.9466053E1,1.0731316E1,0E0,4.853031E0,0E0,0E0,0E0,0E0,5.473835E1,5.256485E0,4.995794E1,3.642464E1,1.0003422E1,0E0,0E0,0E0,3.2033356E1,0E0,0E0,0E0,2.2494812E1,3.931641E1,1.2191963E1,6.954747E0,6.9308624E0,0E0,0E0,0E0,0E0,0E0,0E0,0E0,0E0,0E0,0E0,0E0,0E0,0E0],"parents":[2147483647,0,0,1,1,2,2,3,3,4,4,5,5,6,6,9,9,10,10,11,11,12,12,13,13,14,14,16,16,21,21,22,22,23,23,24,24,25,25,29,29,33,33,34,34,35,35,36,36,37,37],"right_children":[2,4,6,8,10,12,14,-1,-1,16,18,20,22,24,26,-1,28,-1,-1,-1,-1,30,32,34,36,38,-1,-1,-1,40,-1,-1,-1,42,44,46,48,50,-1,-1,-1,-1,-1,-1,-1,-1,-1,-1,-1,-1,-1],"split_conditions":[2E0,1.388889E-1,2E0,2.0333334E1,2.8853383E0,4.1208084E1,2.2233375E4,3.4194857E-2,-6.018182E-2,2.94E0,1.6E1,1.5E0,3E0,5.806875E2,1.44E2,8.815158E-2,1.44E2,3.8361408E-2,-1.15075834E-1,-7.62021E-2,-1.7716734E-1,1.7853982E4,4E0,1.7E1,4E0,5.2333332E1,9.3571E-2,5.7912838E-2,1.9194637E-1,3.6841345E2,-1.1004127E-1,-1.1161404E-1,-1.6402577E-1,5E0,1.2320153E1,3E0,5.1E1,5.9E1,-1.6559035E-1,-3.724291E-2,1.2138674E-1,1.2195775E-2,-9.1138184E-2,7.143368E-2,-4.2378508E-2,8.6046286E-2,2.819951E-2,-9.6707255E-2,3.1844333E-2,-6.772668E-2,2.7404822E-2],"split_indices":[2,0,6,5,0,0,0,0,0,3,0,5,2,0,6,0,6,0,0,0,0,0,2,6,2,5,0,0,0,0,0,0,0,5,0,2,6,6,0,0,0,0,0,0,0,0,0,0,0,0,0],"split_type":[0,0,0,0,0,0,0,0,0,0,0,0,0,0,0,0,0,0,0,0,0,0,0,0,0,0,0,0,0,0,0,0,0,0,0,0,0,0,0,0,0,0,0,0,0,0,0,0,0,0,0],"sum_hessian":[4.443733E3,2.0085796E3,2.4351536E3,8.835438E2,1.1250358E3,8.4712744E2,1.588026E3,8.498646E2,3.3679173E1,7.09831E2,4.1520474E2,3.5167227E2,4.9545514E2,1.246875E3,3.411511E2,3.7972214E2,3.3010886E2,4.0481168E2,1.0393086E1,1.7363287E1,3.34309E2,2.4434691E2,2.5110823E2,6.986512E2,5.4822375E2,3.2893472E2,1.2216375E1,3.2205344E2,8.055419E0,1.8389444E2,6.045247E1,1.6780244E2,8.330579E1,3.3196103E2,3.6669016E2,4.802759E2,6.794787E1,3.0031876E2,2.8615973E1,5.1402794E1,1.3249165E2,8.110056E1,2.5086046E2,2.1850253E2,1.4818762E2,3.2235175E2,1.5792413E2,5.1927223E1,1.6020645E1,2.7608316E2,2.42356E1],"tree_param":{"num_deleted":"0","num_feature":"8","num_nodes":"51","size_leaf_vector":"1"}},{"base_weights":[-1.4742961E-3,-5.65029E-1,1.3335638E-1,-1.7017066E-1,-2.9647234E-1,1.8197107E-1,-3.4080195E-1,-2.5840914E-2,-7.012557E-1,2.4868761E-1,4.9047746E-2,-4.1039222E-1,4.968139E-2,5.872734E-2,-1.5359993E-1,-1.3923839E-1,-6.539508E-2,2.2017436E-1,5.247825E-1,-2.4833223E-1,3.287336E-1,9.720429E-2,-8.340357E-2,-5.9413725E-1,1.8885481E-1,2.60423E-2,2.7997223E-1,5.611048E-1,-8.5371055E-2,-6.467274E-1,-1.03982285E-1,4.0562883E-1,-6.783102E-2,1.3166587E-1,-3.0615741E-2,-5.3992786E-2,-1.7599268E-1,-5.7259765E-2,4.3824002E-2,6.567256E-2,3.7380166E-2,1.15638025E-1,4.093135E-2,-1.3457347E-1,-4.868752E-2,5.6673206E-2,-4.00626E-2,1.0383594E-1,5.9770893E-2,-1.8535458E-1,3.6860164E-3],"categories":[],"categories_nodes":[],"categories_segments":[],"categories_sizes":[],"default_left":[0,0,0,0,0,0,1,0,0,0,0,0,0,0,0,0,0,0,0,0,0,0,0,0,0,0,0,0,0,0,0,0,0,0,0,0,0,0,0,0,0,0,0,0,0,0,0,0,0,0,0],"id":11,"left_children":[1,3,5,-1,7,9,11,13,15,17,19,21,-1,23,-1,-1,-1,25,27,29,31,33,-1,35,37,-1,39,41,-1,43,45,47,49,-1,-1,-1,-1,-1,-1,-1,-1,-1,-1,-1,-1,-1,-1,-1,-1,-1,-1],"loss_changes":[3.2896472E2,9.711978E1,8.0529755E1,0E0,5.6495792E1,2.8100243E1,1.4290264E1,2.2863092E1,7.559128E0,1.6608658E1,8.807325E1,1.1675537E1,0E0,2.3942999E1,0E0,0E0,0E0,7.7174835E0,7.354637E0,2.951465E1,1.664032E1,7.326008E0,0E0,5.690611E0,8.392284E0,0E0,6.4781876E0,7.1581535E0,0E0,7.0156326E0,2.1513298E1,5.1252823E0,8.076649E0,0E0,0E0,0E0,0E0,0E0,0E0,0E0,0E0,0E0,0E0,0E0,0E0,0E0,0E0,0E0,0E0,0E0,0E0],"parents":[2147483647,0,0,1,1,2,2,4,4,5,5,6,6,7,7,8,8,9,9,10,10,11,11,13,13,17,17,18,18,19,19,20,20,21,21,23,23,24,24,26,26,27,27,29,29,30,30,31,31,32,32],"right_children":[2,4,6,-1,8,10,12,14,16,18,20,22,-1,24,-1,-1,-1,26,28,30,32,34,-1,36,38,-1,40,42,-1,44,46,48,50,-1,-1,-1,-1,-1,-1,-1,-1,-1,-1,-1,-1,-1,-1,-1,-1,-1,-1],"split_conditions":[1.15384616E-1,2.8850586E1,2.2233375E4,-1.7017066E-1,6.193446E3,9.1875E0,3.6197984E0,1.3961879E0,5.882353E-2,6E1,5.806875E2,-2.9971213E0,4.968139E-2,1.0869565E-2,-1.5359993E-1,-1.3923839E-1,-6.539508E-2,3.25083E-1,7.4186053E0,8.333333E-1,1.4584119E0,1.4343445E5,-8.340357E-2,9.0222876E2,8.627686E1,2.60423E-2,1.3297721E0,4.3085938E0,-8.5371055E-2,1.8186607E2,-1.6389037E0,3.3333334E-1,-1.6723658E0,1.3166587E-1,-3.0615741E-2,-5.3992786E-2,-1.7599268E-1,-5.7259765E-2,4.3824002E-2,6.567256E-2,3.7380166E-2,1.15638025E-1,4.093135E-2,-1.3457347E-1,-4.868752E-2,5.6673206E-2,-4.00626E-2,1.0383594E-1,5.9770893E-2,-1.8535458E-1,3.6860164E-3],"split_indices":[7,0,0,0,0,0,1,4,7,6,0,1,0,7,0,0,0,4,1,7,4,0,0,0,0,0,0,0,0,0,1,7,1,0,0,0,0,0,0,0,0,0,0,0,0,0,0,0,0,0,0],"split_type":[0,0,0,0,0,0,0,0,0,0,0,0,0,0,0,0,0,0,0,0,0,0,0,0,0,0,0,0,0,0,0,0,0,0,0,0,0,0,0,0,0,0,0,0,0,0,0,0,0,0,0],"sum_hessian":[4.3293677E3,8.358301E2,3.4935376E3,3.2010864E2,5.157215E2,3.16866E3,3.248776E2,3.0907742E2,2.0664406E2,2.1097432E3,1.0589169E3,2.9265686E2,3.2220734E1,2.818295E2,2.7247927E1,1.517121E2,5.493196E1,1.9122577E3,1.9748535E2,5.1322406E2,5.456928E2,3.923901E1,2.5341786E2,4.683797E1,2.3499152E2,8.983452E2,1.01391254E3,1.9072864E2,6.7567134E0,1.3649844E2,3.767256E2,4.570661E2,8.86267E1,1.1411613E1,2.7827394E1,2.8661205E1,1.8176765E1,2.6995214E1,2.079963E2,3.717333E2,6.421792E2,1.3983655E2,5.0892082E1,9.793362E1,3.8564823E1,8.6949745E1,2.8977585E2,9.765355E1,3.5941254E2,7.1521487E0,8.147455E1],"tree_param":{"num_deleted":"0","num_feature":"8","num_nodes":"51","size_leaf_vector":"1"}},{"base_weights":[1.6372472E-3,-5.0264186E-1,1.3257761E-1,-1.6627248E-1,-2.656259E-1,2.1613641E-1,4.3505398E-3,2.1639138E-1,-5.420888E-1,1.9077632E-1,4.98404E-1,-1.913032E-1,1.1786153E-1,4.8422924E-1,-8.9985125E-2,-1.4362793E-1,-4.8465917E-1,2.4715634E-2,2.5109857E-1,1.163044E-1,2.5804415E-1,-1.10262364E-1,-8.697955E-2,2.6444224E-1,-1.4084525E-1,-1.2882526E-1,6.445271E-1,-3.430892E-1,-1.076697E-1,7.56616E-2,3.1982813E-2,-1.6505772E-2,8.071062E-2,1.1145038E-1,-2.6595002E-1,3.9382997E-1,8.791127E-3,-6.1880656E-2,-1.8520026E-2,1.00941844E-1,-7.448013E-2,1.2279596E-1,2.4953736E-2,-7.153668E-2,3.5205428E-2,-2.1237047E-2,4.499288E-2,-7.042361E-2,-9.247531E-3,1.08124595E-2,7.555414E-2,-4.16855E-2,3.888643E-2,-1.6811484E-2,5.8021545E-2],"categories":[],"categories_nodes":[],"categories_segments":[],"categories_sizes":[],"default_left":[0,0,0,0,0,0,0,0,0,0,0,0,0,0,0,0,0,0,0,0,0,0,0,0,0,0,0,0,0,0,0,0,0,0,0,0,0,0,0,0,0,0,0,0,0,0,0,0,0,0,0,0,0,0,0],"id":12,"left_children":[1,3,5,-1,7,9,11,13,15,17,19,21,23,25,-1,-1,27,-1,29,-1,31,-1,33,35,37,39,41,43,-1,-1,-1,-1,-1,45,47,49,51,-1,53,-1,-1,-1,-1,-1,-1,-1,-1,-1,-1,-1,-1,-1,-1,-1,-1],"loss_changes":[2.7655817E2,9.662619E1,3.5625504E1,0E0,7.660171E1,1.4410645E1,2.9134686E1,4.1750046E1,6.2936096E0,5.111168E0,7.3188896E0,2.287046E1,3.148235E1,1.5139626E1,0E0,0E0,6.3633804E0,0E0,9.766457E0,0E0,5.484512E0,0E0,1.3915433E1,1.7529434E1,8.152269E0,7.08417E0,4.5887566E0,6.541792E0,0E0,0E0,0E0,0E0,0E0,6.679428E0,6.4096384E0,5.7131157E0,9.883157E0,0E0,5.557834E0,0E0,0E0,0E0,0E0,0E0,0E0,0E0,0E0,0E0,0E0,0E0,0E0,0E0,0E0,0E0,0E0],"parents":[2147483647,0,0,1,1,2,2,4,4,5,5,6,6,7,7,8,8,9,9,10,10,11,11,12,12,13,13,16,16,18,18,20,20,22,22,23,23,24,24,25,25,26,26,27,27,33,33,34,34,35,35,36,36,38,38],"right_children":[2,4,6,-1,8,10,12,14,16,18,20,22,24,26,-1,-1,28,-1,30,-1,32,-1,34,36,38,40,42,44,-1,-1,-1,-1,-1,46,48,50,52,-1,54,-1,-1,-1,-1,-1,-1,-1,-1,-1,-1,-1,-1,-1,-1,-1,-1],"split_conditions":[1.6111112E-1,2.3301775E1,7.986939E0,-1.6627248E-1,3E0,2E0,4.115095E2,7.483262E3,8.62069E-3,5.6235826E-1,5.1384687E0,9.130435E-1,2.2233375E4,1.3225E2,-8.9985125E-2,-1.4362793E-1,1.1276058E0,2.4715634E-2,1.29E0,1.163044E-1,7.996941E-1,-1.10262364E-1,1.9711649E1,3E0,9.130435E-1,3.5714287E-2,4.369942E3,2.68E0,-1.076697E-1,7.56616E-2,3.1982813E-2,-1.6505772E-2,8.071062E-2,2E0,2.32E0,9.0222876E2,2.44E0,-6.1880656E-2,3.94E0,1.00941844E-1,-7.448013E-2,1.2279596E-1,2.4953736E-2,-7.153668E-2,3.5205428E-2,-2.1237047E-2,4.499288E-2,-7.042361E-2,-9.247531E-3,1.08124595E-2,7.555414E-2,-4.16855E-2,3.888643E-2,-1.6811484E-2,5.8021545E-2],"split_indices":[7,0,0,0,2,2,0,0,7,0,0,7,0,0,0,0,4,0,0,0,4,0,0,2,7,7,0,3,0,0,0,0,0,2,3,0,3,0,3,0,0,0,0,0,0,0,0,0,0,0,0,0,0,0,0],"split_type":[0,0,0,0,0,0,0,0,0,0,0,0,0,0,0,0,0,0,0,0,0,0,0,0,0,0,0,0,0,0,0,0,0,0,0,0,0,0,0,0,0,0,0,0,0,0,0,0,0,0,0,0,0,0,0],"sum_hessian":[4.1883403E3,8.633596E2,3.3249807E3,2.8853012E2,5.7482947E2,2.0131304E3,1.3118503E3,2.0952296E2,3.6530652E2,1.8471729E3,1.659576E2,4.8165076E2,8.301995E2,1.540595E2,5.546347E1,5.8696953E1,3.0660956E2,1.0492754E3,7.978974E2,9.411492E1,7.1842674E1,8.98113E1,3.9183948E2,5.299405E2,3.0025906E2,3.1932926E1,1.2212657E2,1.5598027E2,1.5062929E2,1.9811838E2,5.9977905E2,2.7119493E1,4.4723183E1,1.8581775E2,2.0602171E2,3.5186026E2,1.7808022E2,1.0668396E2,1.935751E2,9.558148E0,2.2374777E1,1.0607087E2,1.6055702E1,1.3695709E2,1.9023174E1,7.29005E1,1.12917244E2,1.216201E2,8.440162E1,4.554975E1,3.0631052E2,8.2632774E1,9.544744E1,1.5825899E2,3.531611E1],"tree_param":{"num_deleted":"0","num_feature":"8","num_nodes":"55","size_leaf_vector":"1"}},{"base_weights":[-3.8931933E-3,-2.380295E-1,8.969065E-2,-2.814486E-2,-6.1218774E-1,1.29714E-1,-2.0621979E-1,1.7018726E-2,-2.4059048E-1,-1.6450122E-1,-3.6982206E-1,1.8348603E-1,4.488282E-2,-2.7324504E-1,3.54169E-2,-5.851444E-1,-3.6929287E-2,-1.0653363E-1,-1.264466E-1,1.7039368E-1,7.884235E-1,-1.2321494E-1,2.2692694E-1,-1.8333003E-1,-9.201835E-2,-1.4145075E-1,-5.6978334E-2,1.147506E-1,-8.135149E-2,1.8105593E-2,-1.0133018E-1,1.7941143E-1,-1.8730731E-1,1.7015842E-1,-7.766598E-3,-2.1090397E-1,7.654151E-2,2.7065736E-1,-1.2178318E-2,7.9188384E-2,-2.602021E-1,1.1870834E-1,2.8872439E-3,1.6596382E-2,-1.1139162E-1,2.2558251E-2,4.7205802E-2,2.07294E-3,-6.463161E-2,-6.315646E-2,4.9161326E-2,-5.069826E-2,1.3985932E-1],"categories":[],"categories_nodes":[],"categories_segments":[],"categories_sizes":[],"default_left":[0,0,0,0,0,0,0,0,0,0,0,0,0,0,0,0,0,0,0,0,1,0,0,0,0,0,0,0,0,0,0,0,0,0,0,0,0,0,0,0,0,0,0,0,0,0,0,0,0,0,0,0,0],"id":13,"left_children":[1,3,5,7,9,11,13,-1,15,-1,17,19,21,23,-1,25,27,29,-1,31,33,35,37,39,-1,-1,-1,41,-1,43,-1,45,-1,-1,-1,47,-1,49,-1,-1,51,-1,-1,-1,-1,-1,-1,-1,-1,-1,-1,-1,-1],"loss_changes":[8.951515E1,9.161375E1,3.456737E1,2.0311205E1,3.5793655E1,1.17276535E1,9.646076E0,0E0,1.9710714E1,0E0,2.4294209E1,1.2462616E1,3.0522549E1,7.1645393E0,0E0,6.3974457E0,1.1782866E1,8.832949E0,0E0,1.761943E1,5.8156395E0,2.600964E1,6.247078E0,1.1137369E1,0E0,0E0,0E0,7.46452E0,0E0,6.1533976E0,0E0,7.020588E0,0E0,0E0,0E0,1.6852371E1,0E0,4.7034187E0,0E0,0E0,8.000725E0,0E0,0E0,0E0,0E0,0E0,0E0,0E0,0E0,0E0,0E0,0E0,0E0],"parents":[2147483647,0,0,1,1,2,2,3,3,4,4,5,5,6,6,8,8,10,10,11,11,12,12,13,13,15,15,16,16,17,17,19,19,20,20,21,21,22,22,23,23,27,27,29,29,31,31,35,35,37,37,40,40],"right_children":[2,4,6,8,10,12,14,-1,16,-1,18,20,22,24,-1,26,28,30,-1,32,34,36,38,40,-1,-1,-1,42,-1,44,-1,46,-1,-1,-1,48,-1,50,-1,-1,52,-1,-1,-1,-1,-1,-1,-1,-1,-1,-1,-1,-1],"split_conditions":[2E0,6.5E0,1.94898E4,6.75E0,1.824E1,8.968316E0,5.9E1,1.7018726E-2,1.8186607E2,-1.6450122E-1,4.047449E3,1.44E2,7.5225E2,2.3333334E1,3.54169E-2,2.8364983E0,2.7630135E4,1.188355E0,-1.264466E-1,1.45E2,3.9857113E0,4.0489173E0,1.506558E0,-3.5469394E0,-9.201835E-2,-1.4145075E-1,-5.6978334E-2,6.108643E-1,-8.135149E-2,5.0333332E1,-1.0133018E-1,2.3E1,-1.8730731E-1,1.7015842E-1,-7.766598E-3,-1.0140249E0,7.654151E-2,4.195559E-1,-1.2178318E-2,7.9188384E-2,6.311998E0,1.1870834E-1,2.8872439E-3,1.6596382E-2,-1.1139162E-1,2.2558251E-2,4.7205802E-2,2.07294E-3,-6.463161E-2,-6.315646E-2,4.9161326E-2,-5.069826E-2,1.3985932E-1],"split_indices":[6,5,0,0,0,0,6,0,0,0,0,6,0,5,0,1,0,4,0,5,1,1,4,1,0,0,0,4,0,5,0,6,0,0,0,1,0,4,0,0,1,0,0,0,0,0,0,0,0,0,0,0,0],"split_type":[0,0,0,0,0,0,0,0,0,0,0,0,0,0,0,0,0,0,0,0,0,0,0,0,0,0,0,0,0,0,0,0,0,0,0,0,0,0,0,0,0,0,0,0,0,0,0,0,0,0,0,0,0],"sum_hessian":[4.0853281E3,1.1666072E3,2.918721E3,7.4736926E2,4.1923795E2,2.5709827E3,3.477382E2,4.6647888E2,2.808904E2,1.7087617E2,2.4836177E2,1.5735531E3,9.9742957E2,2.9927145E2,4.846675E1,1.0435041E2,1.7653998E2,1.4535367E2,1.030081E2,1.540219E3,3.333416E1,5.185789E2,4.7885068E2,2.2371956E2,7.5551895E1,5.2903805E1,5.1446606E1,1.3128525E2,4.5254738E1,1.15760574E2,2.9593096E1,1.5293474E3,1.0871594E1,2.6649145E1,6.6850133E0,4.496439E2,6.893499E1,4.1763196E2,6.1218735E1,2.3738214E1,1.9998134E2,1.8912779E1,1.1237247E2,1.0354287E2,1.2217708E1,1.0303016E3,4.9904575E2,1.9318582E2,2.5645807E2,1.1143849E1,4.064881E2,1.9335168E2,6.6296606E0],"tree_param":{"num_deleted":"0","num_feature":"8","num_nodes":"53","size_leaf_vector":"1"}},{"base_weights":[-2.696781E-3,-2.4727908E-1,9.54087E-2,-1.9438017E-2,-4.9646166E-1,1.9495702E-1,2.7155748E-3,4.665628E-3,-3.715684E-2,-3.9079535E-1,-7.7096784E-1,3.6483288E-2,1.4652592E-2,-8.661044E-2,9.12357E-2,6.4990036E-3,-4.492452E-1,-1.4977288E-1,-4.6465967E-2,-7.2031595E-2,2.5654627E-2,2.0423061E-3,-4.2871572E-2,5.4353513E-2,1.0941339E-1,-5.191222E-1,-2.8028935E-2,3.30429E-2,-6.634542E-2,8.2329616E-2,-6.318492E-2,-5.9791066E-2,-1.3360177E-1,-7.993864E-3,-1.2513512E-1,2.3310157E-3,3.7003104E-2],"categories":[],"categories_nodes":[],"categories_segments":[],"categories_sizes":[],"default_left":[0,0,0,0,0,1,0,0,0,0,0,0,0,0,0,0,0,0,0,0,0,0,0,0,0,0,0,0,0,0,0,0,0,0,0,0,0],"id":14,"left_children":[1,3,5,7,9,11,13,-1,-1,15,17,-1,19,21,23,-1,25,-1,-1,-1,-1,27,-1,29,-1,31,-1,-1,33,35,-1,-1,-1,-1,-1,-1,-1],"loss_changes":[9.568285E1,6.4812706E1,2.626175E1,5.536354E0,1.5815796E1,4.686634E0,1.1653303E1,0E0,0E0,9.8698845E0,8.094742E0,0E0,7.7389307E0,1.0713293E1,1.5022284E1,0E0,6.898224E0,0E0,0E0,0E0,0E0,6.2517347E0,0E0,8.244411E0,0E0,1.2390984E1,0E0,0E0,4.568792E0,6.0160155E0,0E0,0E0,0E0,0E0,0E0,0E0,0E0],"parents":[2147483647,0,0,1,1,2,2,3,3,4,4,5,5,6,6,9,9,10,10,12,12,13,13,14,14,16,16,21,21,23,23,25,25,28,28,29,29],"right_children":[2,4,6,8,10,12,14,-1,-1,16,18,-1,20,22,24,-1,26,-1,-1,-1,-1,28,-1,30,-1,32,-1,-1,34,36,-1,-1,-1,-1,-1,-1,-1],"split_conditions":[2E0,1.6666666E0,2E0,2E0,2.7E1,2.7557425E0,1.9862216E0,4.665628E-3,-3.715684E-2,-4.430587E0,7.0097957E0,3.6483288E-2,3.0069823E0,3E0,1.44E2,6.4990036E-3,3.7050154E0,-1.4977288E-1,-4.6465967E-2,-7.2031595E-2,2.5654627E-2,5E0,-4.2871572E-2,6.5E1,1.0941339E-1,8E0,-2.8028935E-2,3.30429E-2,1.08E2,1.3754926E0,-6.318492E-2,-5.9791066E-2,-1.3360177E-1,-7.993864E-3,-1.2513512E-1,2.3310157E-3,3.7003104E-2],"split_indices":[6,5,2,2,5,1,3,0,0,1,1,0,1,2,6,0,1,0,0,0,0,5,0,5,0,5,0,0,5,1,0,0,0,0,0,0,0],"split_type":[0,0,0,0,0,0,0,0,0,0,0,0,0,0,0,0,0,0,0,0,0,0,0,0,0,0,0,0,0,0,0,0,0,0,0,0,0],"sum_hessian":[3.9876387E3,1.1415908E3,2.8460479E3,5.963322E2,5.4525867E2,1.37228E3,1.473768E3,4.825332E2,1.13798996E2,3.937078E2,1.5155086E2,1.2418236E3,1.3045636E2,7.3354486E2,7.402231E2,4.7219128E1,3.4648868E2,1.2474323E2,2.6807623E1,3.0923223E1,9.953314E1,4.769066E2,2.5663824E2,6.9372375E2,4.6499313E1,2.7824683E2,6.824184E1,1.2540534E2,3.5150125E2,6.508601E2,4.286364E1,1.6985828E2,1.0838855E2,3.415323E2,9.968953E0,4.3101474E2,2.1984535E2],"tree_param":{"num_deleted":"0","num_feature":"8","num_nodes":"37","size_leaf_vector":"1"}},{"base_weights":[-7.015455E-3,-4.564589E-1,5.633868E-2,-1.5853217E-1,-2.3500368E-1,8.248226E-2,-1.8117142E-1,3.8487893E-3,-9.887324E-2,5.020959E-2,4.297107E-2,-2.3168017E-1,1.0293256E-1,-7.545235E-2,7.341273E-2,-3.4753266E-1,8.727033E-2,9.246783E-2,-5.3414527E-2,6.350844E-2,-8.375577E-2,-6.505713E-1,-4.0977493E-2,1.19036496E-1,-1.5958893E-1,-3.2342216E-3,1.3618672E-1,-7.914876E-2,3.9904393E-2,-1.6194503E-1,-7.930922E-2,7.039767E-3,-1.4033422E-1,4.3216042E-2,1.2313436E-2,-4.675762E-2,1.1039942E-1],"categories":[],"categories_nodes":[],"categories_segments":[],"categories_sizes":[],"default_left":[0,0,0,0,0,0,1,0,0,0,0,0,0,0,0,0,0,0,0,0,0,1,0,0,1,0,0,0,0,0,0,0,0,0,0,0,0],"id":15,"left_children":[1,3,5,-1,7,9,11,13,-1,15,-1,17,-1,-1,19,21,23,25,-1,-1,27,29,31,33,35,-1,-1,-1,-1,-1,-1,-1,-1,-1,-1,-1,-1],"loss_changes":[1.1076275E2,5.0340942E1,2.1169964E1,0E0,2.6948723E1,1.6796022E1,1.3398321E1,6.0017076E0,0E0,3.80299E1,0E0,8.389391E0,0E0,0E0,7.858885E0,2.0428545E1,1.850686E1,5.019378E0,0E0,0E0,1.3245842E1,6.1344147E0,7.0294266E0,1.3158028E1,2.4867947E1,0E0,0E0,0E0,0E0,0E0,0E0,0E0,0E0,0E0,0E0,0E0,0E0],"parents":[2147483647,0,0,1,1,2,2,4,4,5,5,6,6,7,7,9,9,11,11,14,14,15,15,16,16,17,17,20,20,21,21,22,22,23,23,24,24],"right_children":[2,4,6,-1,8,10,12,14,-1,16,-1,18,-1,-1,20,22,24,26,-1,-1,28,30,32,34,36,-1,-1,-1,-1,-1,-1,-1,-1,-1,-1,-1,-1],"split_conditions":[6.122449E-2,1.6E1,2.2233375E4,-1.5853217E-1,3.8135557E3,1.2009159E3,4.9097447E0,9.090909E-3,-9.887324E-2,1E0,4.297107E-2,-2.2144163E0,1.0293256E-1,-7.545235E-2,-4.430587E0,1E2,1.9711649E1,4.24E0,-5.3414527E-2,6.350844E-2,3.891596E0,-1.3549305E0,3.623E0,-9.486833E-1,4.0489173E0,-3.2342216E-3,1.3618672E-1,-7.914876E-2,3.9904393E-2,-1.6194503E-1,-7.930922E-2,7.039767E-3,-1.4033422E-1,4.3216042E-2,1.2313436E-2,-4.675762E-2,1.1039942E-1],"split_indices":[7,0,0,0,0,0,1,7,0,7,0,1,0,0,1,0,0,3,0,0,1,1,3,1,1,0,0,0,0,0,0,0,0,0,0,0,0],"split_type":[0,0,0,0,0,0,0,0,0,0,0,0,0,0,0,0,0,0,0,0,0,0,0,0,0,0,0,0,0,0,0,0,0,0,0,0,0],"sum_hessian":[3.8899478E3,4.8058783E2,3.4093599E3,1.5325455E2,3.2733328E2,3.0712917E3,3.380681E2,1.9334908E2,1.3398419E2,2.5799385E3,4.9135336E2,3.1762256E2,2.044554E1,2.6077076E1,1.67272E2,2.1990286E2,2.3600356E3,6.3804924E1,2.5381764E2,5.764058E1,1.0963142E2,1.1058572E2,1.09317154E2,2.0909673E3,2.6906836E2,5.5107033E1,8.697891E0,4.9901535E1,5.9729885E1,4.23611E1,6.822462E1,9.891087E1,1.0406277E1,5.40619E2,1.5503483E3,2.3561813E2,3.3450214E1],"tree_param":{"num_deleted":"0","num_feature":"8","num_nodes":"37","size_leaf_vector":"1"}},{"base_weights":[-8.929692E-3,-1.7763647E-1,5.5664055E-2,-1.1511143E-2,-4.3928E-1,8.280553E-2,-1.6766842E-1,1.2753553E-2,-1.0222269E-1,-1.4410849E-1,-2.2242068E-1,1.8729052E-1,3.7817843E-2,-2.1957514E-1,4.4904646E-2,-2.7589897E-2,5.0249774E-2,-1.4064036E-3,-1.128399E-1,1.9677402E-1,-1.6320279E-1,-1.2959367E-1,8.1399925E-2,1.134749E-3,-3.264303E-1,6.7431373E-3,-9.412718E-2,2.4987763E-1,4.101533E-2,-3.388341E-1,8.89031E-3,3.3208078E-1,4.9101595E-2,4.7108147E-2,-7.055913E-2,4.648985E-2,-4.5460954E-2,-7.267948E-2,4.251076E-2,-1.4173461E-1,-2.6659997E-2,9.8325955E-3,-1.0112637E-1,6.661156E-2,-3.1579945E-2,-8.786565E-3,2.2110373E-2],"categories":[],"categories_nodes":[],"categories_segments":[],"categories_sizes":[],"default_left":[0,0,0,0,0,0,0,0,0,0,0,0,0,0,0,0,0,0,0,0,0,0,0,0,0,0,0,1,0,0,0,0,0,0,0,0,0,0,0,0,0,0,0,0,0,0,0],"id":16,"left_children":[1,3,5,7,9,11,13,15,-1,-1,17,19,21,23,-1,25,-1,-1,-1,27,-1,29,31,-1,33,-1,-1,35,37,39,41,43,45,-1,-1,-1,-1,-1,-1,-1,-1,-1,-1,-1,-1,-1,-1],"loss_changes":[4.1529625E1,4.586228E1,1.670464E1,9.204998E0,3.6043716E1,1.1550179E1,6.679802E0,7.047652E0,0E0,0E0,2.511373E1,8.024513E0,1.253218E1,6.4427643E0,0E0,1.90801E1,0E0,0E0,0E0,6.066866E0,0E0,1.0280567E1,1.1034446E1,0E0,9.517948E0,0E0,0E0,6.408844E0,1.813906E1,1.2692869E1,6.2641826E0,4.7032375E0,9.782297E0,0E0,0E0,0E0,0E0,0E0,0E0,0E0,0E0,0E0,0E0,0E0,0E0,0E0,0E0],"parents":[2147483647,0,0,1,1,2,2,3,3,4,4,5,5,6,6,7,7,10,10,11,11,12,12,13,13,15,15,19,19,21,21,22,22,24,24,27,27,28,28,29,29,30,30,31,31,32,32],"right_children":[2,4,6,8,10,12,14,16,-1,-1,18,20,22,24,-1,26,-1,-1,-1,28,-1,30,32,-1,34,-1,-1,36,38,40,42,44,46,-1,-1,-1,-1,-1,-1,-1,-1,-1,-1,-1,-1,-1,-1],"split_conditions":[2E0,3.5E0,3.395657E4,6.389372E4,3.6E1,7E0,4.364358E0,5.806875E2,-1.0222269E-1,-1.4410849E-1,8.534707E3,4.865E0,9E0,8.5E0,4.4904646E-2,1.6E1,5.0249774E-2,-1.4064036E-3,-1.128399E-1,3.6E1,-1.6320279E-1,1.5102041E1,-3.5469394E0,1.134749E-3,-5.651158E0,6.7431373E-3,-9.412718E-2,1.8799422E0,5.806875E2,7E0,2.96E0,2.1313594E3,2.72E0,4.7108147E-2,-7.055913E-2,4.648985E-2,-4.5460954E-2,-7.267948E-2,4.251076E-2,-1.4173461E-1,-2.6659997E-2,9.8325955E-3,-1.0112637E-1,6.661156E-2,-3.1579945E-2,-8.786565E-3,2.2110373E-2],"split_indices":[6,5,0,0,0,5,1,0,0,0,0,3,6,5,0,0,0,0,0,0,0,0,1,0,1,0,0,1,0,6,3,0,3,0,0,0,0,0,0,0,0,0,0,0,0,0,0],"split_type":[0,0,0,0,0,0,0,0,0,0,0,0,0,0,0,0,0,0,0,0,0,0,0,0,0,0,0,0,0,0,0,0,0,0,0,0,0,0,0,0,0,0,0,0,0,0,0],"sum_hessian":[3.8109656E3,1.0551393E3,2.7558262E3,6.4537274E2,4.097665E2,2.4572036E3,2.9862262E2,6.197881E2,2.558467E1,1.4275539E2,2.670111E2,7.3955927E2,1.7176444E3,2.665203E2,3.2102333E1,5.421829E2,7.760517E1,1.794787E2,8.75324E1,7.334796E2,6.079666E0,3.547905E2,1.3628539E3,8.550135E1,1.8101894E2,4.8064413E2,6.1538776E1,5.469911E2,1.864885E2,1.4129811E2,2.1349239E2,1.5555176E2,1.2073021E3,2.2894411E1,1.5812451E2,5.239706E2,2.30205E1,5.7497456E1,1.2899104E2,3.822739E1,1.0307072E2,1.9749141E2,1.600098E1,1.3975658E2,1.5795186E1,5.3671375E2,6.705884E2],"tree_param":{"num_deleted":"0","num_feature":"8","num_nodes":"47","size_leaf_vector":"1"}},{"base_weights":[7.015252E-3,-1.4298823E-1,6.4005144E-2,-6.162897E-2,-8.543773E-2,8.099208E-2,-2.2550516E-1,1.8570743E-3,-2.3386048E-1,1.9002627E-1,4.7772422E-2,-5.5192497E-2,1.0225084E-1,-3.135644E-1,6.7865685E-2,2.230336E-2,6.736258E-2,-4.5148158E-1,5.7597194E-2,1.3510537E-1,-1.744442E-2,-1.0651912E-2,-8.222343E-2,-1.1484192E-2,1.516434E-1,-1.4380597E-2,-8.639709E-1,1.0425243E-1,3.178184E-3,-3.690265E-2,5.6167014E-2,-2.5774425E-1,-5.8453817E-2,1.5345378E-2,7.465397E-2,-2.6196688E-3,6.6736974E-2],"categories":[],"categories_nodes":[],"categories_segments":[],"categories_sizes":[],"default_left":[0,0,0,1,0,1,0,0,0,0,0,0,0,0,0,0,0,0,0,0,0,0,0,0,0,0,0,0,0,0,0,0,0,0,0,0,0],"id":17,"left_children":[1,3,5,7,-1,9,11,-1,13,15,17,-1,19,21,23,-1,-1,25,27,-1,-1,29,-1,-1,-1,-1,31,33,35,-1,-1,-1,-1,-1,-1,-1,-1],"loss_changes":[3.231937E1,3.0311348E1,1.3473727E1,1.0592613E1,0E0,9.373547E0,4.8814044E0,0E0,6.043148E0,7.3390236E0,9.729458E0,0E0,4.934666E0,1.01460705E1,5.8297977E0,0E0,0E0,5.7977724E0,4.938923E0,0E0,0E0,4.9686804E0,0E0,0E0,0E0,0E0,6.081523E0,4.9882603E0,6.459822E0,0E0,0E0,0E0,0E0,0E0,0E0,0E0,0E0],"parents":[2147483647,0,0,1,1,2,2,3,3,5,5,6,6,8,8,9,9,10,10,12,12,13,13,14,14,17,17,18,18,21,21,26,26,27,27,28,28],"right_children":[2,4,6,8,-1,10,12,-1,14,16,18,-1,20,22,24,-1,-1,26,28,-1,-1,30,-1,-1,-1,-1,32,34,36,-1,-1,-1,-1,-1,-1,-1,-1],"split_conditions":[2E0,3E0,4E0,-4.5500097E0,-8.543773E-2,-3.6110477E0,3.72E0,1.8570743E-3,1.0986123E0,1.969423E0,-3.362178E0,-5.5192497E-2,1.188355E0,6.6147697E-1,1.969423E0,2.230336E-2,6.736258E-2,2.6E1,9.256504E-1,1.3510537E-1,-1.744442E-2,2.6619709E0,-8.222343E-2,-1.1484192E-2,1.516434E-1,-1.4380597E-2,4.4E1,4.75E0,9.4E1,-3.690265E-2,5.6167014E-2,-2.5774425E-1,-5.8453817E-2,1.5345378E-2,7.465397E-2,-2.6196688E-3,6.6736974E-2],"split_indices":[6,2,2,1,0,1,3,0,4,3,1,0,4,4,3,0,0,6,4,0,0,1,0,0,0,0,6,3,6,0,0,0,0,0,0,0,0],"split_type":[0,0,0,0,0,0,0,0,0,0,0,0,0,0,0,0,0,0,0,0,0,0,0,0,0,0,0,0,0,0,0,0,0,0,0,0,0],"sum_hessian":[3.780626E3,1.0408905E3,2.7397354E3,8.4810895E2,1.9278157E2,2.5878916E3,1.5184384E2,5.9682153E2,2.5128743E2,6.043342E2,1.9835573E3,1.1686963E2,3.497422E1,1.9877823E2,5.2509212E1,4.687629E2,1.3557133E2,3.8280895E1,1.9452764E3,7.997814E0,2.6976404E1,7.105183E1,1.27726395E2,4.5086544E1,7.422668E0,2.0253042E1,1.8027853E1,1.0473491E3,8.979273E2,4.426639E1,2.6785439E1,8.042652E0,9.9852E0,1.0043258E3,4.3023277E1,8.5699365E2,4.0933685E1],"tree_param":{"num_deleted":"0","num_feature":"8","num_nodes":"37","size_leaf_vector":"1"}},{"base_weights":[1.2401631E-3,4.0744487E-2,-1.7272493E-1,1.0395952E-2,1.1016869E-1,-2.8565085E-1,1.7132677E-2,6.269079E-2,-1.4409085E-2,2.4609532E-2,-1.2692621E-2,-4.4997983E-2,-1.306896E-1,3.0875824E-2,-3.5494976E-2,9.245134E-3,5.0232905E-1,2.7638236E-2,2.670587E-1],"categories":[],"categories_nodes":[],"categories_segments":[],"categories_sizes":[],"default_left":[0,0,0,0,0,0,0,1,0,0,0,0,0,0,0,0,0,0,0],"id":18,"left_children":[1,3,5,7,9,11,13,15,-1,-1,-1,-1,-1,-1,-1,-1,17,-1,-1],"loss_changes":[2.5771149E1,6.438759E0,1.48784485E1,1.055028E1,5.8535395E0,4.565346E0,9.554064E0,5.1150937E0,0E0,0E0,0E0,0E0,0E0,0E0,0E0,0E0,9.395235E0,0E0,0E0],"parents":[2147483647,0,0,1,1,2,2,3,3,4,4,5,5,6,6,7,7,16,16],"right_children":[2,4,6,8,10,12,14,16,-1,-1,-1,-1,-1,-1,-1,-1,18,-1,-1],"split_conditions":[3E0,2.76E0,2.32E0,9.333333E0,1.250097E0,6E0,1.3862944E0,2.9636126E0,-1.4409085E-2,2.4609532E-2,-1.2692621E-2,-4.4997983E-2,-1.306896E-1,3.0875824E-2,-3.5494976E-2,9.245134E-3,9.646946E-1,2.7638236E-2,2.670587E-1],"split_indices":[2,3,3,5,4,2,4,1,0,0,0,0,0,0,0,0,4,0,0],"split_type":[0,0,0,0,0,0,0,0,0,0,0,0,0,0,0,0,0,0,0],"sum_hessian":[3.7499636E3,3.056001E3,6.939625E2,2.126437E3,9.2956415E2,4.351428E2,2.5881973E2,1.3708369E3,7.556E2,7.8456146E2,1.450027E2,4.1623398E2,1.89088E1,1.4981175E2,1.0900797E2,1.3448738E3,2.5963207E1,1.9669151E1,6.2940564E0],"tree_param":{"num_deleted":"0","num_feature":"8","num_nodes":"19","size_leaf_vector":"1"}},{"base_weights":[-1.197196E-2,-3.581677E-1,2.2005823E-2,-1.4048448E-1,-1.4803281E-1,5.2833002E-2,1.0756496E-2,9.607552E-2,-8.9778766E-2,5.965108E-2,-4.903398E-2,1.737615E-1,-1.0717206E-1,-1.5670714E-1,6.677604E-2,-1.8827821E-1,5.147289E-2,-9.81861E-2,2.2638726E-1,5.3338795E-3,1.4330052E-1,-2.331888E-1,6.2011026E-2,1.7187083E-1,-1.508504E-1,2.172069E-2,1.2992515E-1,7.0833177E-3,-4.1637413E-2,-1.8802707E-1,2.6055576E-2,-2.5321072E-2,-1.12095505E-1,3.810311E-2,-1.8417187E-2,-3.139319E-2,1.5014078E-1],"categories":[],"categories_nodes":[],"categories_segments":[],"categories_sizes":[],"default_left":[0,0,0,0,0,0,0,0,0,0,0,0,0,0,0,1,0,0,0,0,0,0,0,0,1,0,0,0,0,0,0,0,0,0,0,0,0],"id":19,"left_children":[1,3,5,-1,7,-1,9,11,-1,13,15,17,-1,-1,19,21,23,-1,25,27,29,31,-1,33,35,-1,-1,-1,-1,-1,-1,-1,-1,-1,-1,-1,-1],"loss_changes":[4.3661167E1,3.244828E1,1.0941068E1,0E0,2.1108145E1,0E0,9.50947E0,7.818081E0,0E0,1.2474688E1,2.047988E1,4.9482365E0,0E0,0E0,8.352979E0,1.52038765E1,2.070313E1,0E0,6.215951E0,8.896801E0,9.324337E0,2.0382116E1,0E0,7.682933E0,1.0856125E1,0E0,0E0,0E0,0E0,0E0,0E0,0E0,0E0,0E0,0E0,0E0,0E0],"parents":[2147483647,0,0,1,1,2,2,4,4,6,6,7,7,9,9,10,10,11,11,14,14,15,15,16,16,18,18,19,19,20,20,21,21,23,23,24,24],"right_children":[2,4,6,-1,8,-1,10,12,-1,14,16,18,-1,-1,20,22,24,-1,26,28,30,32,-1,34,36,-1,-1,-1,-1,-1,-1,-1,-1,-1,-1,-1,-1],"split_conditions":[4.225352E-2,2.3301775E1,-4.257481E0,-1.4048448E-1,3.11424E3,5.2833002E-2,7.425606E0,1.2770343E0,-8.9778766E-2,1.3157895E-1,7.5225E2,4.1841003E-3,-1.0717206E-1,-1.5670714E-1,6.09375E-1,3.891596E0,1.94898E4,-9.81861E-2,7.4186053E0,1.4E1,2.0889975E-1,2.9E1,6.2011026E-2,1.4584119E0,6.311998E0,2.172069E-2,1.2992515E-1,7.0833177E-3,-4.1637413E-2,-1.8802707E-1,2.6055576E-2,-2.5321072E-2,-1.12095505E-1,3.810311E-2,-1.8417187E-2,-3.139319E-2,1.5014078E-1],"split_indices":[7,0,1,0,0,0,0,4,0,7,0,7,0,0,0,1,0,0,1,6,4,6,0,4,1,0,0,0,0,0,0,0,0,0,0,0,0],"split_type":[0,0,0,0,0,0,0,0,0,0,0,0,0,0,0,0,0,0,0,0,0,0,0,0,0,0,0,0,0,0,0,0,0,0,0,0,0],"sum_hessian":[3.711749E3,3.3173535E2,3.3800137E3,1.03178734E2,2.2855661E2,1.27167274E2,3.2528464E3,1.3892146E2,8.963515E1,1.7894753E3,1.4633711E3,1.2546651E2,1.3454958E1,1.2937051E1,1.7765383E3,6.134648E2,8.499064E2,8.232429E0,1.1723408E2,9.853734E2,7.9116486E2,5.672966E2,4.6168194E1,5.3283093E2,3.170754E2,9.893164E1,1.8302437E1,8.605138E2,1.24859665E2,5.9636736E0,7.852012E2,4.728122E2,9.448436E1,4.499824E2,8.284856E1,3.071831E2,9.892294E0],"tree_param":{"num_deleted":"0","num_feature":"8","num_nodes":"37","size_leaf_vector":"1"}},{"base_weights":[-1.6339695E-2,1.1072891E-2,-1.4011215E-1,2.9332213E-2,-4.5561474E-2,-5.183226E-2,1.0137353E-1,-1.2894402E-2,4.323725E-2,2.4128908E-2,-5.2900374E-2,6.1614923E-3,-1.5023504E-1,-2.9199165E-1,4.5427945E-2,-1.15604356E-1,-3.379131E-2,2.7195672E-2,-1.773487E-2],"categories":[],"categories_nodes":[],"categories_segments":[],"categories_sizes":[],"default_left":[0,0,0,0,0,0,0,0,0,0,0,0,0,0,0,0,0,0,0],"id":20,"left_children":[1,3,5,7,-1,-1,9,11,-1,-1,-1,-1,13,15,17,-1,-1,-1,-1],"loss_changes":[1.2436128E1,1.5242698E1,2.628415E1,2.665449E1,0E0,0E0,4.4312077E0,1.59523945E1,0E0,0E0,0E0,0E0,1.7287321E1,1.3089296E1,4.460566E0,0E0,0E0,0E0,0E0],"parents":[2147483647,0,0,1,1,2,2,3,3,6,6,7,7,12,12,13,13,14,14],"right_children":[2,4,6,8,-1,-1,10,12,-1,-1,-1,-1,14,16,18,-1,-1,-1,-1],"split_conditions":[3E0,2.2233375E4,1.969423E0,3.6841345E2,-4.5561474E-2,-5.183226E-2,1.45E2,2E0,4.323725E-2,2.4128908E-2,-5.2900374E-2,6.1614923E-3,1.969423E0,6.3540106E0,1.0666667E1,-1.15604356E-1,-3.379131E-2,2.7195672E-2,-1.773487E-2],"split_indices":[2,0,3,0,0,0,5,2,0,0,0,0,3,0,0,0,0,0,0],"split_type":[0,0,0,0,0,0,0,0,0,0,0,0,0,0,0,0,0,0,0],"sum_hessian":[3.6653142E3,3.0007263E3,6.645878E2,2.815905E3,1.8482124E2,3.9601193E2,2.6857593E2,2.3695452E3,4.4635992E2,2.447331E2,2.3842817E1,1.746276E3,6.2326917E2,3.614215E2,2.6184766E2,7.073475E1,2.9068677E2,1.4851195E2,1.1333569E2],"tree_param":{"num_deleted":"0","num_feature":"8","num_nodes":"19","size_leaf_vector":"1"}},{"base_weights":[5.56951E-3,-2.8714627E-1,4.6243373E-2,-1.0906172E-1,-2.2689919E-1,2.1031837E-1,3.6685944E-2,5.132563E-2,-3.1211114E-1,4.44205E-2,-5.7314903E-2,1.2843128E-2,1.05289996E-1,-6.583989E-2,1.8984626E-1,-8.423186E-2,-1.2888528E-2,4.3701805E-2,-1.0825607E-2,-6.2404636E-2,1.2654045E-1,8.9257866E-2,-1.2790942E-2,5.0170157E-2,-1.0277174E-1,2.106077E-1,5.326052E-2,-5.2049807E-3,1.5529721E-2,2.591605E-2,7.487059E-2,1.2360306E-2,-1.1053387E-1],"categories":[],"categories_nodes":[],"categories_segments":[],"categories_sizes":[],"default_left":[0,0,0,0,0,0,1,0,0,0,0,1,0,0,0,0,0,0,0,0,0,0,0,0,0,0,0,0,0,0,0,0,0],"id":21,"left_children":[1,3,5,-1,7,9,11,13,15,-1,-1,17,19,-1,21,-1,-1,23,-1,-1,25,-1,-1,27,-1,29,31,-1,-1,-1,-1,-1,-1],"loss_changes":[4.2687935E1,9.28373E0,4.936522E0,0E0,8.855997E0,4.7444882E0,4.865825E0,5.3057375E0,1.2293045E1,0E0,0E0,5.1985364E0,7.6816397E0,0E0,5.87416E0,0E0,0E0,6.5707474E0,0E0,0E0,4.5223885E0,0E0,0E0,5.1333838E0,0E0,4.579933E0,5.2831364E0,0E0,0E0,0E0,0E0,0E0,0E0],"parents":[2147483647,0,0,1,1,2,2,4,4,5,5,6,6,7,7,8,8,11,11,12,12,14,14,17,17,20,20,23,23,25,25,26,26],"right_children":[2,4,6,-1,8,10,12,14,16,-1,-1,18,20,-1,22,-1,-1,24,-1,-1,26,-1,-1,28,-1,30,32,-1,-1,-1,-1,-1,-1],"split_conditions":[8.108108E-2,8.62069E-3,-3.5469394E0,-1.0906172E-1,-4.430587E0,1.2424533E0,1.3363062E0,6.837389E-1,3.4239993E0,4.44205E-2,-5.7314903E-2,-1.1500493E0,2.8683597E-1,-6.583989E-2,3E0,-8.423186E-2,-1.2888528E-2,1.5553697E0,-1.0825607E-2,-6.2404636E-2,1.45E1,8.9257866E-2,-1.2790942E-2,1.5E0,-1.0277174E-1,3.0069823E0,1.4873841E0,-5.2049807E-3,1.5529721E-2,2.591605E-2,7.487059E-2,1.2360306E-2,-1.1053387E-1],"split_indices":[7,7,1,0,1,4,1,4,1,0,0,1,4,0,2,0,0,4,0,0,5,0,0,5,0,1,4,0,0,0,0,0,0],"split_type":[0,0,0,0,0,0,0,0,0,0,0,0,0,0,0,0,0,0,0,0,0,0,0,0,0,0,0,0,0,0,0,0,0],"sum_hessian":[3.5854492E3,4.3742834E2,3.148021E3,6.3884785E1,3.7354355E2,1.732798E2,2.9747412E3,8.758159E1,2.8596198E2,1.5872078E2,1.4559018E1,2.2075308E3,7.6721045E2,2.1067373E1,6.651421E1,1.6171799E2,1.2424397E2,1.5718997E3,6.3563104E2,3.310951E1,7.3410095E2,2.9442453E1,3.707176E1,1.5563221E3,1.5577466E1,3.4188644E2,3.922145E2,5.233489E2,1.0329733E3,2.720073E2,6.987917E1,3.8175922E2,1.0455291E1],"tree_param":{"num_deleted":"0","num_feature":"8","num_nodes":"33","size_leaf_vector":"1"}},{"base_weights":[-2.0868486E-2,-6.057571E-2,1.3494206E-3,-8.666135E-2,2.041073E-2,-1.2021794E-2,-1.4063627E-1,1.765471E-3,3.0488033E-2],"categories":[],"categories_nodes":[],"categories_segments":[],"categories_sizes":[],"default_left":[0,0,0,0,0,0,0,0,0],"id":22,"left_children":[1,-1,3,5,7,-1,-1,-1,-1],"loss_changes":[2.674966E1,0E0,5.6655827E0,7.177239E0,4.4217634E0,0E0,0E0,0E0,0E0],"parents":[2147483647,0,0,2,2,3,3,4,4],"right_children":[2,-1,4,6,8,-1,-1,-1,-1],"split_conditions":[3.0303031E-2,-6.057571E-2,4.7435898E-1,4.375E-1,5.6E1,-1.2021794E-2,-1.4063627E-1,1.765471E-3,3.0488033E-2],"split_indices":[7,0,7,7,5,0,0,0,0],"split_type":[0,0,0,0,0,0,0,0,0],"sum_hessian":[3.601658E3,2.2446391E2,3.377194E3,6.0121875E2,2.7759753E3,5.8831934E2,1.2899412E1,2.6101414E3,1.6583398E2],"tree_param":{"num_deleted":"0","num_feature":"8","num_nodes":"9","size_leaf_vector":"1"}},{"base_weights":[-6.1046774E-3,-5.1792043E-1,9.542171E-3,-1.4931537E-1,-3.5050586E-1,5.8733385E-2,-3.372652E-2,6.8023857E-3,-1.2815462E-1,-1.3305022E-1,6.622914E-2,-1.2103298E-1,2.4989316E-2,1.0101423E-2,5.07613E-1,-3.700453E-1,-2.7340122E-2,9.384996E-2,-2.0216167E-2,-1.4671822E-3,1.6982743E-1,-1.17324986E-1,-1.7523873E-1,2.0699583E-2,-2.8156704E-1,1.3140179E-1,-2.4861613E-2,-8.6135685E-2,2.3151946E-3,-9.643854E-2,8.498128E-3,-9.3422964E-2,-5.7410733E-3,3.767475E-2,1.2349931E-3],"categories":[],"categories_nodes":[],"categories_segments":[],"categories_sizes":[],"default_left":[0,0,0,0,0,0,0,0,0,0,0,0,0,0,0,0,0,0,0,0,0,0,0,0,0,0,0,0,0,0,0,0,0,0,0],"id":23,"left_children":[1,3,5,-1,7,9,11,-1,-1,-1,13,15,17,-1,19,21,23,25,-1,-1,-1,-1,27,29,31,33,-1,-1,-1,-1,-1,-1,-1,-1,-1],"loss_changes":[2.8860378E1,6.3983707E0,7.442945E0,0E0,1.1393766E1,1.0289046E1,9.537163E0,0E0,0E0,0E0,5.015186E0,1.7453438E1,1.099292E1,0E0,6.3845277E0,1.2662682E1,6.638587E0,6.7635713E0,0E0,0E0,0E0,0E0,7.8951197E0,7.8040295E0,5.7003675E0,7.2198954E0,0E0,0E0,0E0,0E0,0E0,0E0,0E0,0E0,0E0],"parents":[2147483647,0,0,1,1,2,2,4,4,5,5,6,6,10,10,11,11,12,12,14,14,15,15,16,16,17,17,22,22,23,23,24,24,25,25],"right_children":[2,4,6,-1,8,10,12,-1,-1,-1,14,16,18,-1,20,22,24,26,-1,-1,-1,-1,28,30,32,34,-1,-1,-1,-1,-1,-1,-1,-1,-1],"split_conditions":[1.5151516E-2,1.3596254E1,4.8515997E0,-1.4931537E-1,1.5605555E3,4.225352E-2,2.7534937E2,6.8023857E-3,-1.2815462E-1,-1.3305022E-1,1.14666664E2,8E-1,2.2233375E4,1.0101423E-2,7.335417E-1,1.9711649E1,5.920366E1,1.4584119E0,-2.0216167E-2,-1.4671822E-3,1.6982743E-1,-1.17324986E-1,8.5E0,4.094586E-1,1.969423E0,8.333333E-1,-2.4861613E-2,-8.6135685E-2,2.3151946E-3,-9.643854E-2,8.498128E-3,-9.3422964E-2,-5.7410733E-3,3.767475E-2,1.2349931E-3],"split_indices":[7,0,0,0,0,7,0,0,0,0,5,7,0,0,4,0,0,4,0,0,0,0,5,4,3,7,0,0,0,0,0,0,0,0,0],"split_type":[0,0,0,0,0,0,0,0,0,0,0,0,0,0,0,0,0,0,0,0,0,0,0,0,0,0,0,0,0,0,0,0,0,0,0],"sum_hessian":[3.6038066E3,1.0690466E2,3.4969019E3,3.4095654E1,7.280901E1,1.6364539E3,1.860448E3,3.6886047E1,3.5922966E1,1.4494364E1,1.6219595E3,7.480896E2,1.1123584E3,1.596619E3,2.5340513E1,2.0452173E2,5.435679E2,7.5168744E2,3.6067093E2,1.2315185E1,1.302533E1,7.772147E1,1.2680026E2,4.571778E2,8.639009E1,6.498441E2,1.0184337E2,4.6167377E1,8.063288E1,2.1642056E1,4.3553574E2,4.166106E1,4.4729034E1,3.7766415E2,2.7217993E2],"tree_param":{"num_deleted":"0","num_feature":"8","num_nodes":"35","size_leaf_vector":"1"}},{"base_weights":[-6.1964947E-3,-2.8374618E-1,8.6222235E-3,2.0344453E-3,-3.9293697E-1,3.6635645E-2,7.301426E-5,-4.1032698E-2,6.773736E-2,-1.1221696E-1,-1.4458833E-2,3.0881106E-3,-1.0618252E-1,-1.2031667E-1,-8.868291E-2,-3.3911206E-2,1.475309E-2,6.8252414E-2,-1.0517943E-2],"categories":[],"categories_nodes":[],"categories_segments":[],"categories_sizes":[],"default_left":[0,0,0,0,0,0,0,0,0,0,0,0,0,0,0,0,0,0,0],"id":24,"left_children":[1,3,5,7,9,-1,11,-1,-1,-1,-1,-1,13,-1,15,-1,17,-1,-1],"loss_changes":[1.4569305E1,5.602558E0,5.9271774E0,4.757735E0,1.060804E1,0E0,6.186647E0,0E0,0E0,0E0,0E0,0E0,4.9123874E0,0E0,5.1852903E0,0E0,6.9131503E0,0E0,0E0],"parents":[2147483647,0,0,1,1,2,2,3,3,4,4,6,6,12,12,14,14,16,16],"right_children":[2,4,6,8,10,-1,12,-1,-1,-1,-1,-1,14,-1,16,-1,18,-1,-1],"split_conditions":[2.631579E-2,-5.46011E0,-4.430587E0,1.5384615E-2,4.4859724E0,3.6635645E-2,3E0,-4.1032698E-2,6.773736E-2,-1.1221696E-1,-1.4458833E-2,3.0881106E-3,6.1909866E-1,-1.2031667E-1,1.1E1,-3.3911206E-2,1.7E1,6.8252414E-2,-1.0517943E-2],"split_indices":[7,1,1,7,1,0,2,0,0,0,0,0,4,0,6,0,6,0,0],"split_type":[0,0,0,0,0,0,0,0,0,0,0,0,0,0,0,0,0,0,0],"sum_hessian":[3.5423171E3,1.7954265E2,3.3627744E3,4.9634987E1,1.2990765E2,1.3389178E2,3.2288826E3,3.0752209E1,1.8882776E1,6.984786E1,6.0059795E1,2.76042E3,4.6846274E2,1.3292697E1,4.5517004E2,2.2044583E2,2.3472421E2,3.8840267E1,1.9588394E2],"tree_param":{"num_deleted":"0","num_feature":"8","num_nodes":"19","size_leaf_vector":"1"}},{"base_weights":[8.703592E-3,2.0380742E-3,-7.7746786E-2],"categories":[],"categories_nodes":[],"categories_segments":[],"categories_sizes":[],"default_left":[0,0,0],"id":25,"left_children":[1,-1,-1],"loss_changes":[5.269823E0,0E0,0E0],"parents":[2147483647,0,0],"right_children":[2,-1,-1],"split_conditions":[6E0,2.0380742E-3,-7.7746786E-2],"split_indices":[2,0,0],"split_type":[0,0,0],"sum_hessian":[3.4954963E3,3.4712441E3,2.425222E1],"tree_param":{"num_deleted":"0","num_feature":"8","num_nodes":"3","size_leaf_vector":"1"}},{"base_weights":[1.2016492E-2,-6.331269E-2,3.886055E-2,-5.31212E-2,-1.0941342E-1,1.5021235E-1,9.336706E-3,-1.0921139E-1,4.6834216E-2,1.8905815E-2,5.255749E-1,1.9845413E-1,-8.572089E-3,-1.1277083E-1,-3.5970466E-4,1.6374034E-1,-3.6637075E-2,1.184578E-1,-4.0105846E-2,-3.0648364E-2,4.863336E-2,-4.781776E-3,-1.1353608E-1,3.323927E-1,-1.3211562E-1,-1.4522002E-2,2.8538677E-1,8.686877E-2,-3.0773096E-2,7.091465E-2,-4.2929396E-2,-1.5882009E-3,-1.01383016E-1,1.2117475E-1,-1.2751546E-4],"categories":[],"categories_nodes":[],"categories_segments":[],"categories_sizes":[],"default_left":[0,0,0,0,0,1,0,0,0,0,0,0,0,0,0,0,0,0,0,0,0,0,0,0,0,0,0,0,0,0,0,0,0,0,0],"id":26,"left_children":[1,3,5,7,-1,9,11,13,15,-1,17,19,21,-1,-1,23,-1,-1,-1,-1,-1,25,-1,27,29,31,33,-1,-1,-1,-1,-1,-1,-1,-1],"loss_changes":[7.1420846E0,5.4678497E0,8.560712E0,5.1124516E0,0E0,8.06462E0,6.9710627E0,3.452975E1,1.00254345E1,0E0,6.6573353E0,5.835963E0,4.682747E0,0E0,0E0,1.130385E1,0E0,0E0,0E0,0E0,0E0,5.2835846E0,0E0,1.309048E1,5.3886886E0,5.4649696E0,7.384136E0,0E0,0E0,0E0,0E0,0E0,0E0,0E0,0E0],"parents":[2147483647,0,0,1,1,2,2,3,3,5,5,6,6,7,7,8,8,10,10,11,11,12,12,15,15,21,21,23,23,24,24,25,25,26,26],"right_children":[2,4,6,8,-1,10,12,14,16,-1,18,20,22,-1,-1,24,-1,-1,-1,-1,-1,26,-1,28,30,32,34,-1,-1,-1,-1,-1,-1,-1,-1],"split_conditions":[2E0,7.5E1,5E0,5.920366E1,-1.0941342E-1,1.4618553E0,-3.8729548E0,6.311998E0,9.817987E3,1.8905815E-2,3E0,4E0,7E0,-1.1277083E-1,-3.5970466E-4,3E0,-3.6637075E-2,1.184578E-1,-4.0105846E-2,-3.0648364E-2,4.863336E-2,1.3E2,-1.1353608E-1,8.689869E0,3.2224E2,1.215E2,5.908163E0,8.686877E-2,-3.0773096E-2,7.091465E-2,-4.2929396E-2,-1.5882009E-3,-1.01383016E-1,1.2117475E-1,-1.2751546E-4],"split_indices":[6,5,5,0,0,1,1,1,0,0,2,6,2,0,0,2,0,0,0,0,0,6,0,1,0,5,0,0,0,0,0,0,0,0,0],"split_type":[0,0,0,0,0,0,0,0,0,0,0,0,0,0,0,0,0,0,0,0,0,0,0,0,0,0,0,0,0,0,0,0,0,0,0],"sum_hessian":[3.5319429E3,9.279502E2,2.6039927E3,9.118764E2,1.60738E1,5.457286E2,2.058264E3,5.841048E2,3.277716E2,4.9392432E2,5.180428E1,1.7805005E2,1.880214E3,9.492211E1,4.8918265E2,2.2654462E2,1.01227005E2,4.2390522E1,9.413759E0,3.3202435E1,1.4484761E2,1.8694303E3,1.078365E1,1.4429144E2,8.2253174E1,1.8087163E3,6.0714046E1,1.0728126E2,3.7010178E1,1.4735741E1,6.751743E1,1.7926088E3,1.6107553E1,2.442737E1,3.6286674E1],"tree_param":{"num_deleted":"0","num_feature":"8","num_nodes":"35","size_leaf_vector":"1"}},{"base_weights":[-2.219102E-2,-2.7533019E-2,-1.8249547E-4],"categories":[],"categories_nodes":[],"categories_segments":[],"categories_sizes":[],"default_left":[0,0,0],"id":27,"left_children":[1,-1,-1],"loss_changes":[1.0311355E1,0E0,0E0],"parents":[2147483647,0,0],"right_children":[2,-1,-1],"split_conditions":[1.15384616E-1,-2.7533019E-2,-1.8249547E-4],"split_indices":[7,0,0],"split_type":[0,0,0],"sum_hessian":[3.506377E3,4.618439E2,3.0445332E3],"tree_param":{"num_deleted":"0","num_feature":"8","num_nodes":"3","size_leaf_vector":"1"}},{"base_weights":[-2.6589315E-3],"categories":[],"categories_nodes":[],"categories_segments":[],"categories_sizes":[],"default_left":[0],"id":28,"left_children":[-1],"loss_changes":[0E0],"parents":[2147483647],"right_children":[-1],"split_conditions":[-4.53517E-4],"split_indices":[0],"split_type":[0],"sum_hessian":[3.4958145E3],"tree_param":{"num_deleted":"0","num_feature":"8","num_nodes":"1","size_leaf_vector":"1"}},{"base_weights":[3.1971608E-3,-3.60874E-1,1.226149E-3,1.11942515E-1,-9.358471E-2],"categories":[],"categories_nodes":[],"categories_segments":[],"categories_sizes":[],"default_left":[0,0,0,0,0],"id":29,"left_children":[1,3,-1,-1,-1],"loss_changes":[5.1053553E0,7.2782125E0,0E0,0E0,0E0],"parents":[2147483647,0,0,1,1],"right_children":[2,4,-1,-1,-1],"split_conditions":[8E-3,6.108643E-1,1.226149E-3,1.11942515E-1,-9.358471E-2],"split_indices":[7,4,0,0,0],"split_type":[0,0,0,0,0],"sum_hessian":[3.5130767E3,3.809937E1,3.4749773E3,5.938031E0,3.216134E1],"tree_param":{"num_deleted":"0","num_feature":"8","num_nodes":"5","size_leaf_vector":"1"}},{"base_weights":[9.0824375E-3,-1.11963935E-2,3.5158955E-2,9.4444685E-2,3.0590042E-2,5.7170587E-3,-1.09267674E-1],"categories":[],"categories_nodes":[],"categories_segments":[],"categories_sizes":[],"default_left":[0,0,0,0,0,0,0],"id":30,"left_children":[1,-1,3,-1,5,-1,-1],"loss_changes":[6.793633E0,0E0,6.123433E0,0E0,5.0360785E0,0E0,0E0],"parents":[2147483647,0,0,2,2,4,4],"right_children":[2,-1,4,-1,6,-1,-1],"split_conditions":[2E0,-1.11963935E-2,-8.775685E0,9.4444685E-2,7E0,5.7170587E-3,-1.09267674E-1],"split_indices":[6,0,1,0,2,0,0],"split_type":[0,0,0,0,0,0,0],"sum_hessian":[3.4864312E3,9.0190247E2,2.5845288E3,2.2572706E1,2.561956E3,2.5508264E3,1.11295E1],"tree_param":{"num_deleted":"0","num_feature":"8","num_nodes":"7","size_leaf_vector":"1"}},{"base_weights":[-7.917445E-3,6.2023187E-3,-1.1341391E-1,1.5673196E-2,-5.5421483E-2,-3.4042556E-2,1.7428394E-2,-1.5560544E-2,1.2573889E-1,4.744412E-3,-2.1950155E-1,3.2369908E-2,5.6455573E-3,-2.404992E-3,5.09073E-1,-7.7161916E-2,-6.2310424E-2,-3.5276383E-2,2.2832192E-1,8.558575E-3,-1.2337886E-2,-4.93745E-2,1.4218228E-1,7.2963424E-2,-3.13773E-2,2.1823406E-2,1.5574925E-1],"categories":[],"categories_nodes":[],"categories_segments":[],"categories_sizes":[],"default_left":[0,0,0,0,0,0,0,0,0,0,0,0,0,0,0,0,0,0,0,0,0,0,0,0,0,0,0],"id":31,"left_children":[1,3,5,7,-1,-1,-1,9,11,13,15,-1,17,19,21,-1,23,-1,25,-1,-1,-1,-1,-1,-1,-1,-1],"loss_changes":[5.2052655E0,9.665384E0,7.6636147E0,1.0300404E1,0E0,0E0,0E0,9.664879E0,5.093935E0,7.653379E0,7.736603E0,0E0,1.0898388E1,7.69614E0,7.6889977E0,0E0,7.5224433E0,0E0,7.7312627E0,0E0,0E0,0E0,0E0,0E0,0E0,0E0,0E0],"parents":[2147483647,0,0,1,1,2,2,3,3,7,7,8,8,9,9,10,10,12,12,13,13,14,14,16,16,18,18],"right_children":[2,4,6,8,-1,-1,-1,10,12,14,16,-1,18,20,22,-1,24,-1,26,-1,-1,-1,-1,-1,-1,-1,-1],"split_conditions":[1.518404E4,4E0,1.3321791E0,2.4200693E2,-5.5421483E-2,-3.4042556E-2,1.7428394E-2,3.2E1,3E0,1.37E2,8.5E0,3.2369908E-2,6E0,9.333333E0,5.8928007E-1,-7.7161916E-2,2E0,-3.5276383E-2,9.1182E3,8.558575E-3,-1.2337886E-2,-4.93745E-2,1.4218228E-1,7.2963424E-2,-3.13773E-2,2.1823406E-2,1.5574925E-1],"split_indices":[0,2,4,0,0,0,0,0,2,6,5,0,6,5,4,0,6,0,0,0,0,0,0,0,0,0,0],"split_type":[0,0,0,0,0,0,0,0,0,0,0,0,0,0,0,0,0,0,0,0,0,0,0,0,0,0,0],"sum_hessian":[3.49444E3,3.0819487E3,4.1249142E2,2.9962517E3,8.5696884E1,2.9469855E2,1.17792854E2,2.333941E3,6.6231085E2,2.122608E3,2.1133298E2,4.3195746E2,2.3035342E2,2.0929382E3,2.9669664E1,8.5160446E1,1.2617253E2,1.1787872E2,1.124747E2,1.1946473E3,8.982909E2,8.573452E0,2.1096212E1,2.5090929E1,1.01081604E2,9.809683E1,1.4377865E1],"tree_param":{"num_deleted":"0","num_feature":"8","num_nodes":"27","size_leaf_vector":"1"}},{"base_weights":[-8.912947E-3,-4.0951145E-1,-2.6652557E-4,7.418787E-2,-8.509804E-2],"categories":[],"categories_nodes":[],"categories_segments":[],"categories_sizes":[],"default_left":[0,0,0,0,0],"id":32,"left_children":[1,3,-1,-1,-1],"loss_changes":[1.0219651E1,4.721675E0,0E0,0E0,0E0],"parents":[2147483647,0,0,1,1],"right_children":[2,4,-1,-1,-1],"split_conditions":[1.2048192E-2,5.1149035E-1,-2.6652557E-4,7.418787E-2,-8.509804E-2],"split_indices":[7,4,0,0,0],"split_type":[0,0,0,0,0],"sum_hessian":[3.470723E3,6.2534702E1,3.4081882E3,5.987171E0,5.654753E1],"tree_param":{"num_deleted":"0","num_feature":"8","num_nodes":"5","size_leaf_vector":"1"}},{"base_weights":[9.0303645E-4,-1.627461E-1,1.4999697E-3,-1.21536754E-1,-2.864234E-3,2.4435928E-1,-6.4016186E-2,1.44458255E-2,1.1463507E-1],"categories":[],"categories_nodes":[],"categories_segments":[],"categories_sizes":[],"default_left":[0,0,0,0,0,0,0,0,0],"id":33,"left_children":[1,3,-1,-1,5,7,-1,-1,-1],"loss_changes":[4.477354E0,1.4020263E1,0E0,0E0,1.1377612E1,5.071988E0,0E0,0E0,0E0],"parents":[2147483647,0,0,1,1,4,4,5,5],"right_children":[2,4,-1,-1,6,8,-1,-1,-1],"split_conditions":[2.7777778E-2,1.2320153E1,1.4999697E-3,-1.21536754E-1,1.7003617E3,4.95E1,-6.4016186E-2,1.44458255E-2,1.1463507E-1],"split_indices":[7,0,0,0,0,5,0,0,0],"split_type":[0,0,0,0,0,0,0,0,0],"sum_hessian":[3.4671042E3,1.5949295E2,3.307611E3,3.593095E1,1.23562004E2,7.426656E1,4.929544E1,5.4079773E1,2.0186796E1],"tree_param":{"num_deleted":"0","num_feature":"8","num_nodes":"9","size_leaf_vector":"1"}},{"base_weights":[6.64321E-3,1.9666847E-2,-1.6678436E-2,8.431128E-2,1.530882E-2,6.629577E-3,3.4708243E-2,-1.42394975E-2,1.5402996E-2,1.6416632E-2,-1.6762412E-1,1.8018113E-3,1.2292037E-1,-1.6526602E-2,-9.562248E-2],"categories":[],"categories_nodes":[],"categories_segments":[],"categories_sizes":[],"default_left":[0,0,0,0,1,0,0,0,0,0,0,0,0,0,0],"id":34,"left_children":[1,3,-1,-1,5,7,-1,9,-1,11,13,-1,-1,-1,-1],"loss_changes":[4.698528E0,6.353741E0,0E0,0E0,4.9712377E0,5.0807714E0,0E0,1.0950108E1,0E0,7.9997797E0,1.0782556E1,0E0,0E0,0E0,0E0],"parents":[2147483647,0,0,1,1,4,4,5,5,7,7,9,9,10,10],"right_children":[2,4,-1,-1,6,8,-1,10,-1,12,14,-1,-1,-1,-1],"split_conditions":[1.94898E4,-8.042945E0,-1.6678436E-2,8.431128E-2,4.694397E0,5.806875E2,3.4708243E-2,1.5102041E1,1.5402996E-2,1.68E2,3.1E1,1.8018113E-3,1.2292037E-1,-1.6526602E-2,-9.562248E-2],"split_indices":[0,1,0,0,1,0,0,0,0,6,6,0,0,0,0],"split_type":[0,0,0,0,0,0,0,0,0,0,0,0,0,0,0],"sum_hessian":[3.4547356E3,3.0716553E3,3.830805E2,2.7946407E1,3.0437087E3,2.9095178E3,1.3419096E2,2.3287307E3,5.807872E2,1.9408281E3,3.879025E2,1.9248317E3,1.5996459E1,3.2873828E2,5.916422E1],"tree_param":{"num_deleted":"0","num_feature":"8","num_nodes":"15","size_leaf_vector":"1"}},{"base_weights":[6.924754E-4,-8.977145E-2,5.5320594E-3,-1.0824644E-1,2.7456132E-1,-3.9297815E-2,-9.309466E-3,7.267488E-2,-7.617406E-2],"categories":[],"categories_nodes":[],"categories_segments":[],"categories_sizes":[],"default_left":[0,0,0,0,0,0,0,0,0],"id":35,"left_children":[1,3,-1,5,7,-1,-1,-1,-1],"loss_changes":[9.901376E0,6.028537E0,0E0,5.587921E0,4.7233696E0,0E0,0E0,0E0,0E0],"parents":[2147483647,0,0,1,1,3,3,4,4],"right_children":[2,4,-1,6,8,-1,-1,-1,-1],"split_conditions":[2E0,1.969423E0,5.5320594E-3,3.7050154E0,1.7E1,-3.9297815E-2,-9.309466E-3,7.267488E-2,-7.617406E-2],"split_indices":[6,3,0,1,5,0,0,0,0],"split_type":[0,0,0,0,0,0,0,0,0],"sum_hessian":[3.4481997E3,8.9563196E2,2.5525679E3,8.5240717E2,4.3224804E1,2.6018292E2,5.922242E2,3.571966E1,7.5051427E0],"tree_param":{"num_deleted":"0","num_feature":"8","num_nodes":"9","size_leaf_vector":"1"}},{"base_weights":[-1.0476262E-2,-1.3455745E-2,2.3080462E-3],"categories":[],"categories_nodes":[],"categories_segments":[],"categories_sizes":[],"default_left":[0,0,0],"id":36,"left_children":[1,-1,-1],"loss_changes":[5.630343E0,0E0,0E0],"parents":[2147483647,0,0],"right_children":[2,-1,-1],"split_conditions":[2E0,-1.3455745E-2,2.3080462E-3],"split_indices":[6,0,0],"split_type":[0,0,0],"sum_hessian":[3.4279443E3,8.9046747E2,2.537477E3],"tree_param":{"num_deleted":"0","num_feature":"8","num_nodes":"3","size_leaf_vector":"1"}},{"base_weights":[1.075318E-2,-7.000352E-2,3.625404E-2,-8.836461E-3,-7.179157E-2,2.9281098E-2,3.242506E-3],"categories":[],"categories_nodes":[],"categories_segments":[],"categories_sizes":[],"default_left":[0,0,0,0,0,0,0],"id":37,"left_children":[1,3,5,-1,-1,-1,-1],"loss_changes":[7.0999336E0,5.283027E0,6.118475E0,0E0,0E0,0E0,0E0],"parents":[2147483647,0,0,1,1,2,2],"right_children":[2,4,6,-1,-1,-1,-1],"split_conditions":[2E-1,1.95E1,1.3297721E0,-8.836461E-3,-7.179157E-2,2.9281098E-2,3.242506E-3],"split_indices":[0,5,0,0,0,0,0],"split_type":[0,0,0,0,0,0,0],"sum_hessian":[3.4476316E3,8.274007E2,2.620231E3,7.866111E2,4.078962E1,2.9596072E2,2.3242703E3],"tree_param":{"num_deleted":"0","num_feature":"8","num_nodes":"7","size_leaf_vector":"1"}},{"base_weights":[1.4822174E-2,-1.2090017E-1,4.4982294E-3,-3.7095018E-2,1.1530495E-2],"categories":[],"categories_nodes":[],"categories_segments":[],"categories_sizes":[],"default_left":[0,0,0,0,0],"id":38,"left_children":[1,3,-1,-1,-1],"loss_changes":[5.353595E0,4.876375E0,0E0,0E0,0E0],"parents":[2147483647,0,0,1,1],"right_children":[2,4,-1,-1,-1],"split_conditions":[5.263158E-2,4.364358E0,4.4982294E-3,-3.7095018E-2,1.1530495E-2],"split_indices":[7,1,0,0,0],"split_type":[0,0,0,0,0],"sum_hessian":[3.4150027E3,2.6783746E2,3.1471653E3,1.7709674E2,9.07407E1],"tree_param":{"num_deleted":"0","num_feature":"8","num_nodes":"5","size_leaf_vector":"1"}},{"base_weights":[-2.9485964E-3],"categories":[],"categories_nodes":[],"categories_segments":[],"categories_sizes":[],"default_left":[0],"id":39,"left_children":[-1],"loss_changes":[0E0],"parents":[2147483647],"right_children":[-1],"split_conditions":[-5.0292327E-4],"split_indices":[0],"split_type":[0],"sum_hessian":[3.4333757E3],"tree_param":{"num_deleted":"0","num_feature":"8","num_nodes":"1","size_leaf_vector":"1"}},{"base_weights":[1.306301E-2],"categories":[],"categories_nodes":[],"categories_segments":[],"categories_sizes":[],"default_left":[0],"id":40,"left_children":[-1],"loss_changes":[0E0],"parents":[2147483647],"right_children":[-1],"split_conditions":[2.2280742E-3],"split_indices":[0],"split_type":[0],"sum_hessian":[3.4419907E3],"tree_param":{"num_deleted":"0","num_feature":"8","num_nodes":"1","size_leaf_vector":"1"}},{"base_weights":[-2.140825E-2,2.6684022E-2,-4.9844556E-3],"categories":[],"categories_nodes":[],"categories_segments":[],"categories_sizes":[],"default_left":[0,0,0],"id":41,"left_children":[1,-1,-1],"loss_changes":[4.77106E0,0E0,0E0],"parents":[2147483647,0,0],"right_children":[2,-1,-1],"split_conditions":[-4.884792E0,2.6684022E-2,-4.9844556E-3],"split_indices":[1,0,0],"split_type":[0,0,0],"sum_hessian":[3.432502E3,1.4448059E2,3.2880215E3],"tree_param":{"num_deleted":"0","num_feature":"8","num_nodes":"3","size_leaf_vector":"1"}},{"base_weights":[1.1389419E-2,4.3761026E-2,-3.0181365E-2,8.013791E-3,-1.1837682E-1,-8.131647E-2,3.7048716E-2,7.716273E-3,-2.8654741E-2,1.3374156E-1,-8.128824E-3,2.2019842E-1,-7.964082E-2,2.6688753E-3,3.1708613E-1,7.160384E-2,-1.356388E-3,-5.592871E-2,2.23311E-2,4.2054214E-2,-3.3370602E-1,9.9029794E-2,1.1317724E-2,-1.0643192E-1,3.0464793E-2,-9.613862E-2,1.2091841E-2,-9.724109E-2,-7.823346E-3],"categories":[],"categories_nodes":[],"categories_segments":[],"categories_sizes":[],"default_left":[0,0,0,0,0,0,0,0,0,0,0,0,1,0,0,0,0,0,0,0,0,0,0,0,0,0,0,0,0],"id":42,"left_children":[1,3,5,-1,-1,7,9,11,-1,13,-1,15,17,19,21,-1,23,-1,25,-1,27,-1,-1,-1,-1,-1,-1,-1,-1],"loss_changes":[4.5897303E0,4.5597916E0,5.1332016E0,0E0,0E0,6.545352E0,5.28343E0,7.7658877E0,0E0,7.23876E0,0E0,5.390649E0,7.505844E0,1.4410057E1,8.296732E0,0E0,6.473615E0,0E0,5.9805717E0,0E0,5.0237684E0,0E0,0E0,0E0,0E0,0E0,0E0,0E0,0E0],"parents":[2147483647,0,0,1,1,2,2,5,5,6,6,7,7,9,9,11,11,12,12,13,13,14,14,16,16,18,18,20,20],"right_children":[2,4,6,-1,-1,8,10,12,-1,14,-1,16,18,20,22,-1,24,-1,26,-1,28,-1,-1,-1,-1,-1,-1,-1,-1],"split_conditions":[1.1666667E1,5.71E0,7.048649E1,8.013791E-3,-1.1837682E-1,2.8853383E0,3.11424E3,-2.3905632E0,-2.8654741E-2,1.0208809E0,-8.128824E-3,2.85E0,-1.2737448E0,-2.1433036E0,3E0,7.160384E-2,2.25E1,-5.592871E-2,1.3333333E1,4.2054214E-2,7.5225E2,9.9029794E-2,1.1317724E-2,-1.0643192E-1,3.0464793E-2,-9.613862E-2,1.2091841E-2,-9.724109E-2,-7.823346E-3],"split_indices":[5,3,0,0,0,0,0,1,0,1,0,3,1,1,2,0,5,0,5,0,0,0,0,0,0,0,0,0,0],"split_type":[0,0,0,0,0,0,0,0,0,0,0,0,0,0,0,0,0,0,0,0,0,0,0,0,0,0,0,0,0],"sum_hessian":[3.4106309E3,1.9174739E3,1.4931571E3,1.9091335E3,8.340296E0,8.480962E2,6.4506085E2,4.1837958E2,4.297166E2,3.012201E2,3.4384076E2,1.218934E2,2.964862E2,1.7564897E2,1.2557112E2,6.412251E1,5.7770885E1,8.6322464E1,2.1016373E2,1.0182206E2,7.382692E1,6.122451E1,6.434661E1,1.2953878E1,4.481701E1,1.6084005E1,1.9407973E2,4.0534634E1,3.329229E1],"tree_param":{"num_deleted":"0","num_feature":"8","num_nodes":"29","size_leaf_vector":"1"}},{"base_weights":[1.4656567E-3],"categories":[],"categories_nodes":[],"categories_segments":[],"categories_sizes":[],"default_left":[0],"id":43,"left_children":[-1],"loss_changes":[0E0],"parents":[2147483647],"right_children":[-1],"split_conditions":[2.499877E-4],"split_indices":[0],"split_type":[0],"sum_hessian":[3.4360518E3],"tree_param":{"num_deleted":"0","num_feature":"8","num_nodes":"1","size_leaf_vector":"1"}},{"base_weights":[3.9226073E-3],"categories":[],"categories_nodes":[],"categories_segments":[],"categories_sizes":[],"default_left":[0],"id":44,"left_children":[-1],"loss_changes":[0E0],"parents":[2147483647],"right_children":[-1],"split_conditions":[6.690541E-4],"split_indices":[0],"split_type":[0],"sum_hessian":[3.4323303E3],"tree_param":{"num_deleted":"0","num_feature":"8","num_nodes":"1","size_leaf_vector":"1"}},{"base_weights":[4.985373E-5],"categories":[],"categories_nodes":[],"categories_segments":[],"categories_sizes":[],"default_left":[0],"id":45,"left_children":[-1],"loss_changes":[0E0],"parents":[2147483647],"right_children":[-1],"split_conditions":[8.5032325E-6],"split_indices":[0],"split_type":[0],"sum_hessian":[3.422895E3],"tree_param":{"num_deleted":"0","num_feature":"8","num_nodes":"1","size_leaf_vector":"1"}},{"base_weights":[1.8118259E-2,-8.3194725E-2,6.3403384E-3,1.336678E-1,-1.6055886E-2],"categories":[],"categories_nodes":[],"categories_segments":[],"categories_sizes":[],"default_left":[0,0,0,0,0],"id":46,"left_children":[1,3,-1,-1,-1],"loss_changes":[6.607084E0,5.137986E0,0E0,0E0,0E0],"parents":[2147483647,0,0,1,1],"right_children":[2,4,-1,-1,-1],"split_conditions":[2E-1,2.7118936E-1,6.3403384E-3,1.336678E-1,-1.6055886E-2],"split_indices":[7,4,0,0,0],"split_type":[0,0,0,0,0],"sum_hessian":[3.4225098E3,5.4179517E2,2.8807146E3,6.751978E0,5.3504315E2],"tree_param":{"num_deleted":"0","num_feature":"8","num_nodes":"5","size_leaf_vector":"1"}},{"base_weights":[-8.299045E-3],"categories":[],"categories_nodes":[],"categories_segments":[],"categories_sizes":[],"default_left":[0],"id":47,"left_children":[-1],"loss_changes":[0E0],"parents":[2147483647],"right_children":[-1],"split_conditions":[-1.4155152E-3],"split_indices":[0],"split_type":[0],"sum_hessian":[3.4000393E3],"tree_param":{"num_deleted":"0","num_feature":"8","num_nodes":"1","size_leaf_vector":"1"}},{"base_weights":[-1.702275E-2,-4.6710726E-2,5.218496E-3,-5.078394E-3,-4.6990853E-2],"categories":[],"categories_nodes":[],"categories_segments":[],"categories_sizes":[],"default_left":[0,0,0,0,0],"id":48,"left_children":[1,3,-1,-1,-1],"loss_changes":[4.8090515E0,8.119519E0,0E0,0E0,0E0],"parents":[2147483647,0,0,1,1],"right_children":[2,4,-1,-1,-1],"split_conditions":[1.969423E0,3.6666668E1,5.218496E-3,-5.078394E-3,-4.6990853E-2],"split_indices":[3,5,0,0,0],"split_type":[0,0,0,0,0],"sum_hessian":[3.4017666E3,2.0953848E3,1.3063817E3,1.9509635E3,1.444214E2],"tree_param":{"num_deleted":"0","num_feature":"8","num_nodes":"5","size_leaf_vector":"1"}},{"base_weights":[1.1883037E-3],"categories":[],"categories_nodes":[],"categories_segments":[],"categories_sizes":[],"default_left":[0],"id":49,"left_children":[-1],"loss_changes":[0E0],"parents":[2147483647],"right_children":[-1],"split_conditions":[2.0268139E-4],"split_indices":[0],"split_type":[0],"sum_hessian":[3.3853228E3],"tree_param":{"num_deleted":"0","num_feature":"8","num_nodes":"1","size_leaf_vector":"1"}},{"base_weights":[9.3517685E-3,3.563801E-3,4.6539858E-2,-6.560165E-2,8.509296E-3,1.9713083E-1,1.9680717E-4,3.639844E-1,-6.665955E-2,9.948888E-2,1.1269849E-2,-9.536415E-2,3.153087E-2],"categories":[],"categories_nodes":[],"categories_segments":[],"categories_sizes":[],"default_left":[1,0,0,0,0,0,0,0,0,0,0,0,0],"id":50,"left_children":[1,3,-1,-1,5,7,-1,9,11,-1,-1,-1,-1],"loss_changes":[5.194259E0,6.397529E0,0E0,0E0,4.565307E0,5.4358582E0,0E0,4.9426413E0,5.926955E0,0E0,0E0,0E0,0E0],"parents":[2147483647,0,0,1,1,4,4,5,5,7,7,8,8],"right_children":[2,4,-1,-1,6,8,-1,10,12,-1,-1,-1,-1],"split_conditions":[6.705337E0,1.3333334E-2,4.6539858E-2,-6.560165E-2,-4.884792E0,1.9918159E3,